[{"layers":[{"out_depth":59,"out_sx":1,"out_sy":1,"layer_type":"input"},{"out_depth":50,"out_sx":1,"out_sy":1,"layer_type":"fc","num_inputs":59,"l1_decay_mul":0,"l2_decay_mul":1,"filters":[{"sx":1,"sy":1,"depth":59,"w":{"0":0.23614743212735428,"1":-0.03576700621730718,"2":0.06814176297734192,"3":-0.10883471227018492,"4":-0.0011231115724725323,"5":-0.11780040667064022,"6":-0.1871718230390673,"7":0.0922089258125931,"8":-0.2416742859908703,"9":0.15333537435473327,"10":0.033888710889026584,"11":-0.005310612100626547,"12":-0.10520382942661995,"13":0.16168102771146967,"14":0.18832699914440962,"15":0.08221010595809207,"16":-0.014731209609254758,"17":-0.25266467500311335,"18":-0.12327508434614638,"19":-0.019632190156107863,"20":-0.14654362625450335,"21":0.15334341591461093,"22":-0.1210483026367416,"23":-0.12674118348009225,"24":0.058192809430830515,"25":0.08697999971166916,"26":-0.03815861563905331,"27":0.1046240341920003,"28":0.0010243516629083217,"29":0.02576888870597075,"30":-0.010702835891508122,"31":-0.01038359284140344,"32":-0.12268931104975075,"33":0.033652666517167105,"34":-0.0931346812610449,"35":-0.07629733542334297,"36":0.02391600077284138,"37":0.11026436542187705,"38":-0.05342854737128444,"39":-0.07459575035509237,"40":-0.06668985589764968,"41":-0.14999566108964393,"42":0.26218957532788134,"43":0.06590303318814843,"44":-0.09370965863181997,"45":-0.1303078622241974,"46":-0.1234280494535028,"47":0.006125806618011941,"48":0.014114554680843517,"49":-0.05766456153111242,"50":-0.1039524495941084,"51":-0.0287809296480146,"52":-0.03011000542988758,"53":0.06239182412098468,"54":0.036531491850523755,"55":0.12187473758329581,"56":0.08552019367970225,"57":-0.0522546378193807,"58":-0.03469941238441453}},{"sx":1,"sy":1,"depth":59,"w":{"0":-0.25806569506060595,"1":0.03431424053052032,"2":-0.03579224514968953,"3":0.0294026486727585,"4":-0.18070850324531368,"5":-0.0583053957889993,"6":-0.11722283556742404,"7":0.026741562440698263,"8":0.07531267776785149,"9":0.041312651042869415,"10":0.14775703146506522,"11":-0.07423643586810717,"12":-0.0383431411755066,"13":-0.16934642376253287,"14":0.035609602540151546,"15":-0.11741507546813006,"16":-0.09582331294966073,"17":0.24995214633923823,"18":-0.16669114706940644,"19":0.2773901012218679,"20":-0.0002693002961288015,"21":0.2645603991389817,"22":-0.2165785824863376,"23":-0.00799051861995503,"24":-0.010501820873389824,"25":0.020733167989295583,"26":0.08136174154836683,"27":0.07113991908222317,"28":-0.04261196190289587,"29":0.07961344824877253,"30":-0.14507158949749904,"31":0.2434073020681101,"32":-0.13309059283645097,"33":0.19469875809114912,"34":-0.06991753660013043,"35":0.17328299289375879,"36":-0.050852972016566564,"37":0.14993135082344805,"38":0.01611694620755912,"39":-0.027174953394625518,"40":0.018976855832379735,"41":0.09641710783011304,"42":-0.12734724722031607,"43":-0.2391997369002888,"44":0.10635876065213762,"45":0.19018861633418058,"46":0.01706732397330613,"47":-0.05820771890977474,"48":0.0167061776864277,"49":-0.06024149374328322,"50":0.08152122442080174,"51":0.027932414807856104,"52":-0.21271634905709294,"53":-0.06389180687306006,"54":-0.2979204306469025,"55":0.11542646402676031,"56":-0.003057456375887883,"57":-0.14065931929904762,"58":0.036160333460288255}},{"sx":1,"sy":1,"depth":59,"w":{"0":0.09690325466772681,"1":0.057507218509176214,"2":-0.28770665254120936,"3":-0.0504347205673359,"4":0.1618507288339915,"5":0.03182413034921129,"6":0.14139678814525172,"7":0.41445634894495975,"8":-0.27544997179633646,"9":0.1801898476437223,"10":-0.04251199119838054,"11":0.15152705585284082,"12":0.04422555951361916,"13":-0.017554801063181025,"14":-0.0321835144665149,"15":-0.14234401822116158,"16":0.03420904012413703,"17":-0.0066149864017671705,"18":0.14311575476337962,"19":0.10912251558657474,"20":-0.11084748839776293,"21":0.2682738873681688,"22":0.16838373953686886,"23":0.041875085563479006,"24":-0.0027103107501675965,"25":0.02004318753901342,"26":-0.2590121891477007,"27":-0.09430550523380314,"28":0.17517863435580142,"29":-0.038635615472999645,"30":0.06786848704252281,"31":-0.12826067733241484,"32":0.06277046750106408,"33":-0.04774357011415641,"34":-0.02013429504648032,"35":-0.05165689402287925,"36":-0.020419146747989097,"37":-0.01668313054656255,"38":0.12612507523711786,"39":0.047682412856489206,"40":-0.04450656118085588,"41":0.39328404429298847,"42":0.2569564707956081,"43":0.07322790990992534,"44":-0.1349865937588846,"45":0.009237612614574637,"46":-0.08345216704424423,"47":0.09221746632124446,"48":0.07406277596143451,"49":0.021816429395671546,"50":0.27506005695809854,"51":-0.1691624816744995,"52":0.05732511219429333,"53":0.002666029391727729,"54":-0.030243116358658177,"55":-0.18679718011527313,"56":-0.02436788537921742,"57":-0.294467551069626,"58":0.07175016758245503}},{"sx":1,"sy":1,"depth":59,"w":{"0":-0.27841951402069276,"1":0.06291968582390843,"2":0.02064253962638548,"3":-0.10620481154829399,"4":0.0020388931597196095,"5":0.13270045102294156,"6":0.08614142798694556,"7":0.06549140961556373,"8":0.0893834314639831,"9":-0.17703375570216262,"10":0.004732813084789893,"11":-0.03199931776300759,"12":-0.07596469086093877,"13":-0.05190941703547209,"14":0.030086704079831977,"15":0.07324429924702333,"16":-0.312876959791239,"17":-0.06732585997715305,"18":0.13228796064620438,"19":0.0891697602949327,"20":-0.012580591580359237,"21":-0.03948414553815418,"22":0.04642490087480892,"23":0.0742643612154747,"24":0.09530247639875142,"25":0.011185187413379151,"26":0.07410234338766,"27":-0.09083833384216423,"28":0.01244744849052671,"29":-0.008019311140385905,"30":-0.04043858557751826,"31":0.09011356039394987,"32":0.12943014599470085,"33":-0.15735000110916625,"34":0.043288382680916816,"35":0.07610647162805828,"36":-0.07260382690140305,"37":0.023164779996456962,"38":0.030346232270517318,"39":-0.2346958235892578,"40":0.267665207338633,"41":-0.0737179332491571,"42":-0.006927006648740063,"43":-0.18943891405166496,"44":0.25063983603259443,"45":-0.08242895881769721,"46":-0.21957061013213874,"47":-0.02067996602236132,"48":0.15682600697194132,"49":-0.16815056536330536,"50":0.1317946908242728,"51":0.21298645956320306,"52":-0.0040079252033699,"53":-0.19787723934337403,"54":0.01771221589476508,"55":-0.09975402377199258,"56":-0.05025988428402702,"57":-0.03864345399897698,"58":-0.23012126374714237}},{"sx":1,"sy":1,"depth":59,"w":{"0":-0.06698172769704376,"1":-0.03746915287379288,"2":0.11064269091233236,"3":0.008835691102420018,"4":-0.16987657821925714,"5":-0.04896912412507895,"6":0.09708324607165977,"7":0.05254110256779417,"8":0.26587463039896053,"9":-0.0029188973175336983,"10":0.05712873437728801,"11":-0.11842657932416088,"12":0.12645436599833096,"13":0.05615600025898451,"14":0.17221213233397034,"15":0.1091539303556815,"16":0.0817470092321611,"17":-0.07931667215402638,"18":0.031284533381082044,"19":-0.2786703709341144,"20":-0.020329185662804387,"21":-0.0898177417611702,"22":0.15484541274829935,"23":-0.05634643098195836,"24":-0.10907994850125684,"25":-0.026848136511834222,"26":-0.1736552671200799,"27":-0.02230199950111598,"28":0.10105099081776132,"29":0.07643032738277405,"30":-0.0015534043215620266,"31":-0.04988331684229215,"32":-0.1525813123792607,"33":-0.006524808304980474,"34":0.012681061152330465,"35":0.04905809873693209,"36":0.03574185877812843,"37":-0.023742503906453792,"38":-0.009730268768404184,"39":0.05456970185207023,"40":-0.07465129549462614,"41":-0.08251488571986218,"42":0.07825250177641596,"43":-0.11654010742551799,"44":-0.13923269085138967,"45":0.0487322124108383,"46":0.1158892759819116,"47":-0.04045265640039768,"48":-0.16691212983722836,"49":-0.023681802146322078,"50":-0.12484173213279552,"51":-0.1403052373509817,"52":0.14808521349954654,"53":-0.0785469784736334,"54":-0.0011979941147818361,"55":-0.2234382588404624,"56":0.0318088019493759,"57":0.04266000268053972,"58":0.1845052696039638}},{"sx":1,"sy":1,"depth":59,"w":{"0":-0.214676769781,"1":-0.33314509834317213,"2":0.07423888570105114,"3":-0.017736374570161317,"4":-0.05809423466646104,"5":0.07609604297149426,"6":-0.009811244234498832,"7":-0.12802526844210352,"8":-0.051784302847916394,"9":-0.05390674697316559,"10":-0.13695107777291268,"11":-0.08495467523139652,"12":-0.05109404509978595,"13":0.01820189980725324,"14":-0.19821831521126557,"15":0.08316898242633242,"16":-0.24812509328712995,"17":-0.06410967078520091,"18":-0.14791102869657902,"19":0.11995476713152452,"20":0.07173129779914868,"21":0.10124920251020827,"22":0.08732190603080697,"23":0.15458650799572313,"24":-0.11354717192345393,"25":0.08031076094484446,"26":-0.0501557327619816,"27":-0.07718456555723499,"28":0.04285946864815755,"29":-0.19513718377124042,"30":0.14544397702884207,"31":-0.21516657098486983,"32":0.08784342606681574,"33":0.002975673283543582,"34":-0.015927276576592493,"35":-0.0997776554121125,"36":0.129623860677763,"37":0.008331426746822794,"38":0.0718822203983537,"39":-0.2125618229561124,"40":-0.008220820557434711,"41":0.07794168380023045,"42":0.0309847750483121,"43":0.009865652352297525,"44":-0.11602963364321142,"45":-0.12531657674776644,"46":0.06574574475400784,"47":0.1856223831294718,"48":-0.09009350785379189,"49":0.13503771110416055,"50":-0.11142023331856603,"51":-0.18701037298210224,"52":-0.04769299641681355,"53":0.1817381893100981,"54":-0.0891575544151924,"55":0.21410003503516936,"56":-0.2129552566460835,"57":0.06851942808268213,"58":-0.07042957407916407}},{"sx":1,"sy":1,"depth":59,"w":{"0":0.037634268689909066,"1":0.030323663340215648,"2":0.30196262572927124,"3":0.15404838945785765,"4":-0.07114668610460745,"5":-0.038557837522351444,"6":-0.037763951878127984,"7":0.012236518553466738,"8":-0.08577517512935788,"9":-0.2619581648221038,"10":-0.08705660020467285,"11":0.04712236310836648,"12":0.09494770676248247,"13":-0.2740709327442607,"14":0.11424930295208328,"15":-0.008214346734772449,"16":0.18902521190928467,"17":-0.28043279620035294,"18":0.09324176511106441,"19":-0.052405563241705644,"20":0.07402726461459538,"21":0.13946316401745854,"22":-0.3608255122224799,"23":-0.025618962310230742,"24":-0.10155324359722283,"25":-0.13068055096498735,"26":-0.15646641768807282,"27":-0.004218450265577123,"28":0.2613664948102809,"29":0.10361657011903805,"30":0.047415501295748994,"31":-0.059174005080966534,"32":0.23781227371035626,"33":-0.06771160125890639,"34":0.02927881120603477,"35":-0.06417894012500829,"36":0.1395899534265565,"37":0.06594888810911126,"38":0.1369870261060138,"39":-0.09926686790348874,"40":0.23866377551078022,"41":-0.32540560186972484,"42":0.01572824540095814,"43":-0.011597279286830539,"44":0.12802456931992887,"45":0.03975895159826535,"46":0.06117876737807434,"47":-0.20759054530241686,"48":0.012603069182328026,"49":-0.16902461422246648,"50":0.17632975068734785,"51":-0.02208107446938017,"52":-0.013284198238193809,"53":0.1693162632937978,"54":-0.13926488519743624,"55":-0.08422469825767612,"56":0.275638652886946,"57":-0.00248546464526237,"58":-0.12000387780501878}},{"sx":1,"sy":1,"depth":59,"w":{"0":-0.09026378711120245,"1":-0.02026662474919471,"2":0.17282617254547467,"3":0.02032574785795558,"4":-0.09415704203659844,"5":-0.28425657254762143,"6":-0.010623416594086716,"7":0.06173845318612267,"8":-0.08378432220407031,"9":-0.048528751367748965,"10":-0.15546998795896902,"11":0.05779277876749922,"12":-0.01579503122863934,"13":-0.26641277055327434,"14":-0.4018208008944141,"15":-0.10575135541964006,"16":0.19297802704895436,"17":0.021710794573116175,"18":-0.0844231251603364,"19":-0.08004224087291935,"20":-0.05000168070029181,"21":0.12783195625098,"22":-0.15881533191721345,"23":0.1003690898684737,"24":0.04552622372529345,"25":0.0104042693612097,"26":-0.0074775831879445856,"27":-0.23766146794640794,"28":-0.4513283149019803,"29":-0.08103676725186217,"30":-0.07313365677501861,"31":0.04078354672315336,"32":-0.3237477606752651,"33":0.17496277929774742,"34":0.18474327039399976,"35":-0.015168279180747105,"36":0.07632356926294052,"37":0.09992494235139356,"38":-0.04055921190409767,"39":-0.08696083475940954,"40":-0.10833236768335354,"41":-0.04147423988444442,"42":-0.02118493045068756,"43":-0.09718609423950564,"44":0.012019527145403178,"45":0.1292634647989703,"46":-0.19708529112832313,"47":-0.11015754393495575,"48":-0.0566727739517431,"49":0.03572557784677124,"50":-0.15305806291112514,"51":-0.0044130504483832905,"52":-0.14629802876933842,"53":-0.08984602453623572,"54":-0.0767530594017231,"55":0.007374103058828326,"56":0.03761747900084424,"57":0.07523532806621833,"58":0.026236314585459858}},{"sx":1,"sy":1,"depth":59,"w":{"0":-0.03721407097495991,"1":0.015343523482967062,"2":0.050114067156059254,"3":0.21810775260171306,"4":-0.11180001497306742,"5":-0.13836189934652562,"6":0.24974864556251736,"7":0.003245248988262948,"8":-0.0653316945493686,"9":0.2160961588299063,"10":-0.015165086150622288,"11":0.24944466207945687,"12":-0.1004760296068889,"13":-0.02029365101269843,"14":0.07476585830264058,"15":-0.11582021952910253,"16":-0.04402545092050076,"17":-0.03697896799217716,"18":-0.0033107640211240143,"19":-0.05768050041248917,"20":-0.15304465257133376,"21":-0.023746357993914533,"22":0.25214114975531654,"23":-0.039614711830914064,"24":0.08543223141148543,"25":-0.10168611506006683,"26":-0.16194209622413702,"27":0.17588064022391092,"28":-0.029940517705340914,"29":0.010610894985710767,"30":0.08778270674159122,"31":0.08503223268444189,"32":0.04999916927260061,"33":-0.1783518073544692,"34":0.09374860463319958,"35":0.040392991524111126,"36":-0.029860939204353964,"37":-0.019655869623921903,"38":-0.002691752441256664,"39":0.035735782366491615,"40":-0.04337796244392065,"41":-0.12926085077272165,"42":0.06519904110508862,"43":-0.18489935690870055,"44":-0.11047292487566372,"45":-0.060863015240048064,"46":0.06420000646524082,"47":-0.08858377646715816,"48":0.22020790897977527,"49":-0.0167020038570998,"50":0.15539764828313976,"51":0.011984089800950247,"52":0.08417785297850415,"53":-0.15873245300909708,"54":0.02895104120852958,"55":0.014704718327775503,"56":-0.38227656688115,"57":0.3184010063959462,"58":0.23178525009566364}},{"sx":1,"sy":1,"depth":59,"w":{"0":-0.017008868872255247,"1":0.12605230749086999,"2":0.13632833807842493,"3":-0.011352646923989584,"4":0.05095317829068784,"5":-0.1122540771655828,"6":-0.0038615945163408137,"7":-0.14522414090273827,"8":-0.03323187851814568,"9":-0.05518504239141994,"10":-0.179570318630536,"11":-0.0778851235577161,"12":-0.0672445650926636,"13":-0.18362588206948385,"14":-0.030471728925516913,"15":-0.04010068989468376,"16":-0.04284634164237952,"17":-0.16010158467765928,"18":0.23995303219783307,"19":-0.0014621028448457065,"20":-0.12375532993562266,"21":0.07317378491393159,"22":0.25531462047458575,"23":0.02838164357110468,"24":0.20753585499307714,"25":0.12844415681644186,"26":-0.12917036834538007,"27":-0.013778887108334466,"28":-0.08707772802143741,"29":0.07499730887694644,"30":0.019429659257549324,"31":0.12182213043148106,"32":-0.10783361902840476,"33":0.05972994320293637,"34":-0.18407234234281808,"35":0.07943046954467617,"36":0.06987815523708008,"37":0.032043906735548786,"38":0.23985086964762173,"39":0.07646864562497824,"40":0.01405761343619583,"41":-0.33039352685560314,"42":-0.18840423224320088,"43":-0.10268339962308798,"44":-0.04566504051417081,"45":-0.09816314153030394,"46":0.07354367715597987,"47":0.08500412917159053,"48":-0.04715813723021172,"49":0.063107916912149,"50":-0.12960648770070635,"51":0.10683314169992708,"52":0.006239497103078736,"53":0.09878759153141636,"54":0.07587315750595915,"55":0.07039700643777101,"56":-0.04158288548755911,"57":-0.03817795347585232,"58":0.028629665839812}},{"sx":1,"sy":1,"depth":59,"w":{"0":0.12373371361813192,"1":-0.07698397830442529,"2":-0.005967716180754314,"3":0.085166688113683,"4":-0.03970971414578433,"5":0.03586518118764834,"6":0.03648419109166613,"7":-0.15660901282295545,"8":-0.09504828133269244,"9":-0.13620790667742685,"10":-0.01678136621773404,"11":0.27003343889923515,"12":-0.07036292632139832,"13":0.17163254303536243,"14":-0.1086547652619122,"15":0.04502144040135619,"16":0.03866693434475754,"17":0.03525240956782613,"18":-0.15113211283831374,"19":0.12300154758142154,"20":0.09660634786937602,"21":0.008654944792733505,"22":-0.004755284632547031,"23":-0.10245993934375097,"24":0.2303357768135835,"25":0.09553881702905066,"26":0.018420780299443495,"27":0.15599824347135374,"28":0.08887042396129752,"29":-0.19689298499320748,"30":0.12811081708077354,"31":0.11130461575336038,"32":-0.15633850673144484,"33":0.12469841267277544,"34":0.2296217139931615,"35":0.17285243067790587,"36":0.07078029827787248,"37":-0.21124325933095636,"38":0.004216076644647326,"39":-0.24621517016583294,"40":0.060461810152036964,"41":-0.10751744237068755,"42":0.0942544096995582,"43":0.15885296060253282,"44":-0.16161855480588594,"45":-0.11044567070222422,"46":-0.09086749307051009,"47":0.07333907665448292,"48":-0.20829881865165756,"49":-0.05373777503994982,"50":-0.18090920836969324,"51":-0.023748832977556335,"52":0.08777168718556501,"53":-0.03911845812217468,"54":0.0422693771539964,"55":0.07194996927387207,"56":0.02221393315218067,"57":-0.13542293495584717,"58":-0.06569318147944356}},{"sx":1,"sy":1,"depth":59,"w":{"0":-0.039444987439627675,"1":0.08057180917874812,"2":-0.017976918378462572,"3":0.011725055205947807,"4":-0.009577617566143951,"5":0.021939152512855116,"6":-0.0012461951703648176,"7":-0.11940789374794541,"8":0.020873836953874507,"9":-0.0036218790028589784,"10":0.23489657039565529,"11":0.026396623599197592,"12":0.0578103985953214,"13":-0.12320283213802238,"14":0.21639055874120253,"15":-0.014939706773177101,"16":0.05326223963779045,"17":-0.2567136300977994,"18":0.0899610777024538,"19":-0.18283035053304397,"20":0.1989495339357121,"21":-0.35200394166225885,"22":-0.0912647574738163,"23":0.18153481507856353,"24":-0.09633421570219095,"25":0.04878706782134452,"26":0.09761052724896552,"27":-0.05339551204844393,"28":0.10932394529423764,"29":-0.16836670071502086,"30":0.03258532883430144,"31":0.029445613630668697,"32":-0.22202214078606297,"33":-0.03486481601810668,"34":-0.20316363459587258,"35":-0.03506199994363262,"36":0.08646941614259256,"37":-0.03378937649215648,"38":0.025977756319312425,"39":0.05517193388053829,"40":-0.14029785491506122,"41":-0.05979842614954867,"42":-0.17991720878827835,"43":-0.21072698441740273,"44":0.11028994358097208,"45":-0.002172690207170551,"46":0.226234924364065,"47":0.07668599740105454,"48":-0.0370139419231192,"49":-0.17071922596121775,"50":0.08357349381319541,"51":0.04407782213082995,"52":0.08823717859313097,"53":-0.2185472542225148,"54":-0.128391094168714,"55":0.16442582012850288,"56":0.0854499452540882,"57":0.0032766956001068375,"58":0.006979368250809561}},{"sx":1,"sy":1,"depth":59,"w":{"0":0.16293029633711203,"1":-0.15687987826951882,"2":0.09850014969989063,"3":0.10056449066131692,"4":0.11341658636896561,"5":0.08856589832363407,"6":0.003966987961076743,"7":0.02551169298618238,"8":0.18602475566595134,"9":-0.06895999468107974,"10":0.15076856424874327,"11":0.09846768214238852,"12":0.07423533991298566,"13":0.018796727799313163,"14":0.0732804495433005,"15":0.03646647170714678,"16":-0.009987043075406009,"17":-0.10919395085101256,"18":0.11263176143683734,"19":0.11724086097645298,"20":-0.1364364030181404,"21":-0.13531872336982748,"22":0.057713933046844995,"23":-0.2187418564234702,"24":-0.08270645496819812,"25":-0.1780710709495273,"26":-0.1438363949443605,"27":0.23269941754380144,"28":0.05265128555700144,"29":-0.01047935811910901,"30":-0.00592049298646181,"31":0.06783616556115835,"32":0.085967410173762,"33":0.04629020147191828,"34":-0.3218448957714039,"35":0.08398525862246647,"36":0.11817604250409146,"37":0.08772437565206251,"38":0.039615389521429165,"39":-0.14760019784012335,"40":-0.11758346179319516,"41":-0.02424852922166773,"42":0.2521856451009414,"43":-0.03597218423891852,"44":0.1346428253726982,"45":0.07524552026816303,"46":0.07330678667220913,"47":0.060133358299399135,"48":0.13070133205693005,"49":-0.014399188602855604,"50":0.2719690274630556,"51":0.07331492101471278,"52":0.2748387754744489,"53":0.05687658436216156,"54":0.023038376294046137,"55":0.021150332589638835,"56":-0.006488460100615506,"57":0.05648392751477421,"58":0.14679518867072597}},{"sx":1,"sy":1,"depth":59,"w":{"0":0.34633619829370665,"1":0.13334749249895433,"2":0.058229710765631056,"3":-0.06354266498123118,"4":0.023136377019843734,"5":0.11405980116006706,"6":0.18065882169876454,"7":0.12324636764111307,"8":0.0921156465855137,"9":0.291623339151805,"10":-0.022080661736707904,"11":0.3673731774660853,"12":0.14101630262359144,"13":-0.2226186532903333,"14":-0.02912716459266623,"15":-0.14671140403045846,"16":0.11311485454462523,"17":-0.12013017641073338,"18":-0.24946318125128802,"19":0.027208852233664496,"20":-0.04443102892347872,"21":0.061272523763117495,"22":0.03389102263265213,"23":0.04954347715545381,"24":-0.12845092039548436,"25":0.11846340207789019,"26":-0.022506957498891936,"27":-0.2616712647993377,"28":-0.3888423985366244,"29":-0.040799253029256195,"30":-0.05168596493519684,"31":-0.04907369768158857,"32":0.017877699505360736,"33":-0.20250444100987938,"34":0.019348858691970047,"35":0.15003175994628834,"36":-0.09549733336373992,"37":0.03210027368921201,"38":-0.16542607691738326,"39":0.0064284672983876134,"40":0.0663419838072276,"41":0.06585398964104311,"42":-0.2729943564971421,"43":-0.20858016098537852,"44":0.09420273081747321,"45":-0.008031751921027596,"46":-0.052296331183106504,"47":-0.1387888744109097,"48":0.15924862508994697,"49":-0.09142905350075486,"50":0.10384963386734054,"51":-0.15478525597339687,"52":0.2921669553477922,"53":0.11071340879375158,"54":-0.07443855840902044,"55":0.0984486463356495,"56":-0.1967233118356146,"57":-0.03744055400022329,"58":-0.09770244680149207}},{"sx":1,"sy":1,"depth":59,"w":{"0":0.11576832398791809,"1":-0.003920624106464624,"2":-0.012905895593558696,"3":0.2607611379816561,"4":-0.11180642072022219,"5":-0.05995767637697396,"6":0.1451499821850385,"7":-0.05594532802176947,"8":0.1542416855263407,"9":0.016441668594343078,"10":-0.0717389863389708,"11":0.12520830553907408,"12":-0.15558818381594883,"13":-0.03185282932397586,"14":0.19819725012301395,"15":-0.18848255107434225,"16":-0.053516709287187436,"17":0.13393851304839768,"18":-0.20347585922027522,"19":0.1599123979190145,"20":0.028366559578363846,"21":-0.014908577925373135,"22":0.11650221527889965,"23":-0.2503914686137453,"24":0.3968490422747773,"25":0.09340586451406435,"26":-0.09894922003028733,"27":-0.031082144925809487,"28":0.07632160772957955,"29":0.01942246862850296,"30":0.1458437191710568,"31":-0.03046395731639731,"32":-0.11332397597639372,"33":-0.025886956807069764,"34":-0.09061002711873398,"35":0.1733147385028194,"36":-0.15434903375305156,"37":0.05151497067412707,"38":-0.04799077207594582,"39":0.09115917103506602,"40":0.11915432491971938,"41":-0.02070034082907982,"42":-0.10087225466014628,"43":0.02148058265822654,"44":0.010437020236609315,"45":0.09125780660560663,"46":0.028428094226728682,"47":-0.05545704103608059,"48":-0.12891761197079557,"49":-0.035202479573485705,"50":-0.014015604027036815,"51":0.03932205443654928,"52":0.11473166641292365,"53":-0.2032034622454001,"54":-0.20012051384442953,"55":0.23447894303070851,"56":0.3149626550930904,"57":0.09649248496549183,"58":0.10224709820725575}},{"sx":1,"sy":1,"depth":59,"w":{"0":0.20719674588458864,"1":0.18007502033305006,"2":0.03739946509231461,"3":0.07767004018083566,"4":-0.1585161526731772,"5":0.06352638271001809,"6":0.05221027416739851,"7":0.27920478517867653,"8":-0.07422384439141631,"9":-0.02493035874620799,"10":0.06807548500245303,"11":-0.08530575885536007,"12":0.04973049009223985,"13":-0.07084058189332552,"14":0.030518511161600814,"15":0.03300489246559148,"16":-0.055826475016135135,"17":-0.03416431204655118,"18":0.10056395805348634,"19":0.06847264254950339,"20":0.11400489653921081,"21":0.02308585490883501,"22":0.2318856805773873,"23":-0.06851073464841777,"24":0.008837440414738008,"25":0.13365410204847727,"26":0.027625373556321477,"27":0.05968596450856393,"28":-0.2917556039678538,"29":-0.01582475672262137,"30":0.07941060861565578,"31":0.10810399138675438,"32":-0.008430753897103366,"33":0.05254999167312771,"34":0.06629815014732489,"35":0.15787265998106423,"36":-0.11298585420719386,"37":0.19603748738798035,"38":0.17067345567845243,"39":-0.16660583915097038,"40":0.09880328776362492,"41":-0.10887812275311232,"42":0.038752781705013,"43":-0.0838221882055844,"44":0.029419921728384174,"45":-0.21540685698796727,"46":-0.03338397089190656,"47":-0.12527000783008554,"48":0.16438751621478803,"49":-0.1355136235509925,"50":-0.12648054313595283,"51":0.060380903167520074,"52":-0.024062571097998614,"53":-0.20732123873272526,"54":0.05230696528706131,"55":-0.031675931474533486,"56":-0.005665649282386123,"57":-0.099875191274858,"58":0.021752112560861996}},{"sx":1,"sy":1,"depth":59,"w":{"0":0.09122248947294961,"1":-0.029951913200537826,"2":0.07451819853664934,"3":-0.04362359197980957,"4":0.016175618995340906,"5":0.02364079899233577,"6":0.026690098051617074,"7":-0.11100332001054544,"8":0.15144979713945952,"9":0.04621976960545243,"10":0.05606357827848463,"11":-0.021691088375757582,"12":-0.2727997477192407,"13":0.06961619610270452,"14":0.05646920643111102,"15":0.08556668318536044,"16":-0.08092040168782147,"17":0.14371513757260695,"18":0.18906479238027868,"19":-0.21186703336859317,"20":-0.01850390021965123,"21":0.2859282547017269,"22":0.09731279526933165,"23":0.04542051056935971,"24":-0.29640926401567314,"25":-0.01336623007878211,"26":0.08393314759993345,"27":0.03983468114126014,"28":-0.09991627358210005,"29":-0.14687062411558635,"30":0.16905974376738928,"31":-0.11493905553303961,"32":-0.09257095891376224,"33":-0.10943589167209318,"34":0.1622985172020185,"35":0.006067028054837289,"36":-0.19450313322871915,"37":-0.048582138949026396,"38":-0.0563999215429836,"39":0.08633905026901265,"40":0.005120849823594811,"41":-0.12524409419637705,"42":0.17824496789385927,"43":-0.05242522452016149,"44":-0.0260259337215092,"45":-0.1314575456237775,"46":-0.1569941812269529,"47":0.018106886296686886,"48":-0.048611270553637925,"49":0.09460319679564512,"50":0.19762186664939804,"51":-0.061133116769344215,"52":0.015069830225631568,"53":-0.012113404099246142,"54":-0.022519648092705926,"55":0.04092556987804036,"56":0.05269479414912842,"57":-0.30374742734244176,"58":0.19230251211395488}},{"sx":1,"sy":1,"depth":59,"w":{"0":0.07767539738827944,"1":0.0588079112137519,"2":-0.17065349405139,"3":-0.02825224004061702,"4":0.03938189263382426,"5":-0.04552239112453065,"6":-0.3737611955023787,"7":0.23574584435175508,"8":-0.011569666445147338,"9":0.08691755929779839,"10":-0.1315685778503729,"11":0.04963496958046321,"12":-0.2168454620605167,"13":-0.18701956111194307,"14":-0.03095658260881374,"15":-0.06124367862792487,"16":-0.22701378659937607,"17":0.2503655728391244,"18":-0.18167499128927678,"19":0.19457534645651586,"20":0.15212591363544506,"21":0.03931905286780962,"22":0.052000862194249355,"23":0.035289422148285954,"24":-0.05268644580735729,"25":-0.1943580127892816,"26":0.10356029993296807,"27":-0.13863766096594862,"28":-0.25073486415098706,"29":0.010403485267107557,"30":-0.14259022837332033,"31":-0.004337723466186595,"32":-0.1689766432748606,"33":-0.06600657374682903,"34":-0.13518497989355957,"35":-0.06542092411256777,"36":-0.24282326851997443,"37":0.17507929543840894,"38":-0.08679090333006524,"39":0.09353501613721975,"40":0.20633484560604784,"41":-0.04939640584968165,"42":0.002357877692183299,"43":0.1656715301065054,"44":-0.21307572835205685,"45":-0.005013763950306761,"46":0.16400536253270842,"47":-0.23368242350980473,"48":-0.14753606357455182,"49":-0.13282551039085133,"50":0.07572345107094086,"51":0.07354030299907563,"52":-0.37641632025801586,"53":0.2543606324732282,"54":-0.12162645232300659,"55":-0.008745461381067484,"56":-0.016631803879605885,"57":-0.14355445427295524,"58":-0.03998769663418478}},{"sx":1,"sy":1,"depth":59,"w":{"0":0.05508004679148691,"1":-0.13904818413710807,"2":0.02283996467674806,"3":-0.16010547636356554,"4":0.006368074508219044,"5":-0.12413907435832923,"6":0.17789172708955744,"7":-0.0443715906552667,"8":0.11771304639490171,"9":-0.05150377974698056,"10":-0.08384413703644748,"11":-0.29362485578498027,"12":0.22138180379911415,"13":-0.2150075199745756,"14":0.18258129213124388,"15":0.0974205324815925,"16":-0.038973352510115106,"17":0.07475178059806827,"18":0.07172307087507326,"19":-0.04132913926200779,"20":-0.00086512614874371,"21":-0.14602580167853213,"22":0.06661375966196062,"23":-0.04025509877134748,"24":0.002276745905258192,"25":0.20537562234491172,"26":0.01883748845447355,"27":0.10350101471333813,"28":0.03867212920274687,"29":0.037132479664625635,"30":-0.02062242973867381,"31":0.0016360930328225163,"32":0.10451898784611267,"33":-0.03950369097845172,"34":-0.1832723002559566,"35":-0.08261054737773314,"36":0.04392207468013797,"37":-0.08179650314773737,"38":0.20400739387112793,"39":0.016545575548209932,"40":0.1520593143654981,"41":-0.020908627575155207,"42":0.017795601571206784,"43":0.011013867387678193,"44":-0.09970864055432033,"45":-0.03248079981596368,"46":-0.15645175414420184,"47":0.20937275722672422,"48":0.0575929761818886,"49":-0.2467760864322506,"50":0.04780824873819435,"51":0.24847107590824372,"52":0.12366667480612009,"53":0.0520692074863428,"54":-0.10433621464244067,"55":-0.2588180459770496,"56":-0.12049007329570015,"57":-0.019659687038719037,"58":0.017201894672884292}},{"sx":1,"sy":1,"depth":59,"w":{"0":-0.15802900290872376,"1":-0.13666090694152877,"2":0.03762416236885479,"3":-0.19794922925916458,"4":-0.10905309566669,"5":-0.05818640206223318,"6":-0.17795600082834012,"7":0.08390426422883121,"8":-0.13806458256657023,"9":0.10495580284006487,"10":-0.16904575793438764,"11":0.04751261792358423,"12":-0.03091640036666018,"13":-0.04420930677280026,"14":-0.06360648520347081,"15":0.06994766257210537,"16":-0.14472186925665773,"17":0.05800319492984602,"18":-0.03191636346272728,"19":-0.05342485332402733,"20":0.20963512006620677,"21":0.017998023059699653,"22":-0.07727415890281489,"23":-0.0667101145204235,"24":-0.18835894783603932,"25":0.08673483975440843,"26":0.0837141329139102,"27":0.11318544511328615,"28":-0.09314713569971887,"29":-0.21376001798917604,"30":0.0771848110846277,"31":0.058279885772661924,"32":-0.20743444156269794,"33":0.03622216727493976,"34":-0.07445188701611657,"35":0.11902213257285786,"36":-0.1704652637956002,"37":0.039794215135406416,"38":0.04665415394821274,"39":-0.07277530668568359,"40":0.15931207790080393,"41":-0.012268094381397095,"42":-0.08509227714675462,"43":0.13843702090890853,"44":0.03402952945986503,"45":0.014412985193059214,"46":0.041077279152302325,"47":0.004433686406439412,"48":-0.08026550807013788,"49":-0.16781840581738552,"50":-0.07579071650231431,"51":0.11709204838374516,"52":0.300863249217706,"53":0.13558777285644974,"54":-0.11831359140086942,"55":-0.027585098906757456,"56":-0.08805618233598773,"57":0.04783749843184273,"58":-0.06853545054763523}},{"sx":1,"sy":1,"depth":59,"w":{"0":0.16723364744189417,"1":-0.0672728874637646,"2":0.08311136079114084,"3":-0.02715464283010249,"4":0.2548341781696242,"5":-0.20050916956494705,"6":0.03410663267276006,"7":-0.08729104885798585,"8":0.04531687581921862,"9":0.05106911187225914,"10":-0.10041448068808641,"11":-0.1054464901901247,"12":0.08366593548552165,"13":-0.2469588731369695,"14":0.12099843163399657,"15":-0.1278568233485655,"16":0.0004549089841359203,"17":0.008139173262425687,"18":-0.07543288001591424,"19":-0.09433161490517253,"20":-0.010348711914995205,"21":0.04667102068147499,"22":-0.15855866431304458,"23":0.01077306281825745,"24":-0.3503536419851241,"25":-0.03713069843903717,"26":-0.15315050948742834,"27":0.10413041875336149,"28":-0.3812588191520836,"29":-0.033270346555449304,"30":-0.04934446443349496,"31":-0.19613572718485098,"32":-0.011977984073894903,"33":-0.13566718251359428,"34":0.06959499016949683,"35":0.0042176277445608555,"36":-0.22419711481519594,"37":-0.3201508516079602,"38":-0.0009801718276023043,"39":-0.09698397514176813,"40":0.08853456025154846,"41":0.23192778153478952,"42":-0.137258517814035,"43":0.2281339436131674,"44":0.1699682462397987,"45":-0.04177812532498346,"46":-0.08725701471126168,"47":0.09317193560668925,"48":-0.1351603381527474,"49":-0.05328120363509564,"50":0.025771530973931905,"51":-0.1015307892858159,"52":0.20448543815403086,"53":0.07180687908074064,"54":0.13299510000629208,"55":0.04095153477447727,"56":0.06911292527804656,"57":-0.1564473298033054,"58":0.047402169551302345}},{"sx":1,"sy":1,"depth":59,"w":{"0":0.06119157777575161,"1":-0.08340924101489851,"2":0.12395245665426698,"3":-0.09097582684126158,"4":-0.05109056672175843,"5":-0.12784631784961364,"6":0.018649315354065246,"7":-0.08046402522932306,"8":-0.2682203916467139,"9":-0.1206323674600091,"10":0.08374702819859649,"11":0.1453995830768618,"12":-0.14196147688388885,"13":0.13471243473696012,"14":0.12245074747816415,"15":-0.1319604667525325,"16":0.058357176496961004,"17":0.05652078100553969,"18":-0.02819639348254452,"19":0.006074041939278117,"20":-0.08452267212625449,"21":-0.1657823186104165,"22":0.10469671426891596,"23":-0.19309332442139474,"24":0.016060018123872193,"25":-0.25902296152195897,"26":-0.06592800505925484,"27":0.16091031727128038,"28":0.04706327101650958,"29":0.11024813352479017,"30":0.01495105496794588,"31":-0.08851593882453546,"32":0.12751395023391124,"33":-0.16399293234524787,"34":-0.056671809629588774,"35":-0.27500448697465646,"36":0.052637049400304205,"37":-0.151968261753201,"38":-0.06396280035894585,"39":0.13142521763763837,"40":0.11400410780573862,"41":0.08280894599268585,"42":0.10343209699353564,"43":0.0636996529171692,"44":0.04820960793468683,"45":0.06793490044334204,"46":-0.07978215835803279,"47":-0.20024070448733136,"48":-0.03749061949695702,"49":0.06001527368950165,"50":-0.1730072878970903,"51":-0.01353340930976537,"52":0.08451847354027463,"53":-0.13143767363898484,"54":0.14220932357649083,"55":0.16850486932396994,"56":0.027050175333572863,"57":-0.20440442845871248,"58":-0.07201996278508738}},{"sx":1,"sy":1,"depth":59,"w":{"0":0.08975853175421222,"1":-0.35981355957477906,"2":-0.13225764303621704,"3":0.05333263158997219,"4":0.07449148105751373,"5":-0.02597938704579549,"6":0.1403899567256529,"7":-0.04530086248019057,"8":-0.024157467739895893,"9":-0.3355344571925573,"10":0.0299526548846102,"11":-0.2771261270104406,"12":-0.02104861236183356,"13":-0.08151017636958605,"14":-0.015578979302538345,"15":0.22997887002453096,"16":0.06672715471418533,"17":-0.10879180398214928,"18":0.04365190816688568,"19":0.02137248434096432,"20":0.08026118536427121,"21":0.1340774424829907,"22":-0.05703928789214561,"23":0.009990457488310345,"24":-0.13162456834772615,"25":0.07474340465481767,"26":-0.018830684015953027,"27":-0.03178627430247311,"28":-0.13042550793067503,"29":0.23684182872191356,"30":0.17200819516606153,"31":-0.051598292955867736,"32":0.030030791735191527,"33":0.06437312871681541,"34":0.09515278071334954,"35":0.15375478943201948,"36":0.16993940950282785,"37":-0.21718938786530598,"38":0.04768322533887824,"39":-0.08292887506292725,"40":-0.037036603299789,"41":-0.15768844203602342,"42":-0.0953813470343261,"43":-0.23496882318301707,"44":0.05533633479471906,"45":0.02656828722551923,"46":-0.14340944476843162,"47":0.05336343703515801,"48":-0.250767960573981,"49":-0.041645345030555295,"50":-0.11024739289650708,"51":-0.134532667516737,"52":-0.11890712241027443,"53":0.18922876332835145,"54":-0.05501010569420545,"55":0.057051375934572636,"56":-0.1341783151475267,"57":-0.08846581354988924,"58":-0.06386551645395722}},{"sx":1,"sy":1,"depth":59,"w":{"0":0.006656743621781264,"1":0.06181764144061148,"2":-0.01362642135023121,"3":0.09124756920007081,"4":-0.21807247993899853,"5":-0.20768351920603334,"6":0.06733720671743006,"7":-0.02540178904356174,"8":0.14620877820297273,"9":-0.07582118549956392,"10":0.1406379778676523,"11":0.0686843057231302,"12":-0.043198072779762335,"13":-0.02919775101817382,"14":-0.14719722061748275,"15":0.17928611204369874,"16":-0.010301744039396774,"17":-0.1392087677369518,"18":0.2990007909344284,"19":-0.2963380378744173,"20":-0.16910048746989448,"21":0.023409210862062622,"22":0.16992798838260842,"23":0.09712022663920572,"24":-0.14004058161720373,"25":-0.03686262877844526,"26":0.12687287212161683,"27":0.28056470199767164,"28":-0.016229406523629593,"29":0.27491634694632544,"30":0.025063503660555177,"31":0.057697021620751264,"32":0.17637177488639547,"33":-0.050502916119195204,"34":0.06532164181265285,"35":-0.1396788910355334,"36":-0.23778268914083955,"37":-0.25818557115086854,"38":-0.11581563869744432,"39":-0.00993105030229692,"40":0.049206511004852835,"41":0.05117691328013008,"42":0.154388839957795,"43":0.04193160539448628,"44":-0.002340982817862699,"45":0.13444611250455796,"46":0.015279493136899698,"47":-0.12506896668125633,"48":-0.057248410469359884,"49":0.11305252547062111,"50":-0.11876470724207619,"51":0.04640729034019751,"52":-0.13223678750738926,"53":-0.05990815105971876,"54":-0.17877949613606653,"55":-0.08972533653907913,"56":-0.1713728616469806,"57":-0.20222266281975787,"58":0.024566146547681623}},{"sx":1,"sy":1,"depth":59,"w":{"0":-0.054964385946717674,"1":0.025728880578792628,"2":0.03254444404157012,"3":0.09505870866842134,"4":-0.017778171001806318,"5":-0.10344813051174268,"6":-0.0927177999184464,"7":-0.03487165740625945,"8":0.06757865667647192,"9":-0.0649401949398101,"10":-0.07627795064936788,"11":0.03477657583837354,"12":-0.2045692793654425,"13":-0.008614495912591188,"14":0.14193890174866447,"15":-0.035834129397602936,"16":-0.2507559679579441,"17":-0.14177642916385452,"18":-0.08805230222339977,"19":-0.3124272771259117,"20":0.21688051185936957,"21":-0.008961157329366422,"22":0.12669782280227923,"23":-0.04856933404409462,"24":0.07637700203130908,"25":-0.1649904513985264,"26":0.0462911543728019,"27":-0.2818478372545324,"28":0.21978315340559515,"29":-0.10303756330164823,"30":-0.1321148668359156,"31":0.09377684036035352,"32":0.04304326999869069,"33":0.09916746010974302,"34":-0.030968818323839613,"35":-0.4989910853395838,"36":0.06217450464018836,"37":-0.1135376681829484,"38":0.23618330376955926,"39":0.025410773993816572,"40":0.21083918418243972,"41":-0.15412706002813503,"42":-0.03529697794945093,"43":0.04055173981593089,"44":-0.12185387853930991,"45":0.07508033344355829,"46":-0.2092509169214173,"47":0.031333489382977496,"48":-0.027492387982945482,"49":0.19848086185900893,"50":-0.1452324783321139,"51":0.07256015944457592,"52":0.23474060141817277,"53":0.2759244940605325,"54":-0.0733726126460492,"55":0.0909333371966265,"56":-0.1318336707065229,"57":0.22038827804541064,"58":0.11639668128835792}},{"sx":1,"sy":1,"depth":59,"w":{"0":0.03124760793486691,"1":-0.23298574328897909,"2":0.14307020075113785,"3":-0.08303906371880075,"4":-0.18122227015547127,"5":-0.080318518336199,"6":-0.05172304916783634,"7":-0.011629099084663102,"8":-0.11809218479700888,"9":-0.0001468932376664937,"10":0.2530694915112831,"11":0.00957738941557897,"12":0.11445450190115895,"13":0.057832368363349325,"14":-0.05378525796139303,"15":0.08768265440332385,"16":-0.08294215245214409,"17":0.21925542945796944,"18":-0.005616601927385218,"19":-0.01470830366354665,"20":-0.04663409218466592,"21":-0.06546868698799888,"22":0.12785833528625845,"23":-0.1518124019772361,"24":-0.11607578788888206,"25":-0.08541926577035305,"26":0.09976506863187265,"27":-0.20015508750319333,"28":-0.09114271544896313,"29":-0.02463239668771861,"30":0.0285538013846978,"31":0.10901203327335461,"32":0.2080026745994385,"33":0.16776312543993954,"34":0.10892974984140441,"35":0.014852378406446425,"36":0.021187480782790303,"37":-0.009829893288625267,"38":-0.2761542659730309,"39":0.01961147980941661,"40":-0.024973793994464154,"41":0.051043227069692686,"42":0.001632293922347491,"43":0.15957896576812547,"44":0.05636891173714829,"45":0.1816764943237361,"46":-0.12172885435075377,"47":-0.11995130723549963,"48":-0.13397585864113085,"49":-0.12744125109653126,"50":-0.21288351089492635,"51":-0.191707666333084,"52":0.3988593042475033,"53":-0.02784752097695696,"54":-0.004789721125931996,"55":0.24239786557599963,"56":-0.03438505409647305,"57":-0.04321489301276366,"58":0.08101507059285372}},{"sx":1,"sy":1,"depth":59,"w":{"0":-0.04016634081998983,"1":0.18821756797869507,"2":-0.0429795369051752,"3":0.10733724289887468,"4":0.09639705452527354,"5":0.15130648591095117,"6":-0.2290159618398236,"7":-0.1105510420540246,"8":0.0366917987961574,"9":-0.24939392557150683,"10":0.016377994296984607,"11":-0.00022434074152091773,"12":0.07641114809682467,"13":-0.05627264625607603,"14":-0.08635895145991979,"15":0.14844201070139953,"16":0.014224773632256093,"17":-0.20445302915094976,"18":-0.0656758368507359,"19":-0.11193114502437418,"20":-0.1483307355934559,"21":0.19414354747389115,"22":-0.05625326767458555,"23":-0.20158733141739768,"24":0.1043508377320849,"25":-0.2092528052016654,"26":0.03669238434525583,"27":0.11557609619073136,"28":0.08265233739815676,"29":0.16014662948726774,"30":0.0130968867657308,"31":0.20281302446621724,"32":-0.0014907189241100715,"33":0.11816946479294817,"34":0.14257236213209004,"35":-0.05669490562768425,"36":-0.3201303542813312,"37":-0.16928843853108472,"38":-0.0951837788582859,"39":0.07017724122692919,"40":-0.010550368994728436,"41":-0.18319714019401703,"42":0.15985832295790936,"43":0.2494836313168091,"44":-0.019502756335473662,"45":-0.01517667518525003,"46":0.24139069751255404,"47":-0.06215937424130974,"48":-0.06526759949845755,"49":0.16714941587271462,"50":-0.013185714856160997,"51":-0.04295902925204433,"52":0.006722343164482582,"53":0.06706951515379592,"54":-0.08933118017283867,"55":-0.03225462751077963,"56":-0.03749348454791621,"57":-0.0705031307630826,"58":-0.049074588157867534}},{"sx":1,"sy":1,"depth":59,"w":{"0":0.0057725784639054215,"1":-0.008737909150543953,"2":0.24202293526700897,"3":0.16579983418713964,"4":-0.028673775945612615,"5":-0.05406522164901499,"6":0.03506979956721215,"7":-0.10934415701131246,"8":0.19603008564729738,"9":0.002966847838903887,"10":-0.15865227148439054,"11":-0.11435510925358502,"12":0.01453064611385992,"13":0.1278126195490523,"14":-0.10217319556081327,"15":-0.010976690034122119,"16":0.06256449711643344,"17":0.1946711566106118,"18":-0.15889671600711208,"19":-0.07133426676440088,"20":0.09027315731934837,"21":-0.08954526492693432,"22":0.06923656879520912,"23":0.18271518751041843,"24":-0.016590667206242637,"25":-0.11228089347038785,"26":0.07539911305013845,"27":-0.04866071268451291,"28":-0.022920564642078416,"29":0.022123011656520006,"30":-0.06724517309308069,"31":-0.05202420438753204,"32":0.017131913772583326,"33":-0.22605443689927332,"34":-0.20697425606685974,"35":-0.1057848687563327,"36":0.162085922533406,"37":-0.09086775537117378,"38":0.02172776592648229,"39":-0.06195313758878595,"40":-0.16262906081209552,"41":-0.12011595700683332,"42":-0.12581891563366415,"43":-0.22426338201298474,"44":0.06430260144183948,"45":-0.09307340654651027,"46":0.07984220045343597,"47":-0.065678339355032,"48":0.25503735418204876,"49":-0.045871078493739316,"50":0.03539330135843715,"51":0.09367280972788511,"52":0.041545110771172254,"53":0.23691082440543432,"54":-0.1803805127605333,"55":-0.043391317416750945,"56":0.06666569336087257,"57":0.0941701555514841,"58":0.10217266206715095}},{"sx":1,"sy":1,"depth":59,"w":{"0":0.160072865292275,"1":-0.2206381806341102,"2":-0.2662947980723112,"3":-0.27179345622100753,"4":0.1627042317460466,"5":-0.08126413477473868,"6":-0.11377290045413778,"7":0.06782686614685585,"8":-0.022832473893083544,"9":-0.054397489508693324,"10":0.06062555342884617,"11":0.07300217508293375,"12":-0.00596513296799963,"13":-0.03057392414186298,"14":0.1301943625274022,"15":0.19265941795102076,"16":-0.17140742737489253,"17":-0.24828592399747415,"18":0.02703683538683404,"19":0.003953976310361266,"20":0.04405296323073172,"21":-0.10643996597957373,"22":-0.1852630513921025,"23":0.22645648850012698,"24":-0.12801412770873752,"25":0.059829841705266604,"26":-0.13003804636495936,"27":0.24189684129113678,"28":-0.15152416871388888,"29":-0.10406792772043992,"30":0.028003875712763936,"31":0.13610517453051812,"32":-0.1062179330230818,"33":0.024390002533253262,"34":0.06411685057279008,"35":0.04758767921874839,"36":0.05975869398691392,"37":-0.0028411237773772733,"38":0.010862648123902165,"39":0.2723998733118212,"40":-0.14825372469449846,"41":-0.03642711692124244,"42":0.012545524162279028,"43":-0.053485897262582,"44":0.040268512727234154,"45":-0.013942738731231938,"46":-0.0006689048697251835,"47":0.04088503417993061,"48":0.07895388652962541,"49":0.15005652633267672,"50":0.09203374187513767,"51":-0.1700491918256889,"52":-0.14051297520966774,"53":0.18098946164619956,"54":-0.0022424023361572397,"55":0.021907794263350128,"56":-0.11278190351341187,"57":-0.21208811670956723,"58":0.10182055721682509}},{"sx":1,"sy":1,"depth":59,"w":{"0":0.019580262050464703,"1":-0.06148663158903381,"2":0.02324876681518252,"3":-0.07241995649110734,"4":0.12592782461568583,"5":-0.35725544920948105,"6":0.028713195407772934,"7":0.07554928907779941,"8":-0.12561350489920795,"9":0.08402532482038952,"10":0.07313273701197835,"11":0.07854106256720747,"12":-0.12817546802772325,"13":0.02259582876118473,"14":-0.06926449187405324,"15":-0.28918937519810517,"16":0.15232536613086503,"17":0.278675599395111,"18":0.3068811764020618,"19":0.017968000948070044,"20":0.1893448066904651,"21":-0.0393216442249372,"22":-0.09824410358651912,"23":-0.12702125698448108,"24":0.044045253655630036,"25":0.07893425048573392,"26":-0.18727950128770393,"27":0.03884001480157546,"28":-0.14978781470422634,"29":0.13707317544967282,"30":0.15365445670389666,"31":0.1695781560048635,"32":-0.09024737442861441,"33":0.11352214750023201,"34":0.28822403990270207,"35":0.14672508102999693,"36":0.08380888745606078,"37":-0.018563893155183326,"38":0.08376179679220945,"39":-0.33395337691662963,"40":0.22720852107434042,"41":0.08956143494817814,"42":-0.11721401996258854,"43":-0.057674231517485755,"44":-0.021158444438036213,"45":-0.10097930688547141,"46":-0.011032319517521228,"47":0.05290217995502379,"48":0.04986456912136933,"49":-0.07199787928845308,"50":0.08733863983224184,"51":-0.02463208222370918,"52":0.14565210859298142,"53":-0.1447542699871645,"54":-0.00044086423016203734,"55":0.05456464948534185,"56":-0.007630453168654025,"57":0.06075661806995439,"58":-0.021301697491107874}},{"sx":1,"sy":1,"depth":59,"w":{"0":0.13580734122554544,"1":-0.0624824054106822,"2":0.21949113463686645,"3":-0.017485631132819715,"4":-0.07791554800346517,"5":-0.12080534419589176,"6":-0.14285424192718935,"7":-0.11500206077162725,"8":-0.0216587343176923,"9":0.038943765636588544,"10":0.18994949014382093,"11":0.04201548399953454,"12":0.1631807628460563,"13":-0.18805383036935205,"14":-0.0478105101308959,"15":0.0045353877292123685,"16":0.007123756023535142,"17":0.23777890270593377,"18":0.018269043175675792,"19":-0.21501190297839112,"20":0.04602721797388683,"21":-0.1852491592262045,"22":0.2225275954890026,"23":-0.03655249673044858,"24":-0.052203086634369185,"25":-0.0915788290646137,"26":-0.0008549364401138102,"27":-0.08835439515997658,"28":-0.12490273000493232,"29":-0.09796324544503024,"30":-0.07927035726883726,"31":0.08838772907336652,"32":0.08779166701401146,"33":0.05294574042287514,"34":0.13517028077612855,"35":0.16369141547850122,"36":-0.07305112748000293,"37":0.015343921266351436,"38":-0.27941753995910845,"39":0.03229365576348929,"40":0.2654513958510877,"41":-0.31426957940695166,"42":-0.013202264984387363,"43":0.03328459883275784,"44":-0.33155986330852555,"45":0.1435872700085093,"46":-0.16539661129332153,"47":0.16183782071599723,"48":-0.055716665966175694,"49":-0.09799023150152229,"50":-0.15234556909977282,"51":-0.05580511570959097,"52":-0.01560803507493843,"53":0.12855352598876324,"54":0.07744821841469995,"55":-0.0006840620272409812,"56":-0.01809105684117182,"57":-0.10374355490523034,"58":-0.03940773446601393}},{"sx":1,"sy":1,"depth":59,"w":{"0":0.044925448034226004,"1":-0.15870394799729082,"2":0.14940938543442456,"3":0.021139850973908934,"4":0.002557240314377867,"5":0.2014138741014071,"6":0.00047221366712891193,"7":-0.054243493658575996,"8":-0.017139559404088154,"9":0.18586081499478732,"10":-0.22944597740747022,"11":-0.17073984458521818,"12":-0.1626820941683979,"13":0.05541126908749819,"14":0.0458000851943971,"15":0.16138060991889702,"16":0.3337412402954569,"17":0.034262993790759075,"18":0.2097755418553442,"19":-0.014902968344990284,"20":-0.0702482525566227,"21":0.12243141704544552,"22":-0.006083728343354235,"23":0.059050078537629426,"24":0.029428810069674363,"25":-0.04890737351725951,"26":-0.09606693113868857,"27":-0.004406205797896702,"28":-0.1403494949125828,"29":0.05994097610243646,"30":0.0810593065724097,"31":0.09271547112295299,"32":0.08342482454415256,"33":0.06442177173976542,"34":-0.23677816948566857,"35":-0.0896642612342397,"36":0.09503050221722602,"37":0.03245465834134816,"38":-0.07775485935816916,"39":-0.12814157137835244,"40":-0.028663219019677503,"41":-0.07855044845689922,"42":-0.12261919085292425,"43":0.07101109565161604,"44":0.01201434506036573,"45":0.010780770227165995,"46":-0.20860941581003864,"47":0.11114736352957072,"48":0.07928618404220235,"49":0.1839099072172207,"50":0.09797779943083719,"51":-0.26575456893873434,"52":0.1846170282633577,"53":0.002449507500023308,"54":0.07062476317019871,"55":0.07542675262838587,"56":-0.16474176484699277,"57":0.20152104464342468,"58":-0.0825344683205376}},{"sx":1,"sy":1,"depth":59,"w":{"0":-0.027678107578734252,"1":0.013880887006614691,"2":0.05120547551222643,"3":-0.07539801298439293,"4":-0.06428556963203753,"5":0.07771450432852318,"6":-0.09766353955510583,"7":-0.21738992144167577,"8":-0.052295526735638254,"9":-0.1829442549617462,"10":0.04039924667307861,"11":0.3300135657896191,"12":-0.26150259779748103,"13":0.050332508490279884,"14":-0.11386387178146713,"15":-0.014776742068147719,"16":-0.05178577237493205,"17":-0.004473421383330526,"18":-0.01164592442657906,"19":0.09121559263335306,"20":0.021529041532220808,"21":0.02264149526935816,"22":-0.29332438778093833,"23":0.11320100551493247,"24":0.025467036027775145,"25":-0.06177848461486035,"26":-0.2622421850187549,"27":0.11651723383816726,"28":-0.14177032061900158,"29":-0.026857894695042663,"30":-0.26203576058540273,"31":0.20376630636751408,"32":-0.16045049351961913,"33":-0.03715301433516413,"34":-0.03432189222960686,"35":-0.05943926616094698,"36":0.05153117306111994,"37":0.038360082804336365,"38":0.13680953092603673,"39":-0.09675642184444529,"40":-0.061182229770443644,"41":-0.1849496317087904,"42":0.1217978800813692,"43":0.13861700301317148,"44":-0.12367839450229379,"45":-0.17245395636604843,"46":-0.28791227217114324,"47":0.10687870852175503,"48":-0.1930981798726556,"49":0.08187545592840213,"50":-0.0858089589797901,"51":-0.02183406001940274,"52":0.09695586492644799,"53":0.038787591411639795,"54":0.10002974869115414,"55":0.07703337810663168,"56":0.19423141380493716,"57":-0.08033216142447012,"58":-0.06218870909506006}},{"sx":1,"sy":1,"depth":59,"w":{"0":-0.1061660211974542,"1":-0.21302818422202105,"2":-0.04614541333358602,"3":0.1604552115277037,"4":0.002655122282967207,"5":-0.11795688387740638,"6":0.019680956250181406,"7":0.01171983813988211,"8":0.11616256057850083,"9":-0.02042878547581102,"10":0.1063955915963869,"11":-0.04966767321360526,"12":0.05521701612664037,"13":0.0037497313853097247,"14":0.13825168623358086,"15":0.07460448544808351,"16":-0.19039106855243104,"17":-0.12788676798071733,"18":0.01767681882014038,"19":0.11241479562896489,"20":-0.21953942190338188,"21":0.011236623609257333,"22":-0.0029856796689342762,"23":0.2269383592171869,"24":0.2509857391939985,"25":-0.023863320952590927,"26":-0.13962404540858334,"27":-0.021875390629331817,"28":-0.028462554150246188,"29":-0.28470871255284713,"30":-0.09393613146963115,"31":-0.008352473306632564,"32":-0.2367184632060632,"33":-0.002824785243914174,"34":0.016269004743997898,"35":-0.21298116202996653,"36":-0.16656208296718952,"37":-0.02016298592990057,"38":0.18697128801639507,"39":-0.32399333035476585,"40":-0.0856937126546811,"41":-0.04566908959698255,"42":-0.11675305949902752,"43":-0.11169974056637905,"44":0.007095148249611849,"45":-0.011319864098254617,"46":-0.11162794168620041,"47":-0.14080745845577328,"48":-0.24974318949394878,"49":0.18894856471723243,"50":0.10705779728423759,"51":0.05342982275609421,"52":0.04368112713531121,"53":0.033637966933373176,"54":-0.04899825848960028,"55":0.03496330245241569,"56":-0.12999286737752627,"57":-0.009039458180584225,"58":0.23093099898087593}},{"sx":1,"sy":1,"depth":59,"w":{"0":-0.05595063145594654,"1":-0.053674982080795276,"2":-0.11536438463859103,"3":0.21181341544491433,"4":-0.1285272708835739,"5":-0.10354554199000959,"6":-0.02828864411079809,"7":0.03885054824710944,"8":0.01334909516174153,"9":-0.1688988028178812,"10":-0.004346475180995088,"11":0.06823999387875032,"12":0.022769363670707428,"13":-0.12057191819249218,"14":-0.15199841904246392,"15":-0.1388403989352012,"16":-0.12046114188272332,"17":-0.12391154101248517,"18":0.08702631799207547,"19":-0.05267818661885505,"20":0.2641887861811643,"21":-0.036606758481037116,"22":-0.24002351993310048,"23":-0.02198673615284653,"24":-0.028447140910194926,"25":-0.09348122452300607,"26":0.20870372899309073,"27":0.08579223494873447,"28":-0.11840897622121135,"29":0.03109813322498477,"30":-0.2055385996944658,"31":0.09951248748065106,"32":0.044264131535659224,"33":0.006488103752098962,"34":-0.29788641299534924,"35":-0.025592388809100933,"36":0.02241779967781173,"37":0.013774498432085705,"38":0.08018019775607729,"39":-0.22674622503390535,"40":-0.09090126604594341,"41":0.027981308612459888,"42":0.06968758602010347,"43":0.18311578563841097,"44":0.161092737243614,"45":0.20662097036339197,"46":0.06593924122303256,"47":-0.28315875510922517,"48":0.03696692412159639,"49":-0.03954940496154253,"50":-0.20890161830089574,"51":0.16397910115957073,"52":0.011350103357991402,"53":-0.0653424356561202,"54":-0.013236254798936703,"55":0.27350338285083464,"56":0.2059485618510046,"57":0.08660019735442735,"58":0.26520440480891944}},{"sx":1,"sy":1,"depth":59,"w":{"0":0.2189707376572913,"1":-0.007393316783215862,"2":-0.0814058427536136,"3":0.16760717896498648,"4":-0.18935335683011742,"5":0.03261554911261211,"6":-0.13204310571142847,"7":-0.02926634200197114,"8":0.09691816794216242,"9":-0.045181371604557145,"10":-0.05594363585146393,"11":-0.15947333136738628,"12":-0.14410167854079617,"13":-0.14889140322643885,"14":0.09937232585280546,"15":0.0796194111027099,"16":0.12736969084033747,"17":-0.018631552536330954,"18":0.2852172034658497,"19":0.07720990387050117,"20":0.2720747779573561,"21":-0.0927742140600141,"22":-0.015363645366657613,"23":-0.043344248065978176,"24":0.0690959058314111,"25":-0.11749718404450696,"26":-0.12584009046095293,"27":0.053613796648897906,"28":0.14198049041342395,"29":0.13688181541743713,"30":-0.0679405624441535,"31":-0.08392265583889971,"32":0.006362916672930355,"33":-0.10191611793635118,"34":0.08902221627859262,"35":-0.25462989522607576,"36":0.05297989623135352,"37":-0.22622909099627214,"38":-0.11588582119600502,"39":-0.07477968018608193,"40":0.0067734917890174195,"41":0.13577596811398432,"42":0.15341152029524407,"43":0.003258572148346367,"44":-0.12761074725897376,"45":0.19961201544126733,"46":0.022080428719764195,"47":-0.19607701540325553,"48":-0.02921411104106804,"49":0.18761321710622098,"50":-0.10219952455667683,"51":-0.2527937103021555,"52":0.07601673859823037,"53":-0.09871424985138437,"54":-0.1379556636438115,"55":-0.10095378883246868,"56":0.034311276741859555,"57":0.22196042131449217,"58":-0.23401095280625864}},{"sx":1,"sy":1,"depth":59,"w":{"0":0.020843406484470802,"1":0.04965453459509108,"2":0.07615544097971541,"3":-0.045202452925047334,"4":0.1657695443926635,"5":0.02979244974795872,"6":0.23534376781882588,"7":-0.027462093981562574,"8":-0.21811635082725817,"9":-0.0015110406685443392,"10":0.01437999194506645,"11":-0.10086116985721227,"12":-0.09876196364390293,"13":0.08341748046250017,"14":0.0749222892741719,"15":-0.05885930511007998,"16":-0.24906287237340066,"17":-0.06508431194510683,"18":0.1392674784593366,"19":-0.062084291916239154,"20":0.04686535133130477,"21":-0.0015450934561329998,"22":0.3088732816990475,"23":0.0041679552006161575,"24":-0.028671417824095154,"25":-0.15553008521284864,"26":0.039509446560619485,"27":-0.03167509497507166,"28":0.14299489457843734,"29":0.18354965470513693,"30":-0.04892448171851005,"31":-0.00679795057120411,"32":-0.05045191712401304,"33":0.2913485224592576,"34":-0.16063016052786266,"35":-0.09262141060912771,"36":-0.04480041080447026,"37":-0.17741042910972654,"38":-0.03560742426424715,"39":-0.027881342617062075,"40":-0.07732656286776747,"41":0.024217823945605538,"42":0.17181284306255196,"43":0.04773009504684935,"44":0.1798889250266784,"45":0.04060441118609914,"46":0.029549254193274706,"47":-0.13670280955755112,"48":-0.16365840893979805,"49":0.11594499752707473,"50":-0.08849179080571869,"51":0.2614156474059739,"52":-0.06998892921003214,"53":0.12950927916441377,"54":-0.29029371846880625,"55":0.12426818803615183,"56":-0.0023571911693117185,"57":0.16542721767052873,"58":-0.15819551316703265}},{"sx":1,"sy":1,"depth":59,"w":{"0":-0.10876148748374362,"1":0.0564849264489325,"2":-0.26214472192545296,"3":-0.04235559662120414,"4":0.07748356039947825,"5":0.11042737273011106,"6":-0.0715060146634538,"7":0.1262487521802567,"8":0.08133145439810595,"9":0.15096602983392757,"10":0.35819842493778525,"11":0.005889278719769778,"12":0.06162102194215618,"13":0.07116615168218486,"14":0.00808676494295891,"15":-0.23481103495132896,"16":0.04171321718856942,"17":-0.10402871102056897,"18":-0.06725385491592206,"19":0.13861511854577577,"20":0.13385726579413282,"21":-0.057297334654892944,"22":0.05487283424878856,"23":-0.08012412888825411,"24":0.08253941653350602,"25":0.13056783727055735,"26":0.08006985322337573,"27":0.09499358790373166,"28":-0.14364290587005962,"29":-0.16354041399391409,"30":-0.07275031330016796,"31":0.06376892071771798,"32":0.020265170862404834,"33":-0.006356610207798187,"34":0.005214424123618349,"35":0.020561763690006462,"36":0.1695004581664346,"37":0.047308313573441604,"38":-0.27149284913817223,"39":-0.10710111507028146,"40":0.0713343001703113,"41":-0.16856183467267363,"42":-0.1668689098010344,"43":0.036911197047338674,"44":0.024530711760929066,"45":-0.10592528336531234,"46":-0.0683996582157137,"47":-0.2027645493187975,"48":0.0686293274971874,"49":0.0862800511867809,"50":0.13282720891769637,"51":-0.07589163952262715,"52":-0.09125120859797466,"53":-0.08940134288264966,"54":0.09106386078339693,"55":-0.22106076431556151,"56":-0.13755994586547413,"57":0.13593411251667556,"58":-0.008432907381811093}},{"sx":1,"sy":1,"depth":59,"w":{"0":0.05594588278936855,"1":-0.1664030419907426,"2":0.036241566661988696,"3":0.0437702587086814,"4":-0.017513294642344225,"5":-0.04863385437872594,"6":0.014127261435148699,"7":0.02026388712693106,"8":0.0673441914105577,"9":-0.06637296819606353,"10":0.374601880582447,"11":0.1975179644788836,"12":0.04118081979679822,"13":0.10733996948937445,"14":0.1041283296443155,"15":-0.08922222046031643,"16":0.06788002272675905,"17":-0.1315918989805089,"18":0.008331420273750207,"19":0.015077570401277537,"20":0.10636736744655043,"21":-0.13543373244214957,"22":0.01931052870925728,"23":0.22313709007855673,"24":0.16942655440231377,"25":0.014126108915923481,"26":-0.13179198253028118,"27":-0.07008365545171072,"28":-0.06529052111933703,"29":0.19635012118735373,"30":-0.02244645144917907,"31":-0.1274699916391479,"32":0.08637886801943685,"33":-0.11866182183620998,"34":-0.15213178961612814,"35":0.3810566976505672,"36":-0.34957845035334,"37":0.08789934450240669,"38":0.06450732556899723,"39":-0.23685064226154157,"40":-0.16213566933531517,"41":-0.07848474785130864,"42":-0.18500534199277247,"43":-0.19848875936846558,"44":-0.0057912229647817896,"45":0.050301767703066755,"46":-0.05464955427617262,"47":-0.13104574730930782,"48":-0.1826254126900712,"49":-0.0018545118874639802,"50":0.1374804955739094,"51":0.12109197979361441,"52":-0.2750209695365577,"53":-0.1255491916710309,"54":-0.04076103983488411,"55":0.13994626930857343,"56":-0.12557741962064045,"57":-0.06546226165662933,"58":-0.14463802352609526}},{"sx":1,"sy":1,"depth":59,"w":{"0":0.04428814616231517,"1":0.2993897297401473,"2":0.22070932823200398,"3":0.2904881702174719,"4":0.002092719057213096,"5":-0.27338037031441587,"6":0.017468251709466663,"7":0.01690514160863139,"8":0.002823606780129753,"9":0.18413207884146388,"10":0.04511828777439707,"11":-0.1287170201588009,"12":-0.03834805958920581,"13":0.16949536903896942,"14":-0.04904778552394502,"15":-0.08346052913945211,"16":-0.2269560505426513,"17":0.023882359217745272,"18":0.06227378044971631,"19":0.2631149209959967,"20":0.1760252607128634,"21":0.17165754122486734,"22":0.02257273646058159,"23":-0.00010016001157649939,"24":-0.0331886164343216,"25":-0.016960331804281855,"26":-0.20174257972769769,"27":0.16727335644237987,"28":-0.04206684995867853,"29":-0.008802405101752763,"30":0.07597975221386033,"31":0.2558132170384489,"32":-0.22772019886474487,"33":-0.12915497867237954,"34":0.2005488186506904,"35":-0.1126127884281995,"36":0.07360285107311282,"37":0.031037410245881712,"38":0.0873874536739335,"39":0.09740723172433656,"40":0.17490026278973944,"41":0.036812643047171884,"42":-0.03574534827892207,"43":-0.24835232056235035,"44":0.15357863510131442,"45":-0.10003320460672928,"46":0.007381121327041126,"47":0.03352979286242248,"48":-0.05104552683628178,"49":0.15298138164451422,"50":-0.06136495989852998,"51":-0.06894006413715693,"52":0.07142856494732398,"53":-0.08932227932291792,"54":0.27961375621784307,"55":0.14849574726058573,"56":0.1323996877167916,"57":-0.19697294053751024,"58":0.013839832783372823}},{"sx":1,"sy":1,"depth":59,"w":{"0":-0.21950867197979704,"1":0.20396317045225124,"2":-0.0011890523548135294,"3":-0.1833503142764587,"4":0.1834762810022671,"5":-0.04864924756856302,"6":-0.15291242675972896,"7":-0.006929871237226578,"8":-0.00043988716774096193,"9":-0.055455157232134615,"10":-0.014867535921173094,"11":-0.0018512385962213965,"12":-0.0092577069701228,"13":-0.05637203474724846,"14":0.09170613060946523,"15":-0.0630060200839261,"16":-0.12161368773196185,"17":-0.15176172681947844,"18":0.05576973774160045,"19":-0.03905749122188716,"20":0.05677709980033199,"21":-0.1926378227907432,"22":0.18763935163480933,"23":-0.14391916744646135,"24":0.23840398223553147,"25":0.015021389389689456,"26":0.07453266192998254,"27":-0.005458947800379247,"28":0.3307481525016097,"29":0.18096986011375185,"30":-0.16072997967034316,"31":0.06454705871313378,"32":-0.07541735135549339,"33":-0.09186862602861638,"34":0.006551665037213187,"35":0.1053948919203602,"36":0.1627389481644315,"37":0.11919704935452938,"38":0.04994527079907802,"39":0.06800492225432454,"40":0.2602988526809519,"41":0.05819129464378129,"42":0.14609187353172567,"43":0.05301681626533127,"44":0.2556068607395393,"45":-0.06534283718035802,"46":-0.32066492875887054,"47":-0.10780463989453305,"48":0.09288432316677038,"49":-0.07859442512476697,"50":0.07079232605589253,"51":0.08353905552816245,"52":0.026750370673000567,"53":-0.07955317889144266,"54":0.022384677532958634,"55":-0.10836829493487835,"56":-0.03467097174690409,"57":0.1866152122924892,"58":-0.014220285628768288}},{"sx":1,"sy":1,"depth":59,"w":{"0":0.01835381011649107,"1":0.08554172213454383,"2":0.06454802348023263,"3":0.04800108906689265,"4":0.01386447924055548,"5":0.009500873871569651,"6":-0.08569285771604472,"7":-0.08552047140266499,"8":-0.056834616304753054,"9":-0.05528002428145173,"10":0.09536814500657138,"11":0.2424254296212532,"12":0.3743582527005392,"13":0.2088560230096196,"14":-0.005679964408375603,"15":0.04898395008407939,"16":-0.048873893434756545,"17":0.0451372174944351,"18":0.08747973604311653,"19":0.21629078246687075,"20":-0.06048136683940569,"21":0.13911826862153348,"22":-0.08703244611252485,"23":-0.0011112583909661494,"24":0.1207887592550128,"25":-0.03784462504580189,"26":-0.29253201557477543,"27":0.02547720411543556,"28":0.05677709419196702,"29":-0.22499735478466887,"30":0.012855017198825503,"31":-0.151811175308823,"32":-0.11722789819448315,"33":0.015043463719483764,"34":-0.06438461778115902,"35":0.18595077558358358,"36":-0.06561158270133119,"37":-0.09900517960786656,"38":0.029131077712273808,"39":-0.19856431083918366,"40":-0.08412187791182607,"41":-0.22816522264377442,"42":-0.06528503694151949,"43":0.09416529101518768,"44":0.02387785936024162,"45":-0.25065085455904845,"46":-0.038477798276555945,"47":-0.006777474751702398,"48":-0.17321732704712867,"49":-0.3094544862106282,"50":-0.026145766311927946,"51":0.0067425394322917845,"52":0.33217200531041197,"53":0.06036711504551533,"54":0.14258710296180585,"55":-0.14634600421181254,"56":-0.18077451507626002,"57":-0.11375260917431561,"58":0.1742065803796667}},{"sx":1,"sy":1,"depth":59,"w":{"0":0.25665135998076416,"1":-0.06664814110171738,"2":-0.10352625496390455,"3":0.04667449845415158,"4":-0.11434401711288951,"5":-0.21539057803271688,"6":0.08128359454972871,"7":0.21223631824640185,"8":0.053732763902835545,"9":-0.08457105772815396,"10":-0.01825375234824966,"11":0.09478058437932853,"12":-0.1708200307510977,"13":0.13977419009875272,"14":-0.1520260505679571,"15":-0.026344703274437914,"16":-0.20344016225448222,"17":-0.011824399786363658,"18":-0.2438352028789937,"19":-0.1809169286033115,"20":0.06778875543393581,"21":-0.178919592153965,"22":-0.025251828630684373,"23":-0.12731523561753322,"24":0.07798048984755225,"25":0.06518615687932232,"26":0.09107263490952908,"27":0.04778379413833354,"28":0.09936326614254343,"29":0.29242278180535464,"30":-0.24586215869310601,"31":0.0313089304644189,"32":0.2681831107734341,"33":-0.07455940307428033,"34":-0.08882720269314656,"35":-0.20564154731151638,"36":0.107591893803007,"37":0.05148739807858568,"38":-0.08651062529513205,"39":0.08077797813140121,"40":0.01096379004379908,"41":-0.07035249171242253,"42":-0.1176241999808025,"43":0.04036321805499666,"44":-0.13441296603092134,"45":0.019683735566279656,"46":-0.042884134027983,"47":0.11097673729247642,"48":0.09944307189272532,"49":-0.060016669830215585,"50":0.19072348568508113,"51":0.033882496223117446,"52":0.2013011958826386,"53":-0.015364192673754816,"54":0.0984497138768132,"55":-0.0490063412639792,"56":-0.2090030345304915,"57":0.24052474862228307,"58":0.03528675739822046}},{"sx":1,"sy":1,"depth":59,"w":{"0":-0.01972965572916089,"1":-0.22707781174346633,"2":0.0011685505791665868,"3":0.04837346736143706,"4":0.03074514110463311,"5":-0.04688024709413022,"6":0.011395027937049235,"7":0.12115546399168209,"8":0.047082615095432795,"9":0.22545479585193398,"10":-0.03772544752005703,"11":0.017543500388930187,"12":-0.016081687498731706,"13":-0.016895999799788907,"14":0.06769646485398506,"15":0.000762741820025154,"16":0.03816640348385279,"17":0.020438343923463897,"18":-0.28540060937576894,"19":0.15021412598369807,"20":-0.2704158962730985,"21":-0.07047161809432476,"22":-0.17923403883291664,"23":0.36364074886972,"24":0.16506873994634821,"25":0.04527602867110741,"26":-0.008652203387057668,"27":0.24602683989648316,"28":0.11594730739185309,"29":0.028634600437295786,"30":-0.023090299899955292,"31":-0.04800319867759086,"32":0.09359712471033543,"33":-0.030060521544983208,"34":-0.0826584968239323,"35":0.14841777837800413,"36":-0.2289881743456821,"37":0.11664391139157301,"38":-0.17310207296369826,"39":-0.004110935073676852,"40":0.06657284715002675,"41":-0.013310916681534972,"42":0.09197986012136575,"43":0.14508084257510534,"44":0.07416077602341806,"45":-0.01895370126678295,"46":-0.007337609602132136,"47":0.0452608347247317,"48":0.17365615183090216,"49":-0.09196544949034484,"50":0.2690394843933439,"51":0.04108513380502442,"52":0.11061987829483962,"53":-0.06940887286108227,"54":0.04058928688306521,"55":0.2616555240761112,"56":0.014487246632715235,"57":-0.14560238722964483,"58":-0.05274111059648951}},{"sx":1,"sy":1,"depth":59,"w":{"0":0.011617265687326305,"1":-0.2186874662172505,"2":-0.13104391603969723,"3":-0.19278995379097436,"4":-0.01633913459132075,"5":-0.03592565685470069,"6":0.14313231828820303,"7":-0.03428811157884064,"8":0.2878426238125577,"9":-0.03827535875941035,"10":0.006597167583881485,"11":-0.03518782357312725,"12":-0.07707055131359887,"13":0.055281652606191715,"14":-0.18102610150357643,"15":-0.3651851088248632,"16":-0.1207215847743671,"17":0.16347266443233685,"18":-0.00697581772652276,"19":-0.1261170461139268,"20":0.02515025231250767,"21":0.18964609534171845,"22":-0.0529733957025084,"23":0.20956240727534267,"24":0.13513057874430834,"25":-0.12465377216047341,"26":0.0040250956974069215,"27":-0.012446353898589666,"28":0.08084068309047131,"29":-0.18315977081547372,"30":-0.027452997580922664,"31":0.07465730169580094,"32":-0.21093272946458538,"33":-0.039839084447574655,"34":0.03458104511264604,"35":-0.20764946436669546,"36":-0.035338358143266226,"37":-0.15915159685537972,"38":-0.0010579972687142821,"39":-0.19802829260250382,"40":-0.16498722811776104,"41":-0.192147770041181,"42":0.22785672638913754,"43":0.1788827942720815,"44":-0.044869842266012996,"45":0.3041113811333333,"46":-0.06528323976425593,"47":0.048671337984031435,"48":-0.021657488141120857,"49":-0.07374914931642325,"50":-0.1764668491826742,"51":-0.07280978709752332,"52":0.12420834086574054,"53":0.09708735730407707,"54":0.001595289608253957,"55":-0.0566629583120224,"56":0.057709472561575534,"57":-0.0035427471615583667,"58":-0.05105052108126692}},{"sx":1,"sy":1,"depth":59,"w":{"0":-0.17087299019100052,"1":-0.042398869484321366,"2":-0.06251476189768587,"3":0.0808454035383872,"4":-0.026329620365935277,"5":0.0206509282027883,"6":0.2516030688704121,"7":0.07686984946928385,"8":0.15576458145108535,"9":0.31390079058033843,"10":-0.057680002628732574,"11":0.03900315572826465,"12":0.002562269169515281,"13":-0.0566908040962143,"14":-0.2879303742590185,"15":-0.0880967125001703,"16":-0.21013446216575019,"17":0.0024379310121059087,"18":-0.01267285985217086,"19":0.06073709493179758,"20":-0.05543808638407996,"21":-0.0921750662566877,"22":0.24986649253154405,"23":0.07569682211708098,"24":0.042385788835108705,"25":-0.04205442668031243,"26":0.09863760885962616,"27":-0.2442689922219427,"28":0.2094180897441715,"29":-0.004493656722632332,"30":0.07751958697712302,"31":-0.18473682848359768,"32":0.10905960650663574,"33":-0.048119798242179865,"34":0.2382547670194669,"35":-0.0868427496448389,"36":-0.06120098608347515,"37":0.028033840802371233,"38":0.09179917326564624,"39":-0.0355230975427782,"40":0.0071814705867049855,"41":-0.05537003414761934,"42":0.02212081384837093,"43":0.03249296751111939,"44":-0.022346971053210842,"45":0.10000015576583733,"46":0.09357197988182482,"47":0.1255618300843033,"48":-0.12417636077282558,"49":-0.1158982959034438,"50":-0.06699195692812748,"51":-0.09535761029431267,"52":-0.15335929084970734,"53":0.08269440465716714,"54":0.05503632768862566,"55":0.1215751628757277,"56":-0.024929702905300635,"57":0.06683032196565379,"58":0.16808238022574545}},{"sx":1,"sy":1,"depth":59,"w":{"0":0.1358610319329258,"1":0.046348565562726776,"2":0.09903891280719744,"3":-0.05757688495961478,"4":-0.1201066978857276,"5":0.0419436514860292,"6":-0.27490812467555986,"7":-0.13351770461364396,"8":-0.2196539141107487,"9":0.040542594678806616,"10":-0.029515522259506016,"11":-0.35687799022419303,"12":-0.011150624640168676,"13":0.23212596038582506,"14":0.16885149938831115,"15":0.03861053292422607,"16":0.27625124485930685,"17":0.023213452771908376,"18":0.020677937273953288,"19":-0.10071365577327525,"20":-0.16712069402469415,"21":-0.21802467795483632,"22":-0.03335249237349121,"23":-0.3118746897643545,"24":0.09865760543266033,"25":0.17650587574552265,"26":0.19190139976288245,"27":-0.17989528825282536,"28":-0.0680739328929851,"29":0.10507736371842033,"30":-0.01475301661538101,"31":-0.06318245473985443,"32":-0.16466910964171083,"33":0.07457138184833467,"34":-0.11479260118976563,"35":0.06375516886697385,"36":0.06356711127717916,"37":0.1264688076154596,"38":0.21990182450616294,"39":-0.11641025605162084,"40":0.055862951242182664,"41":0.2106570262554914,"42":0.00889646786315176,"43":-0.14416036892317122,"44":0.11000828266863762,"45":0.22017520476983146,"46":0.03167836355582488,"47":-0.1519858109732201,"48":0.060460874310462466,"49":0.05965648296018923,"50":0.0651102830865293,"51":0.051480877449932114,"52":-0.09793227442791469,"53":-0.003285264634751262,"54":-0.03084443131974368,"55":-0.0211933848367975,"56":-0.0031450011222644565,"57":-0.07184158571286121,"58":0.08062163875381492}},{"sx":1,"sy":1,"depth":59,"w":{"0":-0.244078754981011,"1":-0.21542529294882037,"2":-0.36052039395867,"3":0.07771397929827738,"4":0.08696131993348032,"5":-0.03308696925601366,"6":0.24067654864649465,"7":-0.028215046093864667,"8":0.03696348081934373,"9":-0.09722388733530406,"10":-0.05359320534354703,"11":-0.007910475873584217,"12":0.011974339042992357,"13":-0.04565007476668018,"14":-0.07123866072956198,"15":0.08990759519244716,"16":0.1787007921372535,"17":0.05376950760660501,"18":0.16565508927653796,"19":0.10726637404424721,"20":-0.058475103137479265,"21":0.11705585761979113,"22":0.03772691396483142,"23":-0.0964308140517843,"24":-0.11166844258213939,"25":-0.18806314375582642,"26":-0.04956666812842576,"27":0.14249000203535137,"28":-0.15308973197503514,"29":-0.01221599824071678,"30":0.04708967001019631,"31":-0.08782628737479085,"32":0.05260746958321051,"33":-0.10447490162426666,"34":0.07664598540280564,"35":-0.11040190215809904,"36":-0.08365048880600079,"37":0.05166635653742107,"38":0.10428487583093839,"39":-0.16187926982983364,"40":-0.031754111895347374,"41":0.11626630774112529,"42":-0.10658302004305442,"43":0.19292967085929652,"44":-0.22419001596888724,"45":-0.15824679159070823,"46":-0.05086373473157006,"47":-0.13419735254338935,"48":0.22516872654537518,"49":-0.15267367488860994,"50":-0.15233076561565037,"51":0.19256023442808445,"52":-0.027010902081838966,"53":0.14923386296880112,"54":-0.04735673990907504,"55":-0.13365910057362562,"56":0.20158979557493384,"57":0.3482291926229637,"58":0.06723041669238607}},{"sx":1,"sy":1,"depth":59,"w":{"0":0.0015983115278164633,"1":0.13864953493962537,"2":0.0207091450718608,"3":-0.022729163637663356,"4":0.09749188271536122,"5":-0.0167327847251887,"6":-0.049624104032315874,"7":0.10163670332265329,"8":-0.08672438160889827,"9":0.11310934132070323,"10":-0.11905360047106198,"11":0.0009136960268826801,"12":0.19617257399885443,"13":-0.10447982911807596,"14":-0.007800643594154199,"15":-0.17304888582401423,"16":-0.01098262383010838,"17":-0.125682853522858,"18":-0.10831673899083685,"19":-0.14650244151718697,"20":0.2403282052237064,"21":0.07509963792355816,"22":-0.3372563873271653,"23":-0.08605353264908673,"24":0.020133373581560348,"25":0.41214594816900946,"26":-0.28033321215176943,"27":0.020188945550223044,"28":0.138526177222485,"29":-0.09597323251309897,"30":-0.06177970749880223,"31":-0.06717532565423105,"32":0.06291336260372593,"33":-0.22484677282397003,"34":0.11759392291941952,"35":0.11223373377051464,"36":-0.24695249909779493,"37":-0.026173601446514434,"38":-0.12259391485614662,"39":-0.1915880978310827,"40":-0.03991207070057857,"41":0.1054651410924695,"42":-0.031997103248965084,"43":-0.004832401200268771,"44":-0.12640717008843422,"45":-0.057897170075959695,"46":-0.05701099822223058,"47":-0.11314259438875358,"48":-0.02915264134115644,"49":-0.08243751157146596,"50":0.04844195828740888,"51":0.06334968656936169,"52":-0.04649623368948698,"53":0.05356501193462144,"54":0.15239194561218788,"55":-0.032310516816155335,"56":-0.05718646027418941,"57":-0.010464108772522995,"58":-0.11379958966553547}},{"sx":1,"sy":1,"depth":59,"w":{"0":-0.2591870649766817,"1":-0.020118995497875356,"2":-0.21582370530769776,"3":0.008838802735656752,"4":-0.05234155926973437,"5":0.09251781870640981,"6":-0.11997306312849856,"7":0.2666194328234179,"8":-0.03584704700586325,"9":0.053348141674449005,"10":-0.08236630464988305,"11":0.06757403908706251,"12":-0.0021858490215880357,"13":0.03675038557185151,"14":0.05600774887639883,"15":0.19637216161762006,"16":0.06841756831832706,"17":-0.26200536801024027,"18":-0.01862548858848994,"19":0.12588827961484425,"20":-0.017458020445692217,"21":-0.13105149901174823,"22":0.07764687976341533,"23":-0.25512830580504225,"24":0.017306964655914386,"25":0.0061016822851296185,"26":0.0368738040984155,"27":-0.04770356147657207,"28":-0.1337670687323131,"29":0.07580942918828969,"30":0.234581858571641,"31":0.12218822584447597,"32":0.0022932757128214334,"33":-0.10954615875877739,"34":-0.020501842476708262,"35":-0.10282457842131526,"36":-0.14341266518594994,"37":0.015255049193619738,"38":0.12674022166108193,"39":-0.01989236675496264,"40":-0.006811525341430204,"41":-0.018268618292241735,"42":0.033867288833238224,"43":0.1658750112359964,"44":-0.4016995766427639,"45":0.14885118300399508,"46":-0.030710818879742377,"47":-0.16189202390190213,"48":0.0777145835501694,"49":-0.1017520925344014,"50":0.07632973727236576,"51":0.01064945888290266,"52":-0.08093222538385703,"53":-0.20374119385103098,"54":0.3130460111170716,"55":0.21509393114369588,"56":-0.12257916904401889,"57":0.0751820001271373,"58":-0.1131016009201371}}],"biases":{"sx":1,"sy":1,"depth":50,"w":{"0":0.09996276740364149,"1":0.09624662390549046,"2":0.10349611097705823,"3":0.0997916905280271,"4":0.09965828592912868,"5":0.09977574040524556,"6":0.09975257182950475,"7":0.10001633358383402,"8":0.10137728440221136,"9":0.0993914553950155,"10":0.10312431732714043,"11":0.10033375819361098,"12":0.10558537273956972,"13":0.0995219381556656,"14":0.10368085735283779,"15":0.09975500090128538,"16":0.10110885724660199,"17":0.1,"18":0.0999109570497258,"19":0.10070869660935006,"20":0.09942266938998451,"21":0.09976961468411603,"22":0.09989891661788469,"23":0.09820055997332654,"24":0.09884827945678819,"25":0.09788606619480769,"26":0.09997898779511194,"27":0.10333895382984887,"28":0.09858424500801043,"29":0.10015664084168752,"30":0.1006296078177097,"31":0.09899033026703882,"32":0.09986027076252121,"33":0.10141454546534243,"34":0.10229928581542767,"35":0.0994960798842806,"36":0.09992134208673313,"37":0.09996265455184608,"38":0.1000769809157327,"39":0.10006080690282335,"40":0.09833910181037235,"41":0.10031383693218604,"42":0.09962317737949927,"43":0.10052634424922427,"44":0.1004430890788659,"45":0.0999346365463193,"46":0.10111500734239216,"47":0.10197329041590153,"48":0.09943899697051896,"49":0.09957725245728886}}},{"out_depth":50,"out_sx":1,"out_sy":1,"layer_type":"relu"},{"out_depth":50,"out_sx":1,"out_sy":1,"layer_type":"fc","num_inputs":50,"l1_decay_mul":0,"l2_decay_mul":1,"filters":[{"sx":1,"sy":1,"depth":50,"w":{"0":-0.21398596555562652,"1":0.0023139597232972988,"2":-0.3174961469330101,"3":-0.08454360991551194,"4":-0.02309400141897642,"5":0.10673773258416305,"6":0.15681133485815876,"7":-0.09580680658383674,"8":-0.019601180096499353,"9":0.01688763831618549,"10":-0.020972161417739058,"11":-0.03760213988824994,"12":-0.21520218504919936,"13":-0.12460295056704683,"14":-0.036371755578434584,"15":0.005626858103321542,"16":0.24852003899334427,"17":0.1669793153581071,"18":-0.039670163494567354,"19":-0.17463470733604838,"20":0.05303567122469563,"21":0.14761299445929735,"22":0.07832776217602451,"23":-0.10091076650978957,"24":-0.002252214088952477,"25":0.028465426456129594,"26":-0.2126706043810174,"27":0.09060813837773797,"28":-0.22796508317673897,"29":-0.05539586942695177,"30":-0.05170617776730609,"31":-0.14234040421685523,"32":0.15051784488481643,"33":0.024899010072325225,"34":-0.021780179762144344,"35":-0.04396363610127093,"36":0.00034164569854466554,"37":-0.26776086852520403,"38":0.13462528688162592,"39":0.06915511452374933,"40":0.08728673869678011,"41":0.15978881778431797,"42":-0.08175530059762404,"43":-0.20392838425603454,"44":-0.06744449075649095,"45":-0.07615591820236169,"46":0.06897167069597422,"47":0.21800911014533525,"48":-0.05999542516546941,"49":-0.03321486300014505}},{"sx":1,"sy":1,"depth":50,"w":{"0":0.26509066550107807,"1":0.14876591236241196,"2":-0.10754075071416017,"3":0.08692383468985405,"4":-0.2864385144838981,"5":0.004396475133449382,"6":-0.18746291350851704,"7":-0.14759114067432907,"8":0.03534320197163022,"9":0.08159684927525854,"10":-0.16931328118086583,"11":0.2994222975436455,"12":0.2779910642766782,"13":-0.0774209538513703,"14":-0.0744527195520202,"15":0.04040724140726126,"16":-0.01031421951851815,"17":-0.16032386091392392,"18":-0.0692936964203848,"19":-0.0621002690127875,"20":0.338139584289493,"21":0.04591369401327313,"22":0.06937498967503199,"23":-0.03774105016658421,"24":-0.021306959010933366,"25":-0.14301783338745666,"26":-0.11393056071607549,"27":-0.04794404717191272,"28":-0.17963302504287573,"29":-0.1557142892809709,"30":0.23490565939222138,"31":0.10409129584614685,"32":-0.036026255439901476,"33":-0.09659734347542888,"34":-0.12244434219959285,"35":-0.04204908095559518,"36":0.06073577941370119,"37":0.08997516635013098,"38":-0.10051339836007589,"39":0.07652837692062069,"40":-0.23706937375180995,"41":-0.030514484005652532,"42":-0.40115482156110027,"43":0.12755128298394103,"44":0.07968885415851631,"45":0.07736974296401997,"46":0.01026777832951937,"47":0.13582266805169474,"48":-0.13814940425263283,"49":0.24845225282683844}},{"sx":1,"sy":1,"depth":50,"w":{"0":0.12306946719266992,"1":0.12630687123465986,"2":-0.14019516786106143,"3":0.07361153130679743,"4":-0.06453243351672276,"5":0.17858498572700218,"6":-0.05019882735024784,"7":-0.06883949026788484,"8":-0.04909440886688928,"9":0.06995714985792675,"10":-0.058264393151901295,"11":0.162146641085052,"12":0.08613398092897254,"13":0.050440338757579035,"14":0.16752325831552037,"15":0.2777586610151449,"16":0.1436390105892648,"17":-0.3202261713285122,"18":-0.06856901028109791,"19":0.006694348456495334,"20":-0.03757565722487389,"21":0.05009380864417727,"22":0.09750750128938572,"23":-0.13654483128179518,"24":-0.05439837431987827,"25":0.09111735521152253,"26":-0.0654633165367239,"27":-0.3511526712345607,"28":-0.08965955055372983,"29":0.14860675204490104,"30":-0.09419766055781743,"31":0.15616085331996984,"32":0.027951500162167325,"33":0.036418696215081064,"34":-0.145342484269644,"35":-0.06673328059095092,"36":0.2155335453535649,"37":0.00862995672536188,"38":0.14782594212218997,"39":-0.034412720377165626,"40":-0.03556657497357211,"41":-0.07026783880873484,"42":-0.025281846931491953,"43":-0.16788993093824628,"44":-0.24778214175986624,"45":0.018449647412464534,"46":0.08982254068094456,"47":0.018309539934985533,"48":0.054819041146618924,"49":0.10503139675581746}},{"sx":1,"sy":1,"depth":50,"w":{"0":0.014332328640964806,"1":0.0875156074489655,"2":0.17591407503468054,"3":-0.16819187609854705,"4":-0.055630471480999005,"5":-0.051457610669089326,"6":0.35411137878843857,"7":0.07371684663575181,"8":-0.17375697849963567,"9":-0.12105405070578247,"10":-0.15038364184043385,"11":-0.13223508353705188,"12":-0.15544332643704378,"13":0.12113896262172891,"14":-0.19161230800525916,"15":0.057038090902648574,"16":0.13747273456771356,"17":-0.06053371149893329,"18":0.0694758150564011,"19":0.047752930399000304,"20":-0.041725817289692144,"21":-0.18024354833446732,"22":0.04927760016588529,"23":0.1536522917878965,"24":-0.09253915708803576,"25":0.019944074197368777,"26":0.112441137307496,"27":0.0935202475716728,"28":-0.08140184987108956,"29":0.22437305911590336,"30":-0.06437689201970756,"31":0.2433944562092014,"32":0.24983614173168134,"33":-0.0022881123838151946,"34":0.11205160120747175,"35":0.1603067492561322,"36":0.32726108765008394,"37":0.21319711405208386,"38":-0.005833434289649985,"39":-0.044355274004142416,"40":-0.12440554459272588,"41":0.03773001917391802,"42":0.09191680517860641,"43":0.07632498514069641,"44":-0.24012716310487459,"45":-0.10869096119509357,"46":0.15129933080958446,"47":-0.3019282739175314,"48":-0.17082014513179278,"49":0.08487043385756514}},{"sx":1,"sy":1,"depth":50,"w":{"0":0.254842481743184,"1":-0.19046891747221034,"2":-0.025402250903032785,"3":0.10790166249164614,"4":0.04769348667975219,"5":0.09980272868479412,"6":-0.10390042672523045,"7":-0.09693577107972844,"8":0.21176338022010424,"9":0.06841576143000938,"10":-0.10047232785356616,"11":0.042427207716517264,"12":-0.13170977895163063,"13":-0.2062844021359101,"14":-0.2840417116007735,"15":-0.011187124702599882,"16":-0.04128328427386552,"17":-0.023726533430512325,"18":-0.29242762667342775,"19":-0.14428556019513045,"20":-0.013164197304994359,"21":0.03371813694091349,"22":-0.37863477512103455,"23":-0.006631449345825747,"24":0.19406507405538523,"25":0.13183184641339615,"26":0.1379298897990067,"27":-0.2253805278755285,"28":-0.18034630383363381,"29":-0.03319073542073218,"30":0.01564057840908122,"31":0.15173258901833106,"32":0.14834076694370021,"33":0.1467756041645526,"34":-0.09947573993393224,"35":-0.18040760807609194,"36":-0.1475323824549676,"37":0.112887418703458,"38":0.019014846904426952,"39":0.027278968624429686,"40":-0.02046291082400583,"41":-0.24890281743571924,"42":0.16038243511075292,"43":-0.31537380012861405,"44":0.03935885428375082,"45":-0.11086620273245668,"46":0.09538583982399403,"47":0.05358240503187998,"48":0.02125657425443531,"49":0.038691773034265235}},{"sx":1,"sy":1,"depth":50,"w":{"0":0.08717058481383741,"1":0.2013817532247826,"2":-0.16874712786809712,"3":0.04535067151437813,"4":0.16724701298471323,"5":0.08911378134419924,"6":0.17725304146539292,"7":0.10719769870854337,"8":-0.2797492900701085,"9":-0.26674771455777135,"10":-0.10817709337511708,"11":0.03957948041398965,"12":-0.004190387004879888,"13":-0.06281128826652267,"14":0.022949254293741745,"15":-0.172564260205619,"16":0.0007439676443829064,"17":-0.06890717853280537,"18":0.015871605849317936,"19":-0.02220681592238825,"20":0.16740126986781423,"21":0.003032998042615246,"22":-0.08435840644233514,"23":-0.33834245293298787,"24":-0.14378959591020501,"25":0.09124408886037456,"26":0.32737024544190935,"27":0.09124747529389679,"28":-0.15174472575887824,"29":0.15508807011731784,"30":-0.1478550222692448,"31":-0.05079890637080395,"32":0.1955251632105297,"33":0.16154760914018723,"34":-0.02654986042194461,"35":-0.1665819608266915,"36":-0.1312938254601497,"37":-0.22165658742740482,"38":0.21252954679877012,"39":0.12865317922305194,"40":0.15578788594203916,"41":-0.150801796424111,"42":-0.0006466390180430559,"43":0.059611467629260215,"44":0.2509799039644916,"45":-0.045407487751094606,"46":-0.38173251294940524,"47":-0.10308868633539366,"48":0.14366701784539063,"49":0.01712116874401306}},{"sx":1,"sy":1,"depth":50,"w":{"0":-0.23073054106440297,"1":-0.030774199016530578,"2":0.002714497145898868,"3":0.03128883935889528,"4":-0.36372518438189233,"5":-0.0863039970047352,"6":-0.06018627946104484,"7":0.08056989356124025,"8":0.053619720801597395,"9":-0.1700472901085554,"10":0.018303748969560836,"11":0.16127910483952107,"12":0.13662688825856795,"13":-0.19608955248109833,"14":-0.13118097787722277,"15":0.22503943938493104,"16":-0.06644626897432462,"17":0.08062018040392904,"18":-0.05519307998064278,"19":-0.16798556974043424,"20":-0.06694512185608611,"21":-0.30295841280095104,"22":-0.05294779193420825,"23":0.03827605686987465,"24":0.12930392549704325,"25":-0.05032239387741621,"26":0.230636041162655,"27":-0.037549511168519976,"28":-0.052243768013624355,"29":-0.10779867959683827,"30":-0.04093912945908045,"31":0.18668734091729347,"32":0.015896109354511953,"33":-0.30121960628461325,"34":0.13100046970612422,"35":-0.016721557652671706,"36":-0.1364074337537072,"37":-0.07847434836726856,"38":0.15542002266314578,"39":0.07074972142100709,"40":0.1426165075289597,"41":0.0632190409160471,"42":-0.03642963906519773,"43":0.054135529738911836,"44":0.050599185643064086,"45":-0.023616428300543866,"46":-0.2313693553689415,"47":-0.09180976143534988,"48":-0.08749897993517354,"49":0.02377166031943857}},{"sx":1,"sy":1,"depth":50,"w":{"0":-0.06610050501331617,"1":-0.2361604505199763,"2":0.15313812659866824,"3":0.03638059714829496,"4":-0.06803744780974984,"5":-0.0054199599012495926,"6":0.07705143548057183,"7":0.3063009974067633,"8":-0.12110025591637001,"9":0.01166866345411747,"10":0.002226203179246924,"11":-0.41515671465729953,"12":0.17019749990750588,"13":0.019495221654502053,"14":0.09988090725718009,"15":0.08388234611094993,"16":0.2511528733632572,"17":-0.14368036503120288,"18":-0.2312799063292226,"19":-0.09046554833795736,"20":0.0005818529321843012,"21":0.07039047245548438,"22":0.07052156917651305,"23":0.0752180878525358,"24":0.008329572620052392,"25":0.21821060474505466,"26":0.042527150707988695,"27":-0.2289782757704744,"28":0.17338665273354484,"29":0.02480780475106624,"30":0.05614076384840157,"31":0.08217610183239199,"32":-0.11926486384069515,"33":0.02129615510147858,"34":0.03331531540749667,"35":-0.05262027596790214,"36":0.11399115873327154,"37":0.0637593479567927,"38":-0.08607878733750714,"39":0.05290998792648555,"40":-0.19064057528216852,"41":0.044199930019599466,"42":0.010808064527478796,"43":-0.1178825453275952,"44":0.133382585432027,"45":0.07659944817253647,"46":0.3994917111253325,"47":-0.011584425341238713,"48":0.17982635710229478,"49":0.11063702779087203}},{"sx":1,"sy":1,"depth":50,"w":{"0":0.01861456104696083,"1":-0.051301534468583175,"2":0.03127492128626064,"3":-0.011006242695484194,"4":-0.05220419797481464,"5":-0.08127289146389755,"6":0.18845848347959734,"7":0.11108773911630677,"8":0.32266788918184286,"9":-0.09412686899720672,"10":-0.060230120289054015,"11":-0.08036446923390629,"12":0.2582263816714317,"13":-0.1967532535135903,"14":0.07796263987709105,"15":-0.19536236355894146,"16":-0.17451941249593184,"17":0.045089646224698236,"18":0.060130177391930995,"19":0.02856973242127047,"20":0.19112545200503697,"21":0.055528866837403,"22":-0.31949853547940454,"23":-0.16365619996396857,"24":-0.07905036824456584,"25":0.07045588573989808,"26":0.09056405896175211,"27":0.0856439662893474,"28":-0.17015263430311942,"29":-0.2314194823907461,"30":0.1427431906172676,"31":-0.03392587063681204,"32":0.263409183729638,"33":0.2548330334545435,"34":0.21250664296065633,"35":-0.21297037664275614,"36":-0.0023019433084691633,"37":0.1306080978923784,"38":0.001467457986040515,"39":-0.02746372428623958,"40":0.2335132314676511,"41":-0.02573320327383962,"42":-0.07070175513741604,"43":0.12889765428356287,"44":-0.015035596396015599,"45":-0.37275221363401634,"46":0.010996072792552197,"47":0.09542153357194474,"48":-0.018279191961228382,"49":-0.001249726175019385}},{"sx":1,"sy":1,"depth":50,"w":{"0":0.028622713106674642,"1":0.13580646203610794,"2":-0.3322450467422099,"3":0.044698547460320905,"4":0.038134105646652525,"5":0.14268790773909526,"6":0.1243569379004892,"7":-0.15019518775875051,"8":0.2064214474285807,"9":-0.05578390031837188,"10":0.09239198775979046,"11":0.13857073217491633,"12":0.05251538774200354,"13":0.04285613199838736,"14":0.045404117018201066,"15":0.20973646812475902,"16":0.036235401951813094,"17":0.4105457229953807,"18":-0.30398821631257816,"19":-0.18320328928610483,"20":0.07168758181655575,"21":-0.029232273272106698,"22":0.12754128337560294,"23":-0.1699656996147101,"24":-0.01941844120072011,"25":0.2788181846305768,"26":-0.016077036091808532,"27":-0.1715868278621025,"28":0.20181642579081696,"29":0.1039595227463226,"30":0.12596262868464286,"31":0.033937403691423805,"32":0.006458106915416506,"33":0.13482870234590685,"34":-0.0382655397461476,"35":-0.21892824695094948,"36":-0.16787148975774938,"37":0.17975554875424163,"38":-0.2610761397818232,"39":-0.04430846919630852,"40":0.04589885651499674,"41":-0.22858918820462204,"42":0.04403222907903811,"43":0.12065598646927393,"44":-0.11440490756401328,"45":0.1005463385016301,"46":-0.12762049131790223,"47":0.10310073978123892,"48":0.1326104383072928,"49":0.2003836115826612}},{"sx":1,"sy":1,"depth":50,"w":{"0":-0.06645787492008554,"1":-0.038863821581416755,"2":0.004394574261324697,"3":0.18413885239883485,"4":-0.10181904102899703,"5":0.15639044575562452,"6":-0.0855361751592554,"7":0.11681542112624137,"8":0.10945209635406838,"9":-0.11248793732897994,"10":0.20735211076787044,"11":-0.04991862169169358,"12":-0.09271472962855497,"13":0.1245598769065447,"14":0.03801351294406026,"15":-0.003764044150302764,"16":-0.17121000099980424,"17":-0.04096635498863927,"18":0.2332265809156632,"19":-0.35617978102870557,"20":-0.19590510813818526,"21":-0.011651994325291478,"22":0.17999193122697482,"23":-0.11522784523466602,"24":-0.08415093982337282,"25":0.23385343890379234,"26":0.20434771266728793,"27":0.2728422035485044,"28":0.3182187514928071,"29":-0.009492769597276476,"30":0.11420606508313699,"31":0.10238064716058748,"32":0.11370307388756935,"33":0.04691397981522011,"34":-0.08124069491274848,"35":0.20197694274087347,"36":-0.2107794113215318,"37":-0.20461513831793904,"38":-0.1272665675797468,"39":-0.02738086568772877,"40":-0.00930910891369253,"41":0.14089830624244876,"42":-0.2511290185658166,"43":-0.06326606456560323,"44":-0.08441294577909304,"45":-0.27763203355611277,"46":0.10221979271926689,"47":-0.09499504126903387,"48":0.21062935606949057,"49":0.03239759071895195}},{"sx":1,"sy":1,"depth":50,"w":{"0":-0.03725092370354773,"1":-0.06271817938334753,"2":-0.10918928454955935,"3":-0.029898573254406507,"4":0.0585621193528366,"5":0.06588655827459551,"6":0.04992426940104868,"7":0.018575061968257756,"8":-0.04279045898703311,"9":0.05487616479572044,"10":0.11532874934711333,"11":0.11723920417593059,"12":-0.1500337861962248,"13":0.11226055482481634,"14":-0.12184461943856591,"15":0.16519234907699126,"16":-0.31309352463833473,"17":0.19745579351691014,"18":-0.0016967099459420647,"19":-0.1819400922957685,"20":0.1353389714511791,"21":0.256328177305462,"22":0.12156781243506268,"23":-0.039230653051560836,"24":-0.20307346976092597,"25":-0.19812116051127618,"26":0.3210900826559607,"27":-0.24811435370731355,"28":-0.12689074869264164,"29":0.2349243800202652,"30":0.048515843852939416,"31":-0.0583417838968394,"32":-0.03985005582777226,"33":-0.15212808907186123,"34":0.14594475428897805,"35":0.09334955485326354,"36":-0.025785814286996174,"37":-0.011045063973732979,"38":0.12647949985805299,"39":-0.07650297539464664,"40":-0.3624353774269939,"41":0.0882779786702723,"42":-0.1425020240342061,"43":-0.010296645333766948,"44":-0.12150817730391353,"45":0.08975770280439135,"46":0.27970730689792733,"47":-0.030664401849313575,"48":0.08547340940820193,"49":0.044772517960152865}},{"sx":1,"sy":1,"depth":50,"w":{"0":-0.3629076808563635,"1":0.17266568706409924,"2":-0.08343904636900959,"3":0.024823808962241168,"4":0.14740686117745488,"5":-0.2124905388876074,"6":-0.10275567446692441,"7":-0.04605829424525287,"8":-0.16995268737913094,"9":0.11360680900422945,"10":0.06113503225363126,"11":-0.009596586357014486,"12":-0.3807565985197003,"13":0.05148620948679964,"14":-0.0036754666244057602,"15":-0.13258961196990987,"16":0.19520034519952903,"17":0.09032821443475984,"18":0.14475238681339508,"19":0.06694503321403067,"20":-0.2534459663785651,"21":-0.2063842595272468,"22":-0.05769953419466805,"23":0.17131834174249577,"24":-0.003567509610695821,"25":-0.05142034112306082,"26":0.03236175287299122,"27":-0.20353789813133977,"28":0.16965288463797248,"29":-0.18185850309012783,"30":-0.139944744930326,"31":-0.015452727118946291,"32":0.07481513758792252,"33":0.06627163800000256,"34":-0.07644832283570005,"35":0.14968775647674729,"36":-0.2195063513668263,"37":-0.04380606928022175,"38":0.19567747790294968,"39":0.3791373977871519,"40":0.290689718588243,"41":0.029334983462839796,"42":0.06388609147624867,"43":0.043926737526632405,"44":0.0407766513759608,"45":0.3026897466563613,"46":-0.01190799775726978,"47":-0.044921333657610675,"48":0.10099230446681975,"49":-0.05082666884476889}},{"sx":1,"sy":1,"depth":50,"w":{"0":0.15782923828473827,"1":-0.16494399298621576,"2":0.28403486719343923,"3":-0.21664463536843798,"4":0.180179359554544,"5":-0.029465285404293568,"6":-0.035255950186112016,"7":0.018673012128920547,"8":0.0870016917160766,"9":-0.15524376399422077,"10":-0.06765982217265325,"11":-0.1654966854882806,"12":-0.10598080681273993,"13":-0.11162072224629883,"14":-0.26013131243989845,"15":-0.10111385373400605,"16":-0.22010446998023137,"17":-0.15316047469928287,"18":0.1233173696166361,"19":0.061153653173462406,"20":0.05609595118182716,"21":-0.055995382551484146,"22":-0.03052872774067934,"23":-0.18863900663766253,"24":0.02182755707679898,"25":0.09614000163738877,"26":0.0030390506531154803,"27":-0.015480642873196173,"28":-0.04114840260989266,"29":0.16530251828321393,"30":-0.1280697064204688,"31":-0.15836397673558,"32":-0.13026749032172902,"33":0.11751264099503536,"34":0.003433140801511886,"35":-0.1757147329201184,"36":0.08965319964943519,"37":0.059580059658247246,"38":-0.03736572058900246,"39":-0.3747897372280575,"40":0.14368574559457842,"41":-0.026375998615446903,"42":0.21875937308973387,"43":-0.1732890696598018,"44":0.006107982922929476,"45":0.051105106553585265,"46":-0.13957187288588188,"47":0.1375192354098477,"48":0.07348900191251882,"49":-0.14542418389031134}},{"sx":1,"sy":1,"depth":50,"w":{"0":0.11112241520711448,"1":0.025002217924685963,"2":-0.0773638908128696,"3":0.03355555818318189,"4":-0.22825392028734146,"5":0.1006672906081268,"6":-0.11686664133130954,"7":-0.22684900749740775,"8":-0.12884396622210129,"9":-0.19937094446506962,"10":0.13611825338205893,"11":-0.14294396753089939,"12":-0.0877957897154901,"13":0.166637428121862,"14":-0.07084227277523251,"15":0.20475706262164545,"16":-0.2316353028631761,"17":-0.035573519023937974,"18":0.28727064809583797,"19":0.025200417094810235,"20":0.06902685505366468,"21":0.18527382271497436,"22":0.09682313596996046,"23":0.11626871853985324,"24":0.18455585521979975,"25":-0.11431148882135304,"26":-0.07696067475017711,"27":-0.02570013294468331,"28":-0.04333650126055317,"29":-0.21425865322656498,"30":-0.34364956002353886,"31":-0.07652406220486357,"32":0.2509772063783858,"33":-0.049361226998012674,"34":0.13259166835901495,"35":-0.18493916033647223,"36":0.028059770945734697,"37":-0.12255043619010621,"38":-0.148034303241636,"39":0.18275947618442243,"40":0.14096555227886912,"41":-0.0783044281734385,"42":0.007065648144446917,"43":0.0716578893362469,"44":-0.1559712710294841,"45":0.2532064367726976,"46":-0.035112191468652805,"47":-0.16781834526034486,"48":-0.09356425928737101,"49":-0.1671722580876918}},{"sx":1,"sy":1,"depth":50,"w":{"0":-0.01651368564790181,"1":0.1499064596371361,"2":0.12111134779212415,"3":-0.21454187510280506,"4":-0.19993243409152245,"5":0.00028579775565374836,"6":0.09571156147669782,"7":0.017803661558260794,"8":-0.052444090243936106,"9":-0.1994455453369537,"10":-0.05600588511860695,"11":0.06868079652524525,"12":-0.010608791108475369,"13":0.2094329336162405,"14":-0.1347711803344143,"15":0.1469626077059563,"16":-0.0714920439689873,"17":-0.14391522797173123,"18":0.0013610484231808813,"19":-0.1510317833740354,"20":-0.09404013141106822,"21":0.04247468051964706,"22":-0.04452981380206789,"23":0.08251843667258582,"24":0.0806377209428707,"25":-0.04207470122764491,"26":0.07363548173137212,"27":-0.22184464251345232,"28":0.07336418183948655,"29":-0.1635370531144618,"30":-0.007822687769149995,"31":0.11532473419115685,"32":-0.09701622029108219,"33":0.05423504263290082,"34":-0.18414993879068237,"35":-0.11476216706264528,"36":-0.18353112368379385,"37":-0.16873170467371493,"38":0.10772171357625178,"39":0.2124682269638656,"40":0.04206096193421776,"41":-0.11164899406768787,"42":0.3423890150698828,"43":0.0694631579742239,"44":-0.18666902371225308,"45":-0.1279561308379356,"46":-0.2172186345079535,"47":-0.19690148343514602,"48":0.001417938821527523,"49":-0.02412974845417159}},{"sx":1,"sy":1,"depth":50,"w":{"0":-0.0914793998791501,"1":0.32533950064439904,"2":-0.1856271073996614,"3":-0.30738598824453645,"4":0.20374223621389323,"5":0.06368617197881152,"6":-0.10357005745267654,"7":-0.06999664605512995,"8":0.15365421497678514,"9":0.06889643962515027,"10":-0.12578896957527275,"11":0.23848251134630402,"12":-0.010198737781207771,"13":0.21424809164410838,"14":-0.22734880988187514,"15":0.03462442218525472,"16":-0.03572924381854314,"17":-0.006238110915068436,"18":-0.18410735021665284,"19":-0.0855103390221756,"20":-0.18271436706847524,"21":-0.18364912006722933,"22":-0.012469426205251358,"23":0.05140750625496438,"24":0.16466151893341893,"25":0.17492986997433185,"26":-0.1896980910908696,"27":-0.2663080467225724,"28":-0.01754094218724492,"29":0.13324118408156188,"30":0.004218585338323119,"31":0.022413620365861198,"32":0.14661185198800222,"33":0.005051864483141802,"34":-0.17396874933494075,"35":-0.1944790239154044,"36":0.021295078058265166,"37":0.15022562068455594,"38":0.024684164673921,"39":-0.009568852907757086,"40":0.23692997963334983,"41":0.02807978595342142,"42":0.1092939878803085,