[{"layers":[{"out_depth":59,"out_sx":1,"out_sy":1,"layer_type":"input"},{"out_depth":50,"out_sx":1,"out_sy":1,"layer_type":"fc","num_inputs":59,"l1_decay_mul":0,"l2_decay_mul":1,"filters":[{"sx":1,"sy":1,"depth":59,"w":{"0":0.13073255273455206,"1":-0.15668395928450546,"2":-0.24186400387406895,"3":0.10720919096560597,"4":-0.004952554373819638,"5":0.13164806512858715,"6":0.1841409342039054,"7":0.04717298346645707,"8":-0.03376302080313387,"9":0.009801504772387755,"10":0.05599892008477689,"11":0.05406653197140669,"12":-0.11105800176132849,"13":0.04607139761207921,"14":0.014988813875543645,"15":-0.012376626491505862,"16":-0.06507278243300367,"17":0.00751482328279834,"18":-0.28971988689619377,"19":0.08106175904963224,"20":0.06283020508381378,"21":-0.21149992086917324,"22":0.027994851166636272,"23":-0.059518427680237664,"24":0.16046706392912743,"25":-0.026118700776501604,"26":-0.04970679087292352,"27":-0.3921206412909579,"28":-0.03811264031248896,"29":-0.15578476985119852,"30":-0.2558412691536128,"31":-0.007034335982214253,"32":-0.10978858077883219,"33":-0.2924741635952813,"34":0.10813921610337016,"35":-0.04748536155678613,"36":-0.09603096598600894,"37":-0.09000584877119398,"38":-0.0553356426840651,"39":0.08510364411778981,"40":-0.08441080564259443,"41":-0.24347573827210095,"42":-0.21434501137369924,"43":-0.02130436741283931,"44":0.24060642370432378,"45":0.0718393708924909,"46":0.022568092763347654,"47":-0.1977712026572549,"48":0.08106207069523992,"49":0.028145576966335135,"50":0.011727199627927924,"51":-0.09195253993239375,"52":0.003553811152796017,"53":-0.05832732924850758,"54":-0.2584627475563179,"55":0.001436573707939377,"56":0.026185868840428374,"57":-0.28894543310754284,"58":-0.07618497159155938}},{"sx":1,"sy":1,"depth":59,"w":{"0":-0.11115534444375653,"1":-0.1815404761618298,"2":0.2121025141764612,"3":-0.0952566772140163,"4":0.08564445001628497,"5":0.03385886479380923,"6":-0.0754621223649688,"7":0.04089780205861411,"8":0.15539836604167323,"9":-0.1896328189661113,"10":0.011544518828112199,"11":0.07668470967625028,"12":0.04881383107938132,"13":-0.039976485035779726,"14":-0.14720869833639594,"15":-0.2692939228327357,"16":-0.04211382709857374,"17":0.011325896286798996,"18":-0.006081137077833702,"19":-0.03309395209726167,"20":0.03181303327548438,"21":-0.2914613991373344,"22":0.07112391507527845,"23":-0.2135915272354801,"24":-0.27813822417586165,"25":0.021767462131478874,"26":0.10235540699478474,"27":-0.04482913992266456,"28":-0.15565355521808255,"29":0.13149232701985047,"30":-0.2022363796025591,"31":-0.04030634298461421,"32":0.05754506238409636,"33":-0.0025351401121610955,"34":0.12445368861726115,"35":0.09280704725661762,"36":0.003976628441310171,"37":-0.16516024538399568,"38":0.15749262694305896,"39":0.1201956960353977,"40":0.13762447686474802,"41":0.2152386523202731,"42":-0.16044447837266898,"43":0.014055557142710536,"44":0.16317346669992308,"45":-0.10257271372592637,"46":0.026031840978600302,"47":0.036991288061370683,"48":-0.0727638140887379,"49":-0.036805965506443675,"50":-0.0018647357192222555,"51":-0.014875577077671539,"52":-0.05116209246296551,"53":0.1014420619086073,"54":-0.0678613622482794,"55":0.05065223133246329,"56":0.06707238701132982,"57":-0.08533937943987598,"58":-0.048547115288265726}},{"sx":1,"sy":1,"depth":59,"w":{"0":-0.1124717459181573,"1":0.016558485667800354,"2":-0.0006180350936348587,"3":0.0635550104334789,"4":-0.0087108888485185,"5":0.10701035966610188,"6":0.094154144549352,"7":-0.04133919192760846,"8":-0.1094075433660533,"9":-0.07758070792016335,"10":-0.02681833362657008,"11":-0.3181238756391537,"12":0.05404999419643773,"13":0.10037973401972361,"14":-0.057517146028420174,"15":0.04993527094206634,"16":-0.12973244306165804,"17":-0.034697901788747765,"18":-0.10349450020126291,"19":-0.016137049910875535,"20":0.19519239294235852,"21":0.00830942033560034,"22":-0.08887054862279498,"23":-0.12620518787838936,"24":0.014906694571354327,"25":-0.0078187024311956,"26":-0.16597415685422628,"27":0.34608134752306413,"28":0.11137836878633194,"29":0.043694818852964626,"30":0.12033970081894822,"31":-0.0069112657470872555,"32":0.018566021323642417,"33":0.24005061653835044,"34":0.029630367696735986,"35":-0.06675482005077697,"36":-0.013669861904007641,"37":-0.012301047479442785,"38":-0.10489467006902378,"39":-0.12137741094133993,"40":0.02757590689336514,"41":-0.11612331650647846,"42":-0.04938991096711229,"43":0.022898515011566783,"44":0.1466409826202681,"45":-0.11478074304524451,"46":0.1599960168428644,"47":0.12320057674175414,"48":0.1216967596244956,"49":-0.08893684244981233,"50":-0.009652067152310036,"51":-0.13099038816875125,"52":-0.0860780769598575,"53":0.09198617107472502,"54":0.11649027498165612,"55":-0.0009969943878128055,"56":0.059286232850343616,"57":0.1731960136065391,"58":-0.1314518803204163}},{"sx":1,"sy":1,"depth":59,"w":{"0":-0.11247246154221559,"1":-0.16983180295347095,"2":-0.02717111013371082,"3":-0.1827812751993998,"4":0.05896238945309509,"5":-0.1413785682633379,"6":-0.009342821168033437,"7":-0.05351065221620009,"8":0.11812373944370275,"9":-0.18809603384031434,"10":-0.1487624614088602,"11":-0.2963381877708669,"12":0.0014393013395885377,"13":-0.15052430586270663,"14":0.13176023399480277,"15":-0.18622896886361007,"16":-0.06442154817434188,"17":-0.1441328270549251,"18":0.0001077367355303285,"19":0.07729418724419543,"20":-0.24368293145834286,"21":0.24564917401279646,"22":0.009344067251173585,"23":0.1448268671027645,"24":-0.08874368915275713,"25":-0.0746964039946738,"26":0.06184787429628317,"27":0.0264266078673195,"28":-0.15386013920153851,"29":-0.19248849165210513,"30":0.025171014734242325,"31":0.03815503611270494,"32":0.08956695184863941,"33":0.13504390727707136,"34":0.08307824326515678,"35":0.19050515512032717,"36":0.04378447634093906,"37":0.19508369899604408,"38":0.0135622749893126,"39":-0.06790616267652301,"40":-0.12229421813359366,"41":0.344501079226954,"42":-0.002585721915967059,"43":0.017089449526478256,"44":-0.20491036924518838,"45":-0.0649028661736622,"46":0.18411722679701814,"47":0.032209558650024374,"48":0.07116478379206786,"49":-0.01171162797082466,"50":-0.10595189903429607,"51":-0.10252629105135902,"52":0.11146137373735043,"53":0.06941958524814434,"54":-0.027579263779272715,"55":0.008831843267661309,"56":0.07362576284664024,"57":-0.09328391718679124,"58":-0.1642443257026541}},{"sx":1,"sy":1,"depth":59,"w":{"0":0.10983985895123762,"1":0.050448032688039365,"2":-0.13443634331788967,"3":0.0005442091449623525,"4":-0.028965280565239178,"5":-0.0038386554790884905,"6":0.20653081158287648,"7":0.115611308733075,"8":0.09464703263565881,"9":0.1283189820344874,"10":-0.2073037476110283,"11":0.029909421637813318,"12":-0.17198577796520234,"13":-0.1545171801927171,"14":-0.020877853802984545,"15":0.03253040326236135,"16":-0.07659314998548658,"17":0.22185365090944645,"18":-0.11629642325259384,"19":-0.09233655506045656,"20":-0.30612946210942077,"21":-0.3728936428885808,"22":0.10777131919927256,"23":-0.1438549591841348,"24":-0.2346880465250904,"25":0.08313474572088238,"26":-0.05417163481150979,"27":0.24450658494005065,"28":-0.04454761482674792,"29":-0.09460002361054387,"30":0.028253961240822283,"31":-0.01888930110258727,"32":0.051571374703852646,"33":0.15495928867527015,"34":0.22212082274896033,"35":-0.04249447340260551,"36":-0.16036903614410727,"37":0.07393564945927798,"38":0.2150422201588955,"39":0.5294760803052492,"40":0.1136727844273128,"41":-0.1128053698859147,"42":0.12376517944769119,"43":0.13212470525831213,"44":0.1206058575578343,"45":-0.022192192833840566,"46":0.021315391690832717,"47":0.17519707065435589,"48":0.00247119095772356,"49":0.014860116754707414,"50":-0.20136993828758534,"51":0.26333867884042494,"52":-0.04237930447140235,"53":-0.23790710592497302,"54":0.08398963681314703,"55":-0.07222382002293477,"56":-0.07390459074280821,"57":0.11708895713435621,"58":0.019950768058518416}},{"sx":1,"sy":1,"depth":59,"w":{"0":-0.12676758329479873,"1":-0.04584748263364088,"2":0.13050910636652385,"3":-0.1443588772853351,"4":0.23434483970287284,"5":0.01279135912644141,"6":-0.028039057835583338,"7":-0.07993028702797071,"8":-0.005425035136549283,"9":0.035423785308033556,"10":0.02977864800070996,"11":0.2048093305664795,"12":-0.03343071708315584,"13":0.21048527430837877,"14":0.028838630064810643,"15":-0.024576937629287948,"16":-0.15433505492042288,"17":-0.09975685615045057,"18":-0.38293952290898,"19":-0.018192641854105494,"20":0.032579023818703326,"21":0.18700268528903483,"22":-0.1591467071797826,"23":-0.23650441380492235,"24":-0.09084287896154215,"25":-0.0908971207364115,"26":-0.12458292023285489,"27":-0.4020545612212087,"28":0.1741682673051805,"29":-0.056511098262242376,"30":-0.11537515630976627,"31":0.014211295604829302,"32":-0.18185261249596815,"33":-0.31476001254353975,"34":-0.013488394524919591,"35":-0.014387011108885833,"36":-0.01291292220871837,"37":0.011582229299293303,"38":-0.08728623591152687,"39":0.012310374029778744,"40":0.06702435954868598,"41":0.047914111852709634,"42":0.13225614410241057,"43":0.1464935181351719,"44":-0.01829096303113291,"45":0.04400429530586901,"46":-0.2693101542221349,"47":-0.11952405502768931,"48":-0.11028133426574593,"49":0.07899473388101787,"50":-0.02636796327569263,"51":-0.18772760363955313,"52":-0.044039177944566466,"53":0.20958458186729603,"54":0.20331010101173563,"55":-0.10595928117553854,"56":0.04524966204763042,"57":0.09160176197525376,"58":0.12502801859984985}},{"sx":1,"sy":1,"depth":59,"w":{"0":0.12893870077254752,"1":0.05212542210455201,"2":0.1763015546110517,"3":0.03942380281483819,"4":-0.07329458417443417,"5":-0.13106310006092448,"6":0.03463108054354909,"7":0.027016289567176312,"8":0.17745001981490105,"9":0.000006060200763588517,"10":-0.25938832595248373,"11":0.04637079715520841,"12":0.18348733774176618,"13":0.09871325267026536,"14":-0.21754208046992227,"15":-0.005365605545949312,"16":0.1392244257314229,"17":-0.1042258064167909,"18":0.22146304748148019,"19":0.01812484825227801,"20":0.112768680794574,"21":-0.03338102530511017,"22":0.12479538686724224,"23":0.27552236842160543,"24":-0.19884756354223465,"25":-0.002549508574332513,"26":0.033302052385051815,"27":-0.0849988999762246,"28":-0.03939893676767968,"29":0.07707731664358884,"30":-0.10649902060692812,"31":-0.06740140159195358,"32":0.16492084088580172,"33":0.10281641347087199,"34":-0.14635207134399264,"35":-0.250113587254932,"36":0.2509754128707012,"37":0.07915209783261296,"38":0.04957767213070414,"39":0.006297888335051748,"40":0.021573896628442477,"41":0.03266306980391332,"42":0.06761584288191856,"43":-0.04558657778922376,"44":-0.054604876390292115,"45":-0.05183824240995075,"46":-0.20986593948867477,"47":0.06164644005164647,"48":0.06297146126221628,"49":-0.19645437468176397,"50":-0.14112867965655393,"51":0.09198088438120319,"52":-0.01916430523452343,"53":-0.0930909585523927,"54":-0.2756667081061045,"55":0.04841598807494716,"56":-0.00877613443960952,"57":-0.07315915949131793,"58":0.007423165237262441}},{"sx":1,"sy":1,"depth":59,"w":{"0":-0.004349000497926576,"1":-0.17001368867482602,"2":-0.06870145588250783,"3":0.041773657508786144,"4":-0.09135619497271884,"5":-0.01606212501191854,"6":0.2921028559748606,"7":-0.09921310294153605,"8":-0.10956858718298176,"9":0.15861679263187856,"10":0.2255616065984914,"11":-0.09749757486822042,"12":-0.05654157099388375,"13":0.13622839279841975,"14":-0.10306573846912155,"15":-0.10988865811029216,"16":-0.17411205665067786,"17":0.20719744833582665,"18":0.10266325300580499,"19":0.1477224149303679,"20":0.03869757372513989,"21":-0.2145629643850316,"22":-0.19940357521323857,"23":-0.058067600248509835,"24":-0.03577113715544154,"25":-0.1379718405912719,"26":0.17632251083616116,"27":0.24263030780121164,"28":0.2713564470656202,"29":0.23587749884413892,"30":0.10364587832780743,"31":0.14897370662754783,"32":0.0701328545826467,"33":0.026254454134890356,"34":0.041279921125437005,"35":0.208393332599694,"36":-0.06883945012494162,"37":-0.03358015107691385,"38":0.18479317173168272,"39":-0.03520075334846904,"40":-0.17853582270378635,"41":0.009264697491310772,"42":-0.1275188617969126,"43":0.03943349787146771,"44":-0.03156397078799394,"45":-0.021921397808813962,"46":-0.1289747799033019,"47":0.05006731804600384,"48":0.05826365904054257,"49":-0.048925799130378984,"50":-0.14175170921905467,"51":-0.030197419869477132,"52":0.17098698503891976,"53":-0.05874390516586063,"54":-0.24437243883977253,"55":-0.07434687702147397,"56":0.01787236696349647,"57":-0.12098879776387834,"58":-0.09162662026335357}},{"sx":1,"sy":1,"depth":59,"w":{"0":0.04865036009222033,"1":-0.03852453699172912,"2":0.19798975716490916,"3":-0.12237785040102411,"4":-0.08923599138792793,"5":0.00884295933689793,"6":0.0004912233303861393,"7":0.18446614492737634,"8":0.12218014359774998,"9":0.010601474708982291,"10":-0.13747132998990902,"11":0.001175487169677509,"12":0.04419346491308835,"13":0.21483392924631944,"14":-0.08332509641093105,"15":-0.022758290385870353,"16":0.2024956526339168,"17":-0.019508567782905405,"18":0.055983579786595655,"19":-0.026809938586004913,"20":0.12679374455809056,"21":-0.03486781468890805,"22":-0.032908547012258316,"23":-0.09348638133839772,"24":-0.09826700483887368,"25":-0.1396007806105206,"26":0.009864049498922615,"27":0.08309627254801033,"28":-0.22487308408266835,"29":-0.0014297111291699787,"30":-0.13221189002165645,"31":0.054025883788140674,"32":-0.09799876975318313,"33":0.14664943905290911,"34":-0.08917458384129771,"35":-0.13192004190751525,"36":0.02654490193947351,"37":0.12264622389467623,"38":-0.24143651459190169,"39":0.01786722296266297,"40":-0.04199028848330758,"41":0.19611926187887357,"42":0.12568405240747366,"43":-0.06337346278214395,"44":0.0748765266811906,"45":0.1821961823070533,"46":-0.07471475781295148,"47":-0.02604221554284281,"48":0.02630530954221989,"49":0.06399198640794806,"50":0.07827393517880028,"51":-0.22272882419335618,"52":0.19217958528062082,"53":0.2678842903315543,"54":-0.05901922787107631,"55":0.10627403993996136,"56":-0.12271141044784413,"57":0.01874837093739253,"58":0.10476385436880256}},{"sx":1,"sy":1,"depth":59,"w":{"0":-0.2198493699708974,"1":-0.029655123238387114,"2":0.038639344877058585,"3":0.03300464616093772,"4":-0.18925478623858494,"5":0.0941263690886403,"6":-0.2933368940035424,"7":0.3249344830697165,"8":-0.09257264027742976,"9":-0.070999326169232,"10":0.1460637655154997,"11":0.2288488265629319,"12":-0.016719495256341418,"13":0.3010317229185389,"14":0.12185089330726062,"15":-0.12409136629838029,"16":-0.2610271969792086,"17":0.12918922822397286,"18":-0.13894235584270687,"19":0.055754358270175754,"20":-0.016055515269337337,"21":0.14375546283049434,"22":0.22031963697829932,"23":-0.05967047841184057,"24":-0.17094075062224115,"25":0.017838894813242964,"26":-0.08293031359858372,"27":0.04486762560186917,"28":0.17630638019870917,"29":0.13885132453739046,"30":-0.025357186266872438,"31":-0.1750455676391272,"32":0.13115486240359028,"33":-0.020417017270290383,"34":-0.008490578309448974,"35":0.1073196242755723,"36":0.3121892945270368,"37":0.13828178501203464,"38":-0.06205079730375123,"39":-0.08850574366518635,"40":0.2195558175384216,"41":0.05133584346727848,"42":-0.07923982141472344,"43":-0.11052150429169624,"44":-0.22564995408295122,"45":-0.0873575336223684,"46":0.12110419839050474,"47":0.11715376498085092,"48":0.007896066688315532,"49":-0.19304432287549278,"50":0.03702739164267804,"51":-0.1356930259031617,"52":0.030063279354006083,"53":0.1600269347400497,"54":0.1230745691340409,"55":-0.20429597032353022,"56":-0.19142442932467074,"57":-0.007732850188608512,"58":0.16637789262745284}},{"sx":1,"sy":1,"depth":59,"w":{"0":0.09462352908678069,"1":-0.11396782271775835,"2":0.2575510802911391,"3":-0.07052096213461954,"4":-0.01139549182614926,"5":0.015962317209932395,"6":-0.2532695143110857,"7":-0.011965518670482287,"8":0.07518416607700813,"9":-0.13782808234784524,"10":-0.14384179458740776,"11":-0.13560830374285823,"12":-0.09791968339621762,"13":-0.10519118974290308,"14":0.01606229385504728,"15":-0.09435659039104707,"16":0.11473367234789088,"17":-0.1146592454392416,"18":-0.33339245777802873,"19":-0.14970674091659644,"20":-0.14464951461750572,"21":-0.061976784836637835,"22":-0.04930600869534426,"23":-0.029091222437280014,"24":0.0731283137639785,"25":-0.13179094614315404,"26":0.023440802247148278,"27":-0.040886077562546676,"28":0.20057430696767956,"29":-0.12087557292483372,"30":-0.015470130508760687,"31":0.1291086028598463,"32":-0.0928948136582616,"33":0.28291797776276556,"34":0.011580697129203054,"35":0.11574971380603204,"36":0.00025920869511689897,"37":-0.061689153695930095,"38":-0.007113559961568341,"39":-0.06316735379713584,"40":0.01902426734802209,"41":0.23675868415654394,"42":0.02253188293138619,"43":-0.06483309706757612,"44":-0.14982068635002707,"45":-0.03560677286420688,"46":-0.04056382623257528,"47":0.0918319680608231,"48":0.03558950606737116,"49":0.23746194151219896,"50":0.04245988457863326,"51":-0.08762077967088444,"52":-0.14343921231578505,"53":-0.0734518505859218,"54":-0.10471451607147737,"55":-0.10725634469758569,"56":-0.07482150309667863,"57":-0.027310232693868165,"58":-0.17780586222175046}},{"sx":1,"sy":1,"depth":59,"w":{"0":-0.05102387130598353,"1":-0.07154137111641441,"2":0.12292507488378714,"3":-0.0652440941017734,"4":0.0009148145579789527,"5":0.058092197066692525,"6":0.1847645847995047,"7":-0.04540844773508992,"8":0.09858501251239599,"9":-0.17941270814322052,"10":-0.11615388251248238,"11":-0.012439964836875445,"12":-0.00956740162360127,"13":-0.07910741833374875,"14":-0.15253847912023005,"15":-0.1355645078525709,"16":-0.2839010022442575,"17":0.032763498062783586,"18":-0.04318803215686118,"19":0.02168453134178917,"20":-0.09729900131173566,"21":0.11139294630579355,"22":-0.07002374800356885,"23":0.1962876703146596,"24":0.03412659330557134,"25":-0.09167675555319976,"26":-0.058599249534503677,"27":-0.22158230517430266,"28":0.19629658906573225,"29":-0.01060008630942765,"30":-0.056897544298817854,"31":0.21188309076415612,"32":-0.10888472467716724,"33":0.1668071093393481,"34":0.20427416698327525,"35":0.08240650552939005,"36":0.32388563883813704,"37":0.07716032891040316,"38":-0.24064077151062518,"39":0.06916380470413706,"40":-0.07274862250152142,"41":0.083550493165362,"42":-0.0046403760182577485,"43":-0.13542344514585236,"44":-0.07988183606726879,"45":0.14616494613551015,"46":-0.07540511889425028,"47":-0.14127902010911544,"48":0.2171866030490286,"49":-0.016064396925296667,"50":-0.027389626064434118,"51":0.13616135391418507,"52":0.1231169988356817,"53":0.06831369738776823,"54":0.27123590574698203,"55":-0.24172745403338994,"56":0.12955793384721473,"57":-0.10771763200934645,"58":0.2863554145367422}},{"sx":1,"sy":1,"depth":59,"w":{"0":0.11895412129391354,"1":0.14335306470784517,"2":-0.37335844376396277,"3":0.13797067119191647,"4":-0.04735091208561046,"5":-0.11633632165177953,"6":0.02169860990877454,"7":-0.12324550122580703,"8":-0.024540649194778563,"9":0.10433831152700987,"10":0.22513452388521527,"11":-0.04942256626559576,"12":0.13094871052940124,"13":0.30068041957458586,"14":0.1966198179632025,"15":0.1374559884111855,"16":-0.018141730342840265,"17":-0.08449209705379694,"18":0.12857523779763258,"19":0.07717108274441131,"20":-0.039995962213436174,"21":0.1942139456536327,"22":-0.15209710889584416,"23":0.006324479837681174,"24":-0.20941562970122862,"25":-0.08443535773223679,"26":-0.03640958568346235,"27":0.07297554551831714,"28":-0.2222533133479741,"29":0.11619122736905946,"30":-0.02327439533091699,"31":0.09377843363797657,"32":-0.13066993585565742,"33":0.13813329571599037,"34":-0.0024199801091381703,"35":-0.04495470639740394,"36":-0.03224410754909036,"37":0.03361708128168272,"38":0.07997499790215289,"39":-0.05523126751720758,"40":-0.040575568076650116,"41":-0.03755933433377677,"42":0.03380946049850294,"43":0.1999199068104562,"44":0.13746082252493344,"45":0.3517558775030114,"46":0.1604810288450242,"47":0.11974681476139307,"48":-0.049090517834084746,"49":-0.01429807994069286,"50":-0.1958260530440893,"51":0.32579202224665726,"52":-0.009585340217967525,"53":0.11950195536767386,"54":0.09982479342214046,"55":0.032251701718489185,"56":-0.007875142513597274,"57":-0.0012225307714351834,"58":0.08208886333387734}},{"sx":1,"sy":1,"depth":59,"w":{"0":-0.17101569082163873,"1":0.13007478848371007,"2":-0.08304556901821669,"3":-0.33353581356042383,"4":-0.0754037066225024,"5":0.03381262822117178,"6":0.018468509709438908,"7":-0.1416422255681454,"8":0.16810031696518415,"9":0.006532871697132932,"10":0.015920381155735224,"11":-0.15990988059475428,"12":-0.42045216872183394,"13":0.023710510899745754,"14":-0.05925220405816144,"15":-0.21204336987346967,"16":0.14904067471536211,"17":0.06556065410996001,"18":-0.16867787670853848,"19":0.23373331889645438,"20":0.04898842032453568,"21":-0.09099652786667883,"22":-0.038286221393477315,"23":0.03555678645769555,"24":-0.10851389285736995,"25":-0.06430041541870431,"26":0.23921776824848992,"27":-0.003829268783469584,"28":0.13500761456411814,"29":-0.10212477485446404,"30":-0.10046087721649148,"31":0.23309346756301505,"32":0.10390534438946719,"33":-0.15961513695217397,"34":0.004279108109914563,"35":0.009888660911116861,"36":0.0409446520715431,"37":-0.0958376005880664,"38":-0.12101636838042167,"39":0.01796843711881846,"40":-0.08328995250400828,"41":-0.10268806059786816,"42":-0.12154060136303221,"43":-0.23986207226991232,"44":0.0004835804915272264,"45":-0.17518652270368215,"46":-0.024234366629535074,"47":0.18726526043588426,"48":0.04317985679003609,"49":0.05335453817648018,"50":-0.03805464228380006,"51":-0.07997734959362654,"52":-0.07247003336051773,"53":0.035190891761287105,"54":0.12296928226279871,"55":0.06488927646185383,"56":0.08066163059125973,"57":0.13332550870107637,"58":-0.11713835078254055}},{"sx":1,"sy":1,"depth":59,"w":{"0":0.06884472523025999,"1":0.07021693086928676,"2":-0.23754335868240778,"3":0.12062380066527881,"4":-0.13374107289236004,"5":-0.13221701456057913,"6":0.03835632006962075,"7":0.048943524831912805,"8":-0.1022710742122604,"9":-0.12737495429985135,"10":-0.017383775386094598,"11":-0.00615690522547121,"12":0.06010521823997019,"13":-0.0916513043832442,"14":-0.11637951136272069,"15":0.11725921530137057,"16":0.08725079546651031,"17":-0.019973117410715495,"18":-0.016943095189895323,"19":-0.05790625190293757,"20":-0.23300414524573948,"21":-0.05876432521349144,"22":-0.13439439316845928,"23":0.033325746990461036,"24":0.256604882223126,"25":0.2237307384587159,"26":-0.005615397860555292,"27":-0.024666114500128702,"28":0.16991172943704153,"29":-0.10567551757401507,"30":0.21801651415664308,"31":0.06779351225093935,"32":0.044022767955062395,"33":0.2080380970333365,"34":-0.043741252361206406,"35":-0.254544976430643,"36":-0.06067019906287402,"37":-0.12120496319251037,"38":0.0905410556488378,"39":0.05127887850865806,"40":0.06370016942528459,"41":0.048557150783490335,"42":0.056477025684368416,"43":-0.26695391068961233,"44":0.04435943370071301,"45":0.1292658319368564,"46":0.0451330199236741,"47":-0.16226093215927834,"48":-0.016856184186128997,"49":0.06794906961143547,"50":0.11536129356106187,"51":0.10407017038549153,"52":-0.08408051420562106,"53":0.04848787707888805,"54":0.06621564639911422,"55":-0.1647028226997558,"56":-0.14766820714403164,"57":0.08200649410372161,"58":-0.0630142477311506}},{"sx":1,"sy":1,"depth":59,"w":{"0":0.09287693668164024,"1":0.0016227515512751158,"2":-0.2115184363775234,"3":-0.07707999639524664,"4":-0.31535556199082954,"5":-0.23094214723914258,"6":-0.06423313523716462,"7":0.23508683628417446,"8":-0.11963806756144056,"9":0.04745719029436595,"10":0.036029643491124884,"11":0.05472896083537613,"12":0.11901015259316661,"13":0.2885014254369045,"14":0.13273253879434646,"15":-0.0640537636893355,"16":-0.09465641629452301,"17":-0.2015950092628669,"18":0.0185023220969173,"19":-0.05838155261618795,"20":-0.06066619670457363,"21":-0.01936092521840899,"22":0.04573282944077193,"23":-0.07868652015945722,"24":0.03675455654717986,"25":0.15264186294328094,"26":0.14117763909930167,"27":0.06506996027281743,"28":0.11035810989706576,"29":-0.025368504782058324,"30":-0.035951291133420236,"31":0.18897356913872265,"32":0.03432012102662506,"33":-0.0014809447919071227,"34":-0.10578267760569063,"35":0.02062301749584929,"36":0.006231409863876962,"37":0.0618697590593663,"38":0.1617486804601032,"39":0.21928288301480173,"40":-0.03552228334490208,"41":0.06846580440961597,"42":0.03478735090479473,"43":0.02717127462485042,"44":-0.07801882643003145,"45":0.08310477716895939,"46":0.27599836563843233,"47":-0.0057225301885983106,"48":0.1914363689727196,"49":-0.13194134183996062,"50":-0.06236128085260938,"51":-0.004354849598695947,"52":-0.0190830867862585,"53":0.08107173531551795,"54":-0.161888076041792,"55":0.07309625430713025,"56":0.2219231584841988,"57":0.05516716624887772,"58":-0.004743943459491649}},{"sx":1,"sy":1,"depth":59,"w":{"0":-0.1004605992092329,"1":-0.07785914562278581,"2":-0.07507812139161556,"3":0.16757329382797959,"4":0.1685423022710904,"5":0.025787057188097692,"6":0.1833520832295922,"7":0.009206584942483314,"8":0.04367301474535126,"9":-0.035661215966303686,"10":0.03549071149550387,"11":-0.07698458923271789,"12":0.1818298500516908,"13":-0.09202477585898511,"14":0.026908916179753335,"15":-0.21463101245618454,"16":0.04551897880084953,"17":-0.057918936702286074,"18":0.04629362858120841,"19":0.007429261871670444,"20":-0.057991601960075675,"21":-0.19801881775661656,"22":0.1476206020779372,"23":0.17362468651798152,"24":-0.09856001117923514,"25":-0.14926242463210718,"26":-0.12112956930660751,"27":0.08406430911796238,"28":0.1925756575632837,"29":0.04693176224554765,"30":0.09762761818688204,"31":-0.22900128068362116,"32":-0.16847395785934124,"33":0.14051410029308586,"34":-0.03258184382214598,"35":-0.04559802734262075,"36":0.1285255309008509,"37":0.26166019687483344,"38":-0.0429455496686448,"39":0.11590195151218839,"40":0.015537620239541108,"41":0.06087548805197636,"42":0.1138704482932895,"43":-0.20411471767037023,"44":0.0656422247285294,"45":-0.016299762798223212,"46":0.14848019506658128,"47":0.07277381818697642,"48":0.05774763301042254,"49":-0.08378361283432181,"50":0.01517299567682836,"51":0.16085425363517694,"52":-0.08536271578799497,"53":-0.08927946254243564,"54":-0.05543640882471457,"55":0.14479652303873322,"56":-0.10352081332024995,"57":0.1532621391689314,"58":-0.054603426562299114}},{"sx":1,"sy":1,"depth":59,"w":{"0":-0.20101735972178303,"1":-0.046121202411251463,"2":-0.2031561991428913,"3":-0.114058188873516,"4":-0.07289130076965142,"5":-0.22237044011854282,"6":0.11116120254476006,"7":-0.14766885049798134,"8":0.011827837103796004,"9":0.11660073905145513,"10":0.0026036365038633567,"11":0.22359445839805922,"12":-0.10916880236718583,"13":-0.15532084062479273,"14":-0.020892765914623402,"15":0.07470127127119383,"16":-0.04731687885000045,"17":-0.036353117177692226,"18":0.199733279869471,"19":-0.07196156059841408,"20":-0.04569443050793916,"21":-0.0793609859335828,"22":0.16948850994952333,"23":-0.0760351781602509,"24":-0.019627711969758103,"25":0.07403030376864356,"26":-0.2752819754687224,"27":-0.1681303671074348,"28":0.07912532306029939,"29":-0.05447610318457492,"30":0.21398685705100787,"31":-0.06550618632045142,"32":-0.05804510312900163,"33":-0.10258572825716553,"34":0.06369166971332615,"35":0.2268322544810711,"36":-0.21285529899398314,"37":0.04719606075968718,"38":-0.11705410834183509,"39":0.011712646042001288,"40":-0.02596046870782341,"41":0.007252985006739196,"42":-0.007895170964385299,"43":-0.2918438322135789,"44":0.051924108393747274,"45":0.16183198453568373,"46":0.1544245170283956,"47":0.03570354978552785,"48":-0.0270781029266925,"49":0.1127077705070196,"50":-0.030198802195332077,"51":-0.12511342617201204,"52":0.026269690366100003,"53":-0.04395315373466861,"54":-0.2429261377366612,"55":-0.009273152286736155,"56":0.1632424669850222,"57":-0.1206142384115823,"58":-0.08454289521182705}},{"sx":1,"sy":1,"depth":59,"w":{"0":0.06273084218760058,"1":0.29016722048192545,"2":-0.07089856974559827,"3":0.1516836856510051,"4":-0.3788366717289859,"5":0.02352506151532277,"6":-0.22751499546385115,"7":-0.27259436771098455,"8":0.3103028470102122,"9":0.02097695918221406,"10":0.08188638230633043,"11":-0.13431419372465658,"12":-0.05855376510557413,"13":0.06868956625268854,"14":-0.02535869049741375,"15":0.19956443695483653,"16":0.024869978118476233,"17":0.003262519455076539,"18":-0.303531636944698,"19":-0.08794672688231081,"20":-0.11854971003634487,"21":0.03113708509338264,"22":-0.14393523703146008,"23":-0.10610652961702666,"24":-0.1995079477542069,"25":0.07194412784827588,"26":-0.2659677373603087,"27":-0.0030481135228144418,"28":-0.14358608605285234,"29":0.1666734156971713,"30":-0.10314343627904977,"31":-0.13591426898517625,"32":-0.13976139552633438,"33":-0.11042398824064159,"34":-0.06717348180731035,"35":0.11126780248579678,"36":0.014261755576762139,"37":0.10524362555120784,"38":-0.006338129691180484,"39":-0.12979680176288017,"40":0.15736783881770416,"41":-0.07558708907180521,"42":-0.18178632155925029,"43":0.12402019162569652,"44":-0.007648214927743677,"45":0.0294316248412189,"46":-0.14866697056000897,"47":0.04568686411284099,"48":-0.13329488360960448,"49":-0.013908835795846067,"50":-0.19230465816562575,"51":-0.08083737944952724,"52":-0.21146623682126567,"53":-0.11388576220625433,"54":-0.08523139944548955,"55":-0.002560102764665994,"56":-0.10932661455787825,"57":-0.015017249128514805,"58":0.12063828890807841}},{"sx":1,"sy":1,"depth":59,"w":{"0":-0.2030604218349764,"1":-0.28998380955002284,"2":-0.01949813602753658,"3":0.0961423602095807,"4":0.04125928557225909,"5":0.006182804894912251,"6":-0.017193698270808758,"7":0.09589563291036192,"8":0.047424859001551044,"9":0.05034720973873926,"10":-0.012143012606379079,"11":-0.0378541673212432,"12":0.03453372528467059,"13":-0.12760667252931032,"14":-0.06216974021652165,"15":0.15756257876368857,"16":0.1452376378877618,"17":-0.23039630016012144,"18":-0.052697546399564615,"19":0.08049476052601626,"20":-0.23972696625615816,"21":-0.2877472940111468,"22":0.0052330726734508125,"23":0.1484273280857664,"24":-0.04829635506416676,"25":-0.0004973904771314277,"26":-0.0660456850943758,"27":-0.016828279975604786,"28":0.18890972633821973,"29":0.27938532777854647,"30":-0.13152909822473996,"31":0.32988203528571425,"32":0.16401311342260866,"33":0.018898517269752876,"34":0.004260202946011936,"35":-0.06699327579984966,"36":0.10199825918133362,"37":0.10209624823293484,"38":0.006364490829728544,"39":0.12351171601608907,"40":0.13404414992898267,"41":0.0091567365482452,"42":0.12033962573116486,"43":0.08620162240402454,"44":0.21703039759089712,"45":0.09712840485424543,"46":0.09519288781743764,"47":0.10437624800399957,"48":0.03223997762674779,"49":-0.06520883567100459,"50":0.07930966998752237,"51":-0.0062420245360996765,"52":0.07015629945096141,"53":-0.34356461799639065,"54":-0.19197583079387195,"55":-0.14997381376360253,"56":0.18930538866243393,"57":-0.04797243146887326,"58":0.018508972113317486}},{"sx":1,"sy":1,"depth":59,"w":{"0":0.06693190151404221,"1":0.240065772470035,"2":-0.2065153716765649,"3":0.0073331705780750435,"4":-0.0349005724409673,"5":-0.05854150800271391,"6":0.12762386559752292,"7":-0.031014067881999504,"8":-0.015622544735581674,"9":0.06855539524451071,"10":-0.021152898140729195,"11":-0.015552626212319258,"12":0.14181630354208255,"13":-0.052749075949674346,"14":0.07520162320460225,"15":0.09904340385038055,"16":0.27974848046185313,"17":-0.08770762224400536,"18":0.11528663798393249,"19":0.16426767370337397,"20":0.028325278677916597,"21":0.01432597931721933,"22":-0.12239117755058083,"23":-0.05298973600314191,"24":-0.06736141913487417,"25":0.14574013100418975,"26":0.27694417621147954,"27":-0.15338441767039906,"28":-0.05066600628148536,"29":0.2253109122369031,"30":0.09196889969719227,"31":-0.15999331756548665,"32":-0.033882682810125034,"33":-0.02692705601193466,"34":-0.06953236659929099,"35":-0.11829801257514558,"36":-0.008818485530711156,"37":-0.09467175254635794,"38":0.03558269823456596,"39":-0.03987752287536662,"40":0.05782678431856553,"41":-0.09871413069529592,"42":-0.19380137757734514,"43":0.06585879819059647,"44":0.12343711830966866,"45":0.11023799530616755,"46":0.019094076448294438,"47":0.07400017792982647,"48":-0.38339830207318765,"49":-0.17262356053527297,"50":0.01460374265127102,"51":-0.1343616257310954,"52":-0.24163265686325766,"53":-0.07509718001541582,"54":-0.07602915333884404,"55":-0.048639205463622576,"56":-0.036092948379488496,"57":-0.12812567143652998,"58":-0.15331206499358796}},{"sx":1,"sy":1,"depth":59,"w":{"0":-0.11097044847986248,"1":0.12707514319605215,"2":-0.1507433585959956,"3":0.1751806708115514,"4":0.1331503158962833,"5":0.007080997999758467,"6":0.03694663998108843,"7":-0.1257775341649999,"8":0.00856091428808743,"9":-0.14587911815165464,"10":-0.07275249663497838,"11":0.11863740347606955,"12":-0.08596265119365304,"13":-0.045513580620304535,"14":-0.005526869905740813,"15":0.17094389619594527,"16":0.07465415782939616,"17":-0.10529387080154747,"18":-0.006487185503840935,"19":0.05604083872343202,"20":-0.39846300853167005,"21":0.4355376275898513,"22":0.08764471005404774,"23":0.09664096358481254,"24":0.04256161048312383,"25":-0.2394050164081266,"26":-0.0539564485505508,"27":-0.020863478193070478,"28":-0.07415248061357785,"29":0.2671530204949853,"30":-0.07458914743220951,"31":0.10893876485801823,"32":-0.008733837288287619,"33":-0.024752733595540612,"34":-0.06964841995690317,"35":0.12639659534572678,"36":0.16985142639448197,"37":-0.06951769665541645,"38":-0.05100077172982096,"39":0.16512201588353423,"40":0.17565990742734325,"41":0.041359367237843066,"42":0.06677630565394002,"43":-0.1122980636080879,"44":0.2152644612707468,"45":0.17858897608587576,"46":-0.04077538558133544,"47":-0.03604965519415148,"48":0.05582871057782155,"49":-0.037901263380583444,"50":0.04940528906114642,"51":-0.05160375427042327,"52":-0.10013230129803975,"53":-0.0726366342584565,"54":-0.04095194246292917,"55":-0.2310214294892161,"56":-0.04837414526728091,"57":0.11396520132736522,"58":0.09787179424983657}},{"sx":1,"sy":1,"depth":59,"w":{"0":0.17558607410492016,"1":0.033992121417305045,"2":-0.06337362020905696,"3":0.005299347231614198,"4":0.03988404486834224,"5":0.17979828553318342,"6":-0.07905252599656659,"7":0.1252742457050759,"8":0.19729650555443903,"9":-0.2386252764859635,"10":-0.32272174034099643,"11":-0.013312932433679071,"12":-0.18304231627617387,"13":-0.07871655267090219,"14":-0.11859520056500383,"15":0.16533923796655625,"16":-0.0196827290155086,"17":-0.1347809946958042,"18":-0.11482329500740215,"19":-0.04949723489858993,"20":-0.037752937205430166,"21":-0.06015274946266739,"22":0.13356027690328892,"23":-0.12367383427199642,"24":0.031958169651059014,"25":0.20287396273912617,"26":-0.04705287337164685,"27":-0.15279275954014035,"28":-0.019641455621162544,"29":0.007733125955673357,"30":0.10181226659676532,"31":-0.15350114410322052,"32":0.11121821435632136,"33":-0.06449095920995972,"34":0.3093730715006955,"35":-0.010699681924274153,"36":0.21984727363615977,"37":-0.28830352706183016,"38":-0.21799654902826182,"39":-0.026504948622935523,"40":-0.09510574687014166,"41":0.013118372346421917,"42":0.1365472577421355,"43":-0.2902955610066163,"44":-0.006435716507171457,"45":-0.08021426369949353,"46":-0.052313183123946366,"47":-0.03741497214270587,"48":-0.118001816304377,"49":0.09010125495240244,"50":-0.1089255815085438,"51":-0.0753480115715741,"52":-0.06666298966418498,"53":0.010972925147579898,"54":0.058618131019651035,"55":-0.039858245017073614,"56":-0.1535793957592964,"57":-0.006138823304449564,"58":0.11381394241473668}},{"sx":1,"sy":1,"depth":59,"w":{"0":0.1939536178645024,"1":-0.01061844618803887,"2":0.11074720149894657,"3":0.01574210842619029,"4":-0.004465454390458133,"5":0.13095417542407478,"6":-0.0695775138348549,"7":0.12440901231096714,"8":-0.21730767971736153,"9":0.08499770754217063,"10":0.07214302854714137,"11":-0.06795491520619905,"12":0.014539288730711907,"13":-0.16558956942622766,"14":0.05440863243266078,"15":0.08551757086093983,"16":0.07207866810833306,"17":-0.12824104951724188,"18":0.12185623990565939,"19":0.017666950873137473,"20":-0.0731972504237313,"21":0.0920833353275457,"22":0.09105727698784706,"23":0.10805681450883453,"24":-0.2706063260149432,"25":0.046311909056514194,"26":0.09896841596180737,"27":0.1989445860589632,"28":-0.3865045717135803,"29":-0.09285854964288795,"30":0.04749236648336744,"31":0.05179883384052514,"32":-0.055556885735369335,"33":-0.09649909966649708,"34":-0.08616014331307739,"35":0.18771751139106246,"36":-0.033798861535219465,"37":0.02464241125452019,"38":0.09926883065372773,"39":0.026491915965619527,"40":-0.0818124350786815,"41":0.04321539989483684,"42":0.090100806128376,"43":-0.10049127940627005,"44":-0.09152593822889854,"45":0.019261210905778724,"46":0.32649497110137476,"47":-0.06798593961816714,"48":-0.01037349527977355,"49":0.0036046055878051274,"50":-0.11671239571488778,"51":-0.05132543676213859,"52":0.13378475582779906,"53":0.08445134654656035,"54":-0.13529547246928475,"55":-0.25979220251092244,"56":0.003989471259465878,"57":0.02403725006941779,"58":-0.04330610183592942}},{"sx":1,"sy":1,"depth":59,"w":{"0":0.1619127593901989,"1":-0.09484885490886634,"2":0.15290288289819198,"3":-0.10524990750219362,"4":0.013810340845690989,"5":-0.0774369867960113,"6":-0.17823788636989663,"7":-0.0009836202975126009,"8":-0.16892435407400788,"9":0.05468855450458747,"10":-0.04304581051580691,"11":-0.09242432556318317,"12":-0.09064891580994704,"13":0.12580570192092114,"14":-0.02115484483350646,"15":0.11774659323755313,"16":-0.09725810477490812,"17":-0.12748708525395125,"18":0.21549331734426247,"19":-0.2782014841757839,"20":-0.09400860032427232,"21":0.2396814414133254,"22":0.11917859344910546,"23":-0.05142942212922918,"24":0.15889241821188385,"25":-0.1692415283731508,"26":0.02697786454681484,"27":0.0037144561512429384,"28":-0.06680496348639361,"29":-0.04193740580745392,"30":0.07939128415073428,"31":-0.061033014473431894,"32":0.20498726188091126,"33":-0.2880886779290363,"34":-0.18934227049480934,"35":-0.21846347954974343,"36":0.08539987205056675,"37":0.04757805767340015,"38":0.08735377493354365,"39":0.02744297399510336,"40":-0.07462337488649229,"41":-0.033946456329799216,"42":-0.0901881764077952,"43":-0.03573089032265177,"44":-0.08987562488912705,"45":0.06560059560478358,"46":-0.027611375386357148,"47":0.07549840444784127,"48":-0.06301210324803876,"49":-0.23025439997931954,"50":0.02091931044431827,"51":-0.0012891037537858458,"52":0.05404272050782228,"53":-0.047591079559789175,"54":0.08848732066803415,"55":0.010584184600242501,"56":0.157522916487065,"57":-0.22762578050872945,"58":0.008053656578478305}},{"sx":1,"sy":1,"depth":59,"w":{"0":0.20401433827304782,"1":-0.2903420374429887,"2":0.20291460303548134,"3":0.0332624678031581,"4":-0.1212786800745959,"5":0.07782072077299021,"6":0.06444340237806694,"7":0.1900456285979616,"8":0.1400096225139386,"9":0.23468441256489236,"10":-0.09579982334871279,"11":-0.17323424223436415,"12":-0.1662582560504041,"13":-0.019061816726490044,"14":0.0770809818409069,"15":0.012773379934582557,"16":-0.025995660815798353,"17":-0.059985817953527865,"18":0.12478851398375174,"19":-0.21520333848864953,"20":0.17308249356777908,"21":0.06991979176303258,"22":-0.08772618237171499,"23":-0.2145846160916046,"24":0.24487605564107348,"25":0.06549625911323079,"26":-0.03690379474712521,"27":0.01284753540895867,"28":-0.13372259263554176,"29":0.027543003254064894,"30":0.0158349660353207,"31":0.2613250299279167,"32":-0.21270163269555964,"33":0.010831060450199024,"34":0.15349720300589967,"35":-0.030233546720996186,"36":0.15971762453711902,"37":-0.039650871307080914,"38":-0.16234244500053327,"39":-0.20611524917380744,"40":-0.01442284813324999,"41":-0.13783703230036337,"42":-0.12802508941324134,"43":-0.031145903952609466,"44":-0.26366167919335626,"45":0.08310025635207523,"46":-0.06837177798230891,"47":0.011352703971602951,"48":-0.06893160329544754,"49":0.06526030348818096,"50":0.02510412001004993,"51":0.040396450100235785,"52":-0.25140754403313836,"53":-0.01105469646688613,"54":0.1431624500952285,"55":0.15155786237845154,"56":-0.07858791781281597,"57":-0.32522061957537607,"58":-0.11699208462273496}},{"sx":1,"sy":1,"depth":59,"w":{"0":-0.1837217658824083,"1":0.10323356925115287,"2":-0.07261305198883004,"3":0.24649903841404858,"4":-0.07837397577074943,"5":0.049252009923794436,"6":0.11090873394170753,"7":0.019315409029013547,"8":0.06909710537226568,"9":0.05758857759048411,"10":-0.15910309791864466,"11":0.10748511297694802,"12":-0.12986084821525345,"13":-0.11979756387739499,"14":-0.052493198486454125,"15":0.013143366925687395,"16":-0.13130107962323515,"17":-0.04263035363978376,"18":-0.01841191877498533,"19":0.031778841204788945,"20":-0.18458235760570582,"21":-0.21341994167521383,"22":0.12347246381012,"23":0.10608071981916567,"24":-0.08434726814412262,"25":-0.0942231135109058,"26":-0.03824658356667368,"27":0.0867777290197108,"28":-0.2666862581027593,"29":-0.18153887119555417,"30":0.11882123952140207,"31":0.006626345782532956,"32":0.034095452839100995,"33":-0.015162268476805501,"34":-0.17293912357834781,"35":0.006711998559408867,"36":0.07807594971274223,"37":0.1687067222710809,"38":0.02377563712606873,"39":0.17424401172447318,"40":-0.05612330384330809,"41":0.145564280202506,"42":-0.028691657815097388,"43":-0.07991801539049946,"44":-0.11028258909221601,"45":0.12264564048666106,"46":-0.18318243022181935,"47":0.19631639076706842,"48":0.1302433739204313,"49":-0.06737178786126889,"50":-0.060289523138364144,"51":-0.047697803567414356,"52":-0.14473490972707473,"53":0.1391209194880905,"54":-0.08858203169118856,"55":0.07906908584687361,"56":0.06320382814151712,"57":-0.0788599461880754,"58":-0.05520226472901439}},{"sx":1,"sy":1,"depth":59,"w":{"0":-0.10342920509692544,"1":0.07481260585863031,"2":-0.07442938704347792,"3":-0.27281796732435937,"4":0.14537236862938602,"5":-0.32322707242193377,"6":-0.0663635522843029,"7":0.09735543950691525,"8":0.10055740134190805,"9":-0.12705705380957322,"10":-0.14922189771640126,"11":-0.09942940293466024,"12":-0.01948338303199341,"13":-0.09581035592305286,"14":-0.30268521294052997,"15":0.12537891470567453,"16":0.08653815832033014,"17":-0.020552025597941313,"18":0.01838461299901983,"19":-0.09336944070335043,"20":0.031964791500975635,"21":0.15855613820494086,"22":-0.044285893019558785,"23":-0.02424653991459806,"24":-0.02269197087282911,"25":-0.0696895193697184,"26":-0.003902044920857449,"27":0.22831909534852465,"28":-0.11478712851792978,"29":0.15011944719007228,"30":-0.03421972823753074,"31":-0.047008173033512804,"32":-0.20506156158270195,"33":-0.24681286481402676,"34":0.17617274449325004,"35":-0.04740877384341446,"36":-0.11033493733337295,"37":-0.12922757726343762,"38":0.04579276632686364,"39":-0.0048935418301013795,"40":0.053858211522935635,"41":0.13085473084683694,"42":-0.05149920832323158,"43":0.13742086648082122,"44":-0.3105951792064228,"45":0.23535343509975068,"46":0.11522439979828801,"47":-0.07665851171163092,"48":-0.15247800402330422,"49":-0.03736804278449008,"50":0.09401324320054624,"51":-0.1382169815280888,"52":0.11853217403888074,"53":0.02024790234029539,"54":-0.016324192838675006,"55":-0.15329757291603138,"56":0.09476641271918834,"57":-0.07184292494625673,"58":0.013186270729945906}},{"sx":1,"sy":1,"depth":59,"w":{"0":-0.03993717059531802,"1":0.00029868354984849085,"2":0.06357548715351553,"3":-0.12016260610499156,"4":0.05616890422746957,"5":0.062225621322042,"6":0.03906872517272262,"7":-0.04442763176134876,"8":0.28489953384654376,"9":-0.057377603165506684,"10":-0.19826827940664812,"11":0.2701006205866098,"12":-0.105883301923616,"13":-0.028584288716269876,"14":-0.14913450388068844,"15":0.06103431619356708,"16":0.1461163349424814,"17":-0.1670597102780783,"18":0.10123088194644164,"19":0.03562046058030751,"20":0.019115737830700027,"21":-0.1380577626103047,"22":0.06891246261103767,"23":0.12361110683126196,"24":-0.2582785465886954,"25":0.06929585969629237,"26":0.14743102520764056,"27":0.05513712303633615,"28":-0.2297307009765027,"29":0.047330183493397994,"30":-0.03768222489570109,"31":0.08876594398592356,"32":0.014865261033562416,"33":0.07922151045065216,"34":-0.033075414701440715,"35":-0.007065581672349254,"36":0.09939754757108432,"37":-0.019776578129395764,"38":0.05268514154327753,"39":-0.05657679240948512,"40":-0.06370051856979474,"41":0.14730977894058775,"42":-0.2000079616496677,"43":-0.10155603470672528,"44":-0.32331382001449044,"45":-0.19398067262531285,"46":-0.05419117818193947,"47":0.04859778463241135,"48":0.06308126324121555,"49":-0.1316631484314292,"50":-0.007260007672996293,"51":0.02322324192236013,"52":0.11297933350879712,"53":0.18540834766662714,"54":-0.18655872619474473,"55":0.10364205986402462,"56":-0.03989599537629222,"57":-0.032156221230965176,"58":-0.03192660824790489}},{"sx":1,"sy":1,"depth":59,"w":{"0":0.06835780139200313,"1":-0.08624644122268021,"2":-0.12040349838777152,"3":0.17625528864747847,"4":0.1185931202306519,"5":0.13091820536464438,"6":0.03764905800838257,"7":-0.07537996685374097,"8":0.06669728578419569,"9":-0.0456288354288571,"10":-0.214282597471195,"11":0.14934030506825655,"12":-0.0974269460902138,"13":-0.045894033832277185,"14":-0.03341995403689468,"15":0.18686048189853896,"16":-0.020868584057983735,"17":0.05463137663981897,"18":-0.21350695252989377,"19":-0.09730440702042624,"20":0.1037393156802191,"21":0.1217493525320084,"22":-0.22545187527895194,"23":-0.03776815759688704,"24":-0.2966982820979768,"25":0.09465522220278653,"26":-0.0453990362697288,"27":0.10479749119137166,"28":0.10428369708664559,"29":0.1889932273330837,"30":0.08230332138893647,"31":0.1513308674452512,"32":-0.06545114173151194,"33":0.0018181291473566617,"34":-0.2549511030454876,"35":0.15767248108391793,"36":0.027759467155876592,"37":0.24523589143696503,"38":0.09377683389194912,"39":0.11495498919042027,"40":0.06186868177282484,"41":-0.055779045235754984,"42":-0.11833695431423243,"43":-0.12073642841199697,"44":-0.03126512163849309,"45":0.09518920892532619,"46":0.15668282188077695,"47":0.030053969335464233,"48":-0.010448567112255563,"49":-0.1454762345281948,"50":-0.2782007109090292,"51":-0.1257542311460018,"52":0.03851669627020999,"53":0.04222981336668877,"54":-0.04456755078123541,"55":-0.1524943239664062,"56":-0.00783131098186661,"57":0.08298394674246698,"58":0.028009989929249343}},{"sx":1,"sy":1,"depth":59,"w":{"0":0.02659660523187323,"1":0.036613357336117584,"2":0.025855558485931036,"3":0.07646486337007674,"4":-0.09029473438854507,"5":-0.11672660816463844,"6":0.09579750298073872,"7":0.0715045549099114,"8":0.048283095358298285,"9":0.0321290222572799,"10":0.16055417685454232,"11":-0.10415858428081341,"12":0.2400103377236364,"13":-0.08282780375487646,"14":0.06933353292930117,"15":-0.08184448919714679,"16":0.15406361259305199,"17":-0.05050827037151407,"18":0.12810948860847837,"19":0.06108268349687933,"20":-0.058489926472941656,"21":-0.3071071843167305,"22":0.0024241425144243306,"23":-0.07544366803661857,"24":-0.05841350556540146,"25":0.12398975203299589,"26":-0.09120707199643163,"27":0.12956950848905205,"28":-0.0433215938073937,"29":-0.038690460716336035,"30":0.10016939979106582,"31":-0.09155353574017906,"32":0.07119685103809538,"33":0.1116170944839736,"34":0.0673922155357593,"35":0.15300996024684688,"36":0.24199405945206579,"37":0.10149687450891558,"38":0.07101155045366306,"39":-0.3120387389605036,"40":0.06787369343584253,"41":0.195880439933409,"42":0.139304010276141,"43":0.08132256517187766,"44":-0.25767015625633977,"45":0.16172363999928618,"46":-0.09585944934973645,"47":0.1062117984261094,"48":0.10749913796685395,"49":0.15775705888319136,"50":-0.0425552533025764,"51":0.08327550082669133,"52":-0.06658308360784228,"53":0.1920287172633923,"54":-0.13870824381086072,"55":0.07016347840063941,"56":-0.13781990254035442,"57":-0.013771634481756256,"58":0.14261408918120963}},{"sx":1,"sy":1,"depth":59,"w":{"0":0.0022783845580037557,"1":-0.08550602224917474,"2":-0.07759567949454116,"3":-0.16163379749195106,"4":0.2545538913892659,"5":0.07430080489093618,"6":0.21253452659695662,"7":-0.05346932071834406,"8":0.27160609111354916,"9":-0.17644662686126855,"10":0.14973949984405419,"11":-0.05810505973653687,"12":-0.15436666023479514,"13":-0.2285165636153828,"14":0.07658200015154505,"15":-0.03760026309020817,"16":0.11498625138306295,"17":0.16268721671456748,"18":0.11345468463099245,"19":-0.11062270727905378,"20":-0.040505555435064226,"21":-0.0531158277597916,"22":-0.12137714031370561,"23":-0.11511980988443483,"24":0.19788077862952128,"25":-0.06989638293431673,"26":0.09390557472374748,"27":0.3557448175460019,"28":0.05685826903354251,"29":-0.022379598801682863,"30":-0.19014880489065875,"31":-0.04514149122647145,"32":-0.09051757204268163,"33":-0.06460998524123417,"34":-0.04923808052925806,"35":0.16459033612744287,"36":0.092341981014217,"37":-0.047657514345385794,"38":-0.05892107871333932,"39":0.07340854042823813,"40":0.06864792637611913,"41":-0.014369720416333328,"42":-0.08066521104256573,"43":-0.17285646540601718,"44":0.007814348471503333,"45":0.09683218312944475,"46":-0.02320327327524072,"47":-0.020959050332146224,"48":0.11622308949676195,"49":-0.22153430140606997,"50":0.12157303244718798,"51":0.2738162248813906,"52":0.028067327556845934,"53":0.021443429656044104,"54":-0.13664301420861857,"55":0.15913194740841813,"56":-0.07296923866193152,"57":-0.32511039360221866,"58":-0.12400029526612721}},{"sx":1,"sy":1,"depth":59,"w":{"0":0.09641581931520016,"1":-0.07972697480498392,"2":0.13769859413650426,"3":-0.15250942346560942,"4":0.10280578114754825,"5":-0.0764359143370148,"6":0.1586937573480414,"7":0.021559282747057984,"8":0.11590901761982954,"9":0.11523045623135461,"10":0.17647615765295024,"11":-0.04371752676816591,"12":0.07733488538799865,"13":0.08434547167690702,"14":0.0231423659844603,"15":0.3043821346809356,"16":-0.14992933336726436,"17":0.021680993574905466,"18":0.30056390629678575,"19":0.030291833372441502,"20":0.0023557201876954607,"21":0.1930688079199127,"22":0.01930573341985039,"23":-0.14985549215438554,"24":0.1908507196754144,"25":-0.06019799790420262,"26":0.1867652608812843,"27":-0.08340255137856759,"28":0.17960595374937527,"29":-0.07293936721932394,"30":0.18036596583358408,"31":-0.10136810283709091,"32":0.10026253881276315,"33":0.0433797241852507,"34":0.19816295977042056,"35":-0.043164249160126844,"36":0.08774710537338812,"37":-0.018944673188295583,"38":-0.05309835245555107,"39":-0.009331057702618599,"40":-0.09211897862118468,"41":-0.07615128615777707,"42":0.1510562971603313,"43":0.012196605852815538,"44":-0.052333736787261255,"45":0.12862185643126603,"46":-0.09873954539383456,"47":-0.13979536621198907,"48":0.2308030458467153,"49":-0.08234862538237987,"50":-0.18073603757205883,"51":-0.04038175089111027,"52":0.052877556150669185,"53":-0.1849406193311079,"54":0.03891023135809458,"55":0.15963095908277602,"56":0.17234858609187323,"57":-0.07487764721768984,"58":0.12033960063662516}},{"sx":1,"sy":1,"depth":59,"w":{"0":0.10156728713402341,"1":-0.005254852307736092,"2":0.08702666905805809,"3":0.10157169023639295,"4":-0.1699689216593415,"5":0.0717102567312338,"6":-0.005442404214381653,"7":0.05648051603533654,"8":-0.031624445691919856,"9":-0.00807384912109367,"10":-0.01769395033401142,"11":0.16639638134189821,"12":0.02038776288282424,"13":-0.2540101551104981,"14":-0.07435215375786144,"15":-0.21919192512511002,"16":0.049856891525615066,"17":-0.008677873643154749,"18":0.14113317898921907,"19":0.34333579656505614,"20":0.008339573827776628,"21":0.15242723509585815,"22":0.0036046015420803344,"23":-0.007983640904962421,"24":0.09084502658501274,"25":0.025137469440726253,"26":-0.15658299291353162,"27":0.10662120279011733,"28":-0.026884507425037212,"29":0.1945141290066617,"30":0.04211208542448634,"31":-0.0012428243979821238,"32":0.2373642473481749,"33":0.04493905661732469,"34":0.12332332824593706,"35":0.020471347268674202,"36":0.009773226052357484,"37":-0.19621602293323553,"38":0.058171765056337234,"39":-0.08526374033091967,"40":0.05901100658828093,"41":0.017771221349968905,"42":-0.13514609561521151,"43":-0.042305599259428416,"44":0.06257055978718205,"45":0.13213796260007812,"46":-0.19798300488014028,"47":0.08042900332074719,"48":0.16827225456771677,"49":0.02925776956225636,"50":0.0031705639828370842,"51":-0.15408657362683428,"52":0.04149204469269318,"53":-0.18919414759252387,"54":-0.0437038090836526,"55":-0.0703386776258034,"56":-0.011303416947361566,"57":-0.09397893924439044,"58":-0.010933765088552592}},{"sx":1,"sy":1,"depth":59,"w":{"0":0.01455224503116508,"1":-0.0855585610186754,"2":-0.04226101443179715,"3":0.18926510333002167,"4":-0.08546177169481323,"5":-0.06463845514887667,"6":0.12017387284398767,"7":0.17495978927197245,"8":-0.01666898470419299,"9":-0.06783046193432138,"10":-0.02732394627075533,"11":-0.10394044369591224,"12":0.007173207762973833,"13":-0.12070071900842924,"14":-0.080242789829362,"15":0.32904533851634166,"16":-0.07125913394324368,"17":-0.10931565526191415,"18":-0.03650996955529133,"19":0.22648998459721495,"20":-0.03473900600705128,"21":0.080414131009554,"22":0.004243162445210571,"23":0.189641071044693,"24":0.02500770305717909,"25":-0.04545162488789912,"26":0.11916897589408808,"27":-0.05145581955983306,"28":0.0552739663478857,"29":0.06965036920566287,"30":-0.02661451648889601,"31":0.010548267678294889,"32":-0.19245052731477363,"33":0.013833873830933291,"34":0.02467295808136055,"35":-0.08704200365221677,"36":-0.09013427435038733,"37":-0.09624944602867293,"38":-0.1073656816443037,"39":-0.21137694415641656,"40":-0.15700578681153946,"41":-0.2530203381088037,"42":-0.028408228477497476,"43":-0.0033218412774251283,"44":-0.14207855520561338,"45":0.14340091895072368,"46":0.13951773710194906,"47":0.02284212340186122,"48":-0.029807353966738535,"49":-0.09286041167844324,"50":-0.07400186097581307,"51":-0.2730094496077585,"52":-0.09547619605312962,"53":0.23415421122059357,"54":-0.05137031154165018,"55":-0.2348822185355877,"56":0.06647764778354705,"57":-0.07022686666326,"58":-0.12833565707664038}},{"sx":1,"sy":1,"depth":59,"w":{"0":-0.18529689341677,"1":-0.12421730706216011,"2":-0.0457495375761712,"3":-0.16002465798846152,"4":-0.08247059639847097,"5":-0.08205857364960685,"6":0.18822049173815272,"7":-0.1586869585778523,"8":0.07766905444026974,"9":0.031076497302581368,"10":0.05395553474197269,"11":0.11585379153592279,"12":-0.06629603254609283,"13":-0.00007218079289787109,"14":0.08780427381719302,"15":-0.03287541841305066,"16":0.07577433667465068,"17":0.1831906200356106,"18":0.0928023553749205,"19":-0.1935900121969673,"20":-0.007862777219090199,"21":0.12333493313305997,"22":0.14764904644432894,"23":-0.10246398712160618,"24":-0.1583013134887154,"25":-0.08009640871735578,"26":0.0301255350628984,"27":0.2887156640072848,"28":-0.13958966768887185,"29":0.24961179209376827,"30":0.1507169308425766,"31":0.02148264060635131,"32":-0.14519910740604489,"33":0.00483507443714995,"34":-0.009947621840490192,"35":-0.05206416017429665,"36":0.0298550157783816,"37":-0.21682095212208027,"38":-0.0401054554222527,"39":-0.14695241597744346,"40":0.09351369350649956,"41":-0.08233758715295914,"42":0.06077297213078881,"43":-0.12506578153388728,"44":0.07227719288286835,"45":-0.07944800835739828,"46":-0.13721160793000806,"47":-0.05783194525560186,"48":-0.10457625634767835,"49":-0.012667487633696831,"50":0.02837534578044911,"51":0.2132604402025466,"52":-0.05751164533337503,"53":-0.08422599285572943,"54":-0.016901278660207946,"55":0.0006314168331010381,"56":0.27668956112544935,"57":0.01993229031756494,"58":-0.0448385452155586}},{"sx":1,"sy":1,"depth":59,"w":{"0":-0.10134289076432415,"1":0.04360542262182309,"2":0.037533768462173864,"3":-0.009526014436804392,"4":0.03491479020944518,"5":0.24006021175327127,"6":-0.0963007238837271,"7":-0.12446793155766489,"8":0.06950009573830145,"9":0.08430378393472827,"10":0.0664847586044721,"11":0.05348113052393161,"12":-0.18712138136933745,"13":-0.10961700317890918,"14":0.14911678746119209,"15":-0.05051177619769289,"16":0.12687333879014298,"17":0.1548897586916648,"18":-0.262139754693982,"19":-0.03680040754567693,"20":-0.07238966557943724,"21":-0.0137126520924325,"22":-0.039214737474176475,"23":-0.035019386146794534,"24":-0.050621590324321765,"25":-0.07908933232606626,"26":-0.0077892126383065355,"27":0.02624392018384028,"28":-0.14908270789716727,"29":0.13595857082825138,"30":-0.08682891816182126,"31":0.16592441677734404,"32":-0.2635209939370561,"33":0.03950946741406653,"34":0.09466344300359611,"35":-0.1075648823769359,"36":-0.010110891550931844,"37":-0.05832166455399683,"38":0.09870909657078807,"39":0.01742136538358183,"40":-0.11376068620510461,"41":0.23803154575016866,"42":0.06306876290972283,"43":0.11448861277758257,"44":-0.10360349733539388,"45":-0.1816073826402489,"46":-0.014713555416070763,"47":0.1331480790818533,"48":-0.07991726450232602,"49":0.3082068991069686,"50":0.029641552493536838,"51":-0.06441607856156925,"52":0.1892862806896057,"53":0.1574556015152809,"54":-0.14783175725072126,"55":-0.1541421993028252,"56":-0.07943506481481268,"57":0.017190421974505155,"58":0.06275623339039921}},{"sx":1,"sy":1,"depth":59,"w":{"0":0.18878935112757017,"1":0.26125258892936026,"2":-0.05021902215076782,"3":0.0628742781087638,"4":0.12490912055032252,"5":-0.26685831839188195,"6":-0.022897933353715916,"7":0.021989106126018662,"8":-0.2429257924285969,"9":0.14230673348964362,"10":-0.09541188291483117,"11":0.10657238067641774,"12":-0.06890251203485347,"13":0.34273277087889187,"14":-0.08263404381460633,"15":-0.020428874244859806,"16":0.033207750990249765,"17":-0.2163327780104873,"18":-0.11272823602698044,"19":0.23395471392948988,"20":-0.01789090356485527,"21":-0.022508882417536503,"22":0.10464514282234331,"23":0.07776915967921394,"24":-0.1566236477086034,"25":0.2270692076700667,"26":-0.12444694963026876,"27":0.015969888920567648,"28":-0.1311344146494447,"29":-0.19324689909952814,"30":0.03742540208748252,"31":-0.15815390272137056,"32":-0.02827695740240334,"33":0.12041702423060066,"34":-0.011501298035540815,"35":0.052152577072398516,"36":-0.04367530592758616,"37":-0.010835564381278601,"38":0.05055355897532094,"39":-0.07461790183407,"40":0.17256676915670704,"41":0.09314877845272812,"42":-0.005063955681290962,"43":-0.19800657829439758,"44":0.1540191679543111,"45":-0.020466401484438557,"46":-0.10724984303445015,"47":0.11980078186521172,"48":-0.183594805466778,"49":0.22255944398895403,"50":0.014088545846640897,"51":0.03163460909675081,"52":0.38447838639002424,"53":-0.0007584446895794576,"54":-0.03492761923737372,"55":-0.051287787683716765,"56":-0.19876312738836285,"57":0.043567564898126236,"58":-0.14969588455053895}},{"sx":1,"sy":1,"depth":59,"w":{"0":-0.22510918190115053,"1":-0.059154113007891695,"2":-0.014982613254533227,"3":0.08398244753151914,"4":0.17987266697735418,"5":-0.08362477800411726,"6":0.07920062778499905,"7":-0.08085300950611365,"8":0.13037015278058378,"9":0.011739843700185385,"10":-0.33607334807250716,"11":-0.17697982273612675,"12":0.1384604105854926,"13":0.015885524845587227,"14":0.2143641636947223,"15":-0.10174308794482648,"16":-0.006138156174468761,"17":0.07231434431490333,"18":-0.006787780844223523,"19":-0.03209400342764265,"20":-0.01974821386517033,"21":0.23255610279014005,"22":-0.03408160328834634,"23":0.11361825319022348,"24":-0.08653533594379677,"25":-0.031597781558738734,"26":0.10446195315818708,"27":-0.16166599820362731,"28":0.00567028505833209,"29":0.0012511913553946252,"30":0.3658341272920538,"31":0.03337512264015796,"32":0.23458093582809383,"33":0.04133699381668363,"34":0.13347919431261085,"35":-0.06107128141166937,"36":-0.04688169575779853,"37":0.12195632066112322,"38":0.12186966859805665,"39":-0.059388111791265547,"40":-0.05715589158014917,"41":0.004357359478219295,"42":0.1653026479533226,"43":-0.15966232884997278,"44":-0.22470046353865158,"45":0.13481763232613952,"46":-0.13369620934777787,"47":0.04973537874379053,"48":-0.12001322221356651,"49":0.041661912734202305,"50":0.020486514646707785,"51":0.02239738528019519,"52":0.014545422452314048,"53":-0.0564635116191872,"54":0.08167800825665475,"55":0.0018803746359457737,"56":-0.08004855280419307,"57":-0.019329071711550135,"58":-0.15497408890960712}},{"sx":1,"sy":1,"depth":59,"w":{"0":-0.005716785116018083,"1":0.1378825221831514,"2":0.02847537016712008,"3":-0.18393434214714277,"4":0.05887439615033426,"5":-0.1406132571514703,"6":-0.17514862710241713,"7":0.18186218449873615,"8":-0.18526498201718847,"9":-0.14277587728700447,"10":0.20615347446623838,"11":0.06916871663016212,"12":0.12307382589282034,"13":-0.03896012073281844,"14":0.01240245511225159,"15":-0.024635488705472147,"16":0.1257740273592465,"17":-0.07096686103240836,"18":-0.060931972690329184,"19":0.03379557298973612,"20":-0.018104432713667906,"21":0.003639951827643553,"22":-0.04605283723618295,"23":0.09654738933127707,"24":0.03740082507479476,"25":-0.017042609650615822,"26":-0.19282590262817606,"27":0.08292440617909688,"28":0.24425832785893775,"29":-0.15240762727009127,"30":0.16030479916310303,"31":0.0215727065982362,"32":0.08476329376741401,"33":-0.11221985042395598,"34":-0.060259053039413896,"35":0.15035312853588115,"36":0.357017325316657,"37":-0.09375063566715121,"38":0.014438053629742369,"39":0.09502529008563464,"40":-0.08509111738602033,"41":-0.10946334439759185,"42":-0.04299732687661684,"43":-0.08926372665206672,"44":0.25688269008229186,"45":0.036031815140931976,"46":-0.33844730705927756,"47":0.13534215242279898,"48":-0.09433087362783935,"49":0.10369533409368256,"50":-0.05311945678301601,"51":-0.22586672997615515,"52":0.2082577306025267,"53":0.23131524101845108,"54":-0.06776364045075736,"55":0.06938372435911284,"56":0.06560499346827006,"57":0.05877333568677826,"58":-0.3030841313043265}},{"sx":1,"sy":1,"depth":59,"w":{"0":0.04914502487611659,"1":-0.003870326299831553,"2":0.007677853818018143,"3":-0.15227500098599517,"4":0.0834518855520755,"5":-0.05650630336394797,"6":-0.09151496921784241,"7":-0.012485312254066886,"8":0.06062428710732553,"9":-0.007119768937218276,"10":-0.04740981582371072,"11":-0.08137119494131415,"12":0.02996816827063325,"13":0.0899020252795715,"14":-0.06624971040579547,"15":-0.15907319279170082,"16":-0.12933666642551273,"17":-0.10555523217959045,"18":-0.03701402163939985,"19":0.0233412986757509,"20":0.003278427716523362,"21":-0.06549537911125558,"22":-0.0000416083180554192,"23":-0.2775158521644438,"24":-0.037721869039847616,"25":-0.10885286449797574,"26":-0.14906401354720494,"27":-0.2659108850147208,"28":0.09526004826554389,"29":-0.06883517442243199,"30":0.1947249168756642,"31":-0.06536083687078026,"32":-0.1456578288773038,"33":-0.042481105902072526,"34":-0.1334262162270784,"35":0.014838051330210222,"36":0.10698401693974059,"37":0.05472607226645132,"38":-0.1753188558199747,"39":-0.028990920977448747,"40":0.11091787495392849,"41":0.19163086881538974,"42":-0.16555194764453338,"43":0.10755686465539901,"44":-0.033078459573551905,"45":-0.1057033687807176,"46":-0.07944158227785991,"47":-0.06930594616061397,"48":-0.1645811796151901,"49":0.07498936560210766,"50":0.04811029200462489,"51":0.021487820975519455,"52":0.12178174723956965,"53":0.029679635432571603,"54":-0.2332308193256851,"55":0.06184425684789683,"56":0.12807401166492097,"57":0.06586652090126983,"58":-0.1680929581978267}},{"sx":1,"sy":1,"depth":59,"w":{"0":0.010240671523314822,"1":0.18917684871053103,"2":0.07066849957607356,"3":0.043906857682524135,"4":-0.17493044555026038,"5":0.2353624333525191,"6":0.047499129175367354,"7":-0.059690112031081814,"8":-0.019710881175475137,"9":-0.0879335165684575,"10":0.20005379701015563,"11":-0.08721077663480242,"12":0.04606186875901432,"13":0.16383055378439,"14":0.04674071187304893,"15":0.08845482851820793,"16":-0.11188670643191582,"17":-0.043080618267971466,"18":-0.14895800443882576,"19":0.010259386568957505,"20":-0.027484097037356884,"21":0.17280113382565496,"22":0.0011721145544932986,"23":0.12977263157786623,"24":-0.08715443804826649,"25":0.016755225414025503,"26":0.015389578285536649,"27":-0.03604389588572242,"28":-0.009816962565459459,"29":0.1967986136364595,"30":0.02045625481761588,"31":0.09230327797367091,"32":-0.07025943856599122,"33":0.1356443596281213,"34":0.2670653409937542,"35":0.045825790343166826,"36":-0.14052751527254267,"37":0.16709048775328328,"38":0.060011508386392215,"39":0.17140924965426585,"40":-0.1286409182770109,"41":-0.07737877800340864,"42":0.04088619347903114,"43":-0.10062078201650768,"44":-0.16125635381041023,"45":-0.02644433221085607,"46":-0.017364242493443198,"47":-0.1306458304818218,"48":0.02613898995355949,"49":0.26872887607002466,"50":0.14579825899920845,"51":0.14433415361809288,"52":0.11985085761710439,"53":0.01217539564298333,"54":-0.08990919393680673,"55":0.03460998176030484,"56":0.2217336581403814,"57":0.12219113770321804,"58":0.0033863939799255675}},{"sx":1,"sy":1,"depth":59,"w":{"0":-0.1912084092604742,"1":0.09423696021798848,"2":-0.010949680365416773,"3":-0.08536922850461584,"4":0.05053136091605931,"5":-0.015235360249362161,"6":-0.026108212487480863,"7":-0.0005857998683674445,"8":0.2409717357672506,"9":0.10403870966285599,"10":0.2603753146026546,"11":-0.06530434012861232,"12":-0.0957079662344375,"13":-0.08065541145965098,"14":-0.0827543064061739,"15":0.02556871964988752,"16":0.014846043823721771,"17":0.04275698509956689,"18":0.13201338938337845,"19":0.0668529934591361,"20":-0.1167884212505796,"21":0.05713306650177007,"22":0.19692925062088823,"23":0.07395876222996067,"24":0.1536659141462564,"25":-0.17697047780107164,"26":-0.06810353420464639,"27":0.17400082249928048,"28":-0.09702089724608129,"29":0.3791761038041471,"30":0.04082124492063878,"31":0.22031365833968886,"32":-0.01733824466393815,"33":-0.03903836037819793,"34":0.087567023041627,"35":0.19053024315064335,"36":-0.19320825666444258,"37":0.29633758438147734,"38":0.014754324969103567,"39":0.04726428524912008,"40":-0.24403380445899314,"41":0.16510965772997904,"42":-0.1454724814590405,"43":0.09044272391016471,"44":0.07261185521650093,"45":0.10085532923946396,"46":-0.0413903381067789,"47":-0.15424443027728013,"48":0.008700289335806955,"49":0.10763096721494493,"50":0.23870944623740734,"51":-0.05106128187843482,"52":0.18338747904680075,"53":-0.05284367181475737,"54":-0.10131577122141322,"55":0.014114957941951,"56":0.14976689568244564,"57":0.09120423262337785,"58":-0.007828150949465238}},{"sx":1,"sy":1,"depth":59,"w":{"0":0.03554672536413185,"1":-0.07331242861454762,"2":0.1037967976248998,"3":-0.08610061245500567,"4":0.15619428603316346,"5":0.1689419760972588,"6":0.002102337033892579,"7":0.0005707173319454313,"8":-0.06499592546898612,"9":0.10735280726879153,"10":-0.024804805853694847,"11":-0.11365075782594532,"12":0.12667449627737865,"13":-0.20030015015787347,"14":0.1179505608059384,"15":-0.019806409918821006,"16":-0.06535938642908312,"17":0.14985579451940487,"18":0.19471654521653,"19":0.06680352279553112,"20":0.02041081196521248,"21":0.12727439339066338,"22":0.030752684968692184,"23":0.06751048187991468,"24":0.08315023349222052,"25":0.04539527474180395,"26":0.39248835741231514,"27":0.009436665038016975,"28":-0.030588323622478118,"29":0.07428473771767552,"30":0.4388775685141758,"31":0.033669704818553796,"32":-0.2889281976441299,"33":0.28266843547361153,"34":0.0005961616809749247,"35":0.005299484321762364,"36":0.027586788787256733,"37":0.019155540647829986,"38":-0.13192725537115121,"39":-0.017329533418863338,"40":0.050208786867076936,"41":0.015458969032796177,"42":-0.09368656121204862,"43":0.06106437952379208,"44":0.07113395227326258,"45":0.0028709507106810684,"46":0.2424125257107078,"47":-0.08181803419236021,"48":0.1539782685083444,"49":-0.07865831839899455,"50":0.04693479711141217,"51":0.05278163886379913,"52":-0.07921324764434824,"53":0.10767687469184792,"54":0.21386520629817787,"55":0.14495527377141218,"56":0.0981949207251084,"57":0.11488099992039602,"58":0.1636641007613878}},{"sx":1,"sy":1,"depth":59,"w":{"0":-0.09642625405316042,"1":0.09366566175547171,"2":-0.07152619682588979,"3":0.052390093763887396,"4":-0.2052211653201069,"5":0.004302845487957348,"6":0.3318571485181497,"7":0.09426466164507294,"8":0.023214673852244065,"9":0.008144679114866469,"10":0.11697075018932832,"11":-0.06465232188815488,"12":0.058945890339858156,"13":-0.14156282538970294,"14":-0.007342339756172284,"15":-0.1847936058368542,"16":-0.09426880589837915,"17":0.007441001999024106,"18":-0.1825045120323813,"19":0.1629329868453484,"20":-0.003003212522403789,"21":0.02766174463136583,"22":0.06204806453611298,"23":-0.07553282219249996,"24":-0.04435175490282434,"25":-0.14439059991255196,"26":0.08255720261900329,"27":-0.15111143644111583,"28":0.2616925795961074,"29":0.04437093877327576,"30":0.21820792547060697,"31":-0.06374923425259128,"32":-0.08325048848629285,"33":-0.037821502830608325,"34":0.26754842606663115,"35":-0.06267716677153615,"36":0.04602980795671632,"37":-0.18550963049497635,"38":0.11173920423528709,"39":-0.23589533689128295,"40":0.07701668673255511,"41":0.02211116965302799,"42":0.15109973949096261,"43":0.005673798706438063,"44":0.08975448156016458,"45":0.11125361509184459,"46":0.06630307435860917,"47":-0.14209367812637924,"48":0.21206718574713426,"49":-0.2685767367957744,"50":0.2506766764580886,"51":0.15778284088587374,"52":0.078879499041719,"53":-0.15399633815541497,"54":0.1221367600662487,"55":-0.05177536195730567,"56":0.09429431693303081,"57":0.1088652620632206,"58":0.09702186156108056}},{"sx":1,"sy":1,"depth":59,"w":{"0":-0.15385759989398257,"1":0.05972296377490413,"2":-0.07926946157283346,"3":0.09767324680583893,"4":0.06780702086727343,"5":-0.038180537601143386,"6":0.05373931699350752,"7":-0.03174428766130537,"8":0.00068788103059947,"9":-0.13226519088673241,"10":-0.020583857779096156,"11":0.028467851281549824,"12":0.28203123371047306,"13":0.16895978296363062,"14":-0.011332846526838542,"15":0.13311240599322804,"16":-0.03919888937962405,"17":0.1494127816981161,"18":0.1096051229003658,"19":0.08334924148065775,"20":0.17108427689042804,"21":-0.07400825654369339,"22":-0.03391116877002059,"23":0.003014145856248572,"24":-0.16810928817994636,"25":-0.046885275288647936,"26":0.007944205645167134,"27":-0.26963495086500217,"28":-0.0626231207628135,"29":0.3230168249565677,"30":-0.13768182234074913,"31":0.12454196363884341,"32":-0.14557251548103012,"33":0.10514101882792508,"34":0.09763649593087194,"35":-0.09455128919614363,"36":0.13770607430392073,"37":-0.11245373990005528,"38":0.10016213180313917,"39":-0.359225613683641,"40":-0.20537993878905028,"41":0.13832367142864185,"42":0.16343143700427795,"43":0.12222289234848517,"44":0.10409205462557215,"45":0.09128862400860177,"46":0.07249103901583824,"47":0.2647766480753457,"48":-0.3513050986948432,"49":-0.04244187764593138,"50":0.14263158895103836,"51":-0.015556717720988161,"52":-0.03229847631543199,"53":0.04295040429216444,"54":0.21287116149425273,"55":0.04286622268550615,"56":-0.09542671209568729,"57":-0.05037199176387565,"58":-0.31791820530239856}},{"sx":1,"sy":1,"depth":59,"w":{"0":0.15798143244375437,"1":-0.2363228461619988,"2":-0.12435736051404266,"3":0.20450239491524305,"4":-0.09889203362604174,"5":0.0586454442778906,"6":0.20656330740193338,"7":-0.09535975348698227,"8":0.011506347420899114,"9":0.10369360377222898,"10":0.049307335741342474,"11":0.06124721212460886,"12":0.06284435707771836,"13":-0.06593410523137123,"14":0.06162434698471888,"15":0.34915689188484744,"16":-0.03391457700242295,"17":-0.03535373522312109,"18":0.017254981147892066,"19":0.04293181033807418,"20":-0.03125506961933632,"21":0.23412866045498687,"22":-0.13268746860575928,"23":-0.02962090729799245,"24":0.02047234878503385,"25":0.11790134055560468,"26":0.013109343120447692,"27":0.04623111665499687,"28":0.18786094741083612,"29":-0.0000017416529825605072,"30":0.16682203519413089,"31":-0.0015384737367079484,"32":0.16186863037473553,"33":-0.12281856609182827,"34":-0.1688058953556723,"35":0.23860726644458255,"36":-0.07698200867223229,"37":-0.04013930007938132,"38":0.028263436279665592,"39":-0.1568721777445179,"40":-0.05059093801949494,"41":0.014887665904157157,"42":-0.02679004597809567,"43":-0.20180172434605903,"44":0.19007423353580896,"45":-0.02678065631356112,"46":-0.12104638085726721,"47":-0.04200340809987304,"48":0.256618757218866,"49":0.08788584239478367,"50":0.1243119320448349,"51":-0.18784214325838078,"52":0.12537245217692022,"53":-0.08089196786052497,"54":0.01957882577637253,"55":-0.0014950374492098775,"56":0.1255475561657895,"57":0.047236397937496497,"58":0.005113669205882044}},{"sx":1,"sy":1,"depth":59,"w":{"0":-0.1101459239794272,"1":0.16268659737680152,"2":-0.14896088028252655,"3":-0.10392070563607281,"4":-0.054296275230650504,"5":-0.13456592203768872,"6":-0.1257347783259721,"7":-0.08747704481674173,"8":0.17442402654158845,"9":-0.09948493802960165,"10":0.17916871648299013,"11":-0.10351705622022357,"12":-0.1479206250014583,"13":0.13351101570680624,"14":0.17958113130747783,"15":0.027900088718608475,"16":-0.06688549236155392,"17":-0.014020068476488755,"18":0.21969322459341073,"19":0.1489366635310483,"20":-0.18192974554939698,"21":-0.16755363859466046,"22":-0.06721188018001972,"23":-0.02469868523212159,"24":0.11027231130974291,"25":-0.05547234879033796,"26":0.10984786047568561,"27":-0.0044632513178341805,"28":-0.011884776668086081,"29":-0.08453945563265915,"30":-0.10927092883509865,"31":-0.03583759509973369,"32":0.018803948165982912,"33":0.00041676733857344176,"34":0.07634213880655803,"35":-0.0722562199576266,"36":0.06250883544880358,"37":-0.00313650474862951,"38":-0.22896380375498754,"39":0.09600002262534224,"40":0.11866960085405817,"41":-0.08111653166271125,"42":-0.022200760697177056,"43":0.007193954335937258,"44":-0.06102012354775187,"45":0.056540954804417135,"46":-0.024246013540963986,"47":0.10737317301578123,"48":0.05201827777654067,"49":-0.22031212113050147,"50":-0.024134511220462604,"51":-0.12765250783873,"52":-0.14639297367292015,"53":0.010581314410040947,"54":-0.007374446796907653,"55":-0.12784231609748098,"56":-0.16176973154877305,"57":-0.11680552551692659,"58":0.15090748404153947}},{"sx":1,"sy":1,"depth":59,"w":{"0":-0.09407478177296918,"1":0.05913356758291047,"2":0.07741073486526072,"3":0.07153186153842281,"4":-0.07715244390618778,"5":-0.044220661115979575,"6":-0.004800763233764433,"7":-0.1961488213841988,"8":-0.10448193689799787,"9":-0.18617033275055106,"10":0.015504866690959719,"11":-0.1507374496692188,"12":-0.11063127037823181,"13":0.03769154272828234,"14":0.012355834070635853,"15":-0.031358971026230184,"16":0.08657835355096942,"17":-0.21013829596732844,"18":-0.015653980738280598,"19":-0.14469839523155154,"20":-0.011135530317926263,"21":-0.1853589847705805,"22":-0.0673236293118681,"23":0.1651410518345791,"24":-0.1860780195170174,"25":-0.10533089446381712,"26":0.07110121516920373,"27":0.1615952329999837,"28":-0.19730048376021797,"29":-0.030034588413662407,"30":0.01623478035024045,"31":0.1871515420700518,"32":-0.06098273362143317,"33":0.14635003447457792,"34":0.16270034794169191,"35":-0.022617108244512154,"36":-0.08029194402386827,"37":0.1529994515030395,"38":0.07642091143748468,"39":-0.1543982996254481,"40":-0.2480448215927249,"41":0.10852367168473194,"42":-0.026196690829544764,"43":0.08281126021813719,"44":0.14297285467595527,"45":-0.05866495329830148,"46":-0.02331797319516334,"47":0.022580103670600468,"48":-0.13673805803717437,"49":-0.08231510251962756,"50":-0.017654104322650594,"51":-0.11028580813418781,"52":-0.12180603631316414,"53":0.44534340557723245,"54":-0.1618414949889371,"55":0.1697589185663717,"56":0.08527733360613968,"57":-0.07794149222664368,"58":0.13746533767297198}},{"sx":1,"sy":1,"depth":59,"w":{"0":-0.01765210641515474,"1":0.11856534961447407,"2":-0.21244891852778436,"3":0.04564065703301975,"4":0.054970830417015705,"5":0.050247379691519115,"6":0.17600610271956876,"7":-0.08412985164122472,"8":0.07381724271307452,"9":0.06910752271796321,"10":-0.12116711156579393,"11":-0.1255320327013959,"12":0.1025182640667364,"13":0.07804815020153666,"14":0.22464147581960348,"15":0.20401292764455412,"16":-0.08200964890071205,"17":-0.06933795197822083,"18":0.1817108401997088,"19":-0.0344318181816842,"20":0.0692671628576748,"21":-0.08403999591236223,"22":0.04487247399495956,"23":0.1132258045448746,"24":0.2213657321929564,"25":-0.07662132037039202,"26":-0.034173499394966486,"27":-0.1917916919386012,"28":0.1495252922194654,"29":0.09501140627481436,"30":-0.21926386426114614,"31":0.1119049035707294,"32":-0.07599190781025668,"33":0.18048471298625957,"34":0.23060406646845644,"35":0.06679696760488495,"36":0.11380076443315744,"37":-0.2871773347179712,"38":0.07639348587185688,"39":-0.12238128201487614,"40":-0.03547066615760753,"41":0.06081981966171726,"42":-0.15174981827985026,"43":-0.20747739707696533,"44":-0.013191417853814684,"45":0.016394327299452807,"46":0.06058817469316228,"47":0.1732389958848464,"48":0.09493344858598254,"49":-0.21933757120957886,"50":0.021106566420444454,"51":0.17359885775002526,"52":0.014321633071680731,"53":-0.0058505500693138285,"54":0.010911579981453654,"55":0.11219273074890206,"56":0.17304173085393545,"57":0.027848106687875396,"58":0.14719143369848844}}],"biases":{"sx":1,"sy":1,"depth":50,"w":{"0":0.09947771089180572,"1":0.10428308809918081,"2":0.1008744749768242,"3":0.09995901236957556,"4":0.10097453311667103,"5":0.10174449011735058,"6":0.10047476195491493,"7":0.09854947779578185,"8":0.0998160087035679,"9":0.10437488033237391,"10":0.1,"11":0.10024862434072442,"12":0.09936966417127112,"13":0.10416775042782393,"14":0.09820978551933673,"15":0.09713340703273968,"16":0.09665195794140657,"17":0.10133732190752974,"18":0.10016062149936042,"19":0.09751185884952655,"20":0.1,"21":0.09787098107544899,"22":0.09870007707687183,"23":0.10034024854968858,"24":0.10009880439307203,"25":0.10026480025032644,"26":0.09755185048223063,"27":0.1002386729898309,"28":0.10051446816258298,"29":0.09920883272726151,"30":0.0970937317824808,"31":0.10166142575400647,"32":0.0953092954057675,"33":0.09906087450697228,"34":0.10033916552344653,"35":0.09901471367468616,"36":0.10120997384290051,"37":0.10027120418479317,"38":0.0976070553517217,"39":0.10125690671276563,"40":0.1010621289382107,"41":0.09713551678106523,"42":0.10067734486502433,"43":0.09850668201109472,"44":0.1009194917709794,"45":0.09821918284591222,"46":0.09942390115058207,"47":0.09826724612527435,"48":0.09944172830704433,"49":0.09995539707406063}}},{"out_depth":50,"out_sx":1,"out_sy":1,"layer_type":"relu"},{"out_depth":50,"out_sx":1,"out_sy":1,"layer_type":"fc","num_inputs":50,"l1_decay_mul":0,"l2_decay_mul":1,"filters":[{"sx":1,"sy":1,"depth":50,"w":{"0":0.06495756186022705,"1":-0.03342009083247735,"2":-0.19783089746684424,"3":-0.17414466070949416,"4":0.16912723303103988,"5":0.2082989047052875,"6":-0.1641168925311836,"7":-0.028147509736075365,"8":0.041337542142185844,"9":0.21826845072289303,"10":0.002461625984408445,"11":0.11942009373751956,"12":-0.19395849613839447,"13":0.010568463023644165,"14":-0.1316563916625336,"15":-0.0002546859200246656,"16":0.1368326102989545,"17":0.00781691666272722,"18":0.08069024041072526,"19":0.011234669499987712,"20":0.24977835913965338,"21":-0.14181759151659662,"22":0.07987004991267857,"23":-0.11314214999071892,"24":0.013829931379696682,"25":-0.041933678846290415,"26":-0.11271863162522568,"27":-0.3319757905032867,"28":-0.07691615169316965,"29":0.16435131995179802,"30":0.10213118058193202,"31":-0.10131924269386215,"32":0.08995232195739236,"33":0.17886342712343895,"34":-0.04404501706187908,"35":0.05931125439497927,"36":0.22561160009482825,"37":0.10565688530199224,"38":-0.035790510081358355,"39":0.03696856195355746,"40":-0.16959771505254254,"41":0.13100696225843622,"42":0.07808068969802234,"43":-0.06559373127889306,"44":0.0656088286613228,"45":-0.07466697837491419,"46":-0.05639920144937082,"47":-0.03237112036823329,"48":0.04828399394585118,"49":-0.2824183656086631}},{"sx":1,"sy":1,"depth":50,"w":{"0":-0.006590854865552976,"1":0.03853624818068717,"2":0.15987921988216486,"3":-0.29345472042031334,"4":-0.13664278787868223,"5":-0.1847702310167534,"6":-0.2978860518014904,"7":-0.14702103789931653,"8":0.14264994999827177,"9":-0.18368688524011725,"10":0.1752812485191248,"11":-0.11832535235522847,"12":0.045473403335116507,"13":-0.082458819291276,"14":0.10976032292700097,"15":-0.21953265510854156,"16":0.035052912213959,"17":-0.23534562663840206,"18":-0.08310512483956563,"19":0.16487803903814952,"20":0.23492802077350264,"21":-0.024918249097625415,"22":-0.04349216543665651,"23":0.0343905739775161,"24":-0.12056218186957351,"25":-0.2621468551867137,"26":-0.12539377088786122,"27":-0.09736134265846083,"28":0.12053137875589527,"29":0.14345310041725862,"30":0.0891143348091177,"31":0.04466743957233935,"32":0.14927975045625017,"33":-0.09965605658444002,"34":-0.12402369664717375,"35":0.040369215119419904,"36":0.15586517298418398,"37":-0.01993976364824531,"38":0.03056892788453348,"39":0.12015617595155734,"40":0.015778761265280272,"41":0.06016356409339539,"42":0.0861435401441488,"43":0.0742087039573247,"44":-0.031708643582013106,"45":0.06966607139571158,"46":-0.1100270965962728,"47":-0.03837855745428429,"48":-0.23661268032244306,"49":-0.13702600065034962}},{"sx":1,"sy":1,"depth":50,"w":{"0":0.038924080197364465,"1":0.03167777061078416,"2":0.1091959368203913,"3":-0.06668012217805265,"4":-0.08149696938782908,"5":-0.19701785382285117,"6":-0.03733464726435805,"7":-0.09368659432560154,"8":0.21168313836351732,"9":0.1245883420508284,"10":-0.030273939575044487,"11":0.03885525837109469,"12":0.09858271052211233,"13":0.07392528185890843,"14":-0.07533842286634039,"15":-0.06633556432123665,"16":0.022364066248537012,"17":0.004993731400551291,"18":0.07720352617971232,"19":-0.3622851931594508,"20":-0.17018477094782603,"21":0.1740042424518734,"22":-0.06750357135893782,"23":0.17959493979924943,"24":0.08441934371232258,"25":0.07061999781328296,"26":0.10273502885940568,"27":0.2644047302405787,"28":-0.021647619196546217,"29":-0.0889187212333497,"30":-0.2680959861979949,"31":-0.009614371952826866,"32":0.35042692670377484,"33":0.2202097743285889,"34":0.02339838018502769,"35":0.3638694171769091,"36":-0.08088657633399308,"37":0.023531573055711873,"38":-0.09659511576969299,"39":-0.12340635239830067,"40":-0.3156063469366622,"41":0.21985199322279064,"42":0.05798901895227304,"43":0.10200250349623347,"44":-0.12930832837064776,"45":0.03094566265936233,"46":-0.07193793164355614,"47":0.16118994453049543,"48":-0.11247412036205617,"49":0.1531149747841654}},{"sx":1,"sy":1,"depth":50,"w":{"0":0.29520094354859133,"1":-0.25977939553175794,"2":0.0350098075583917,"3":0.2166562741068741,"4":0.22615227521557085,"5":-0.04599615163825941,"6":0.09242835188042978,"7":0.21915568284208237,"8":0.17807145132987073,"9":-0.19031807559861885,"10":0.14531469632274582,"11":-0.048832743805249726,"12":0.22023966372821796,"13":-0.2806237181474157,"14":-0.01051152968218453,"15":0.03154635378896124,"16":0.17763829831796252,"17":-0.09392684513228541,"18":-0.15243515056735762,"19":-0.08536108773636122,"20":0.01739059941906358,"21":0.09006365539734196,"22":0.02278566174045561,"23":-0.031216058119827247,"24":-0.22566904760381418,"25":0.19997534240082376,"26":0.1636500160257238,"27":-0.20164120935417673,"28":-0.11412027708798703,"29":0.10197953348553336,"30":0.10394755429481985,"31":-0.08064094869837703,"32":0.2788102317292948,"33":0.08081723868072103,"34":0.027312563267828216,"35":-0.15705054990661765,"36":0.14870984944085802,"37":-0.02028660204032654,"38":0.1390647429555688,"39":0.057409214998174404,"40":0.03232382532894031,"41":0.011046624624965312,"42":-0.0035538207124197387,"43":0.047425133711362116,"44":0.15463960364018234,"45":-0.0005031712578851379,"46":-0.09189051018124654,"47":-0.39930884903835684,"48":0.06367317433325616,"49":-0.15342384103060133}},{"sx":1,"sy":1,"depth":50,"w":{"0":0.1728359384561404,"1":0.034740558189863754,"2":-0.22377014042337542,"3":0.041594221360196734,"4":0.22309400837285973,"5":0.16416139241187633,"6":0.2962213096705093,"7":0.033902291328467164,"8":-0.03442956516537901,"9":0.06877000336590296,"10":-0.00185206348507439,"11":-0.007956569730520276,"12":0.009274220279636211,"13":0.01788159833850876,"14":-0.17381060431723083,"15":0.2048747864900123,"16":-0.25368723330436227,"17":-0.164939088651672,"18":-0.15053754328511637,"19":0.33921571019187124,"20":-0.0019853285068020866,"21":-0.3626151768518947,"22":-0.27022369725502204,"23":-0.2173458026134415,"24":0.10271829166814368,"25":0.23005032747636808,"26":0.10794014887777603,"27":0.009304170184139688,"28":-0.07634097911881862,"29":0.10471597744750032,"30":0.17416047085876388,"31":0.08879913686418568,"32":-0.22278102228988395,"33":-0.052497999115844414,"34":0.010972324244215943,"35":0.07499057436122579,"36":-0.032552644194532,"37":0.11778795168017099,"38":-0.08172959035771891,"39":0.22088247979203207,"40":0.18355789680326529,"41":0.1003175324236657,"42":-0.15154268085830921,"43":-0.09001645507636179,"44":-0.02855363527247505,"45":-0.17558308259115663,"46":0.035724126733186305,"47":-0.2477746205204299,"48":-0.1565874994776428,"49":0.3481684747478858}},{"sx":1,"sy":1,"depth":50,"w":{"0":-0.06499705583429524,"1":-0.04576356917164213,"2":0.12150609260620099,"3":0.16188158374084508,"4":0.22610701274766187,"5":-0.07738025973937011,"6":0.08558966596991613,"7":0.17955026462675547,"8":-0.08368264900790807,"9":0.07236756001027074,"10":0.01025027748392572,"11":0.09499231338271445,"12":0.19804624198125562,"13":-0.07701039273982056,"14":0.02476951404279472,"15":0.12664428604795203,"16":-0.1886616402686237,"17":-0.3789924739266149,"18":-0.01999064740090779,"19":0.09590719706616327,"20":-0.16802629023935625,"21":0.053695558397398445,"22":0.2152779863568458,"23":0.09721030136378409,"24":0.19215761754746855,"25":-0.03163523250955959,"26":-0.06482563720901939,"27":0.09442450796965664,"28":0.03750994168824357,"29":0.10882235834355398,"30":0.25305524236955995,"31":0.11888387043317214,"32":-0.13378165040614967,"33":-0.05139594125800287,"34":0.42476480960856533,"35":0.04018592108842937,"36":-0.024483358898250596,"37":0.14037618633491727,"38":0.06663316847358682,"39":-0.13717067486671103,"40":-0.15389395688632138,"41":0.012390946799514562,"42":-0.030680627950684176,"43":-0.030915990401837647,"44":-0.14238710753236716,"45":-0.20934161314792837,"46":0.0841502483372975,"47":0.06508849587279343,"48":-0.05183141033638753,"49":0.11096747691561064}},{"sx":1,"sy":1,"depth":50,"w":{"0":-0.16882879393512826,"1":-0.2648445314581419,"2":-0.09747406851065793,"3":-0.08241582043363684,"4":-0.21395872327384718,"5":-0.07884515971490934,"6":0.19848254374538227,"7":0.017096538604015655,"8":-0.07318448983150176,"9":-0.056462443676755444,"10":0.05506961862323042,"11":0.0490793022345013,"12":0.0774117926953908,"13":0.11298908541963514,"14":0.1476436724517055,"15":-0.34793244410117097,"16":-0.18569851971707663,"17":-0.3354985471235846,"18":0.1008716363718434,"19":0.11487591860008181,"20":0.20938398665268748,"21":0.14684721939670167,"22":0.22976129489255187,"23":-0.27649829127012243,"24":-0.00243330335569267,"25":0.11156332705149262,"26":0.0036544753266803055,"27":0.11366657223677942,"28":0.22051288845279224,"29":0.05826408844336093,"30":0.07624482016949392,"31":0.16859752890628113,"32":-0.10430569789425206,"33":0.018295881507265743,"34":0.25582457619184495,"35":-0.05958935240075055,"36":-0.1606265824235559,"37":-0.09890333148334421,"38":-0.02731807624134334,"39":0.05456838848061304,"40":0.07160643268288244,"41":0.33211200177795563,"42":0.044948735911385866,"43":0.19191697345997505,"44":0.10170194840484134,"45":0.018332300832151996,"46":-0.21718591792401035,"47":0.09539759326988731,"48":0.063771759422178,"49":-0.012988573924079013}},{"sx":1,"sy":1,"depth":50,"w":{"0":0.23609918592434354,"1":-0.20056889204086015,"2":0.06819100093578068,"3":0.04437498140709729,"4":0.14109976545011907,"5":0.2505850793098294,"6":-0.1649631611844595,"7":0.046257810357042364,"8":0.11834243649739642,"9":-0.1306546395306628,"10":0.40419302172899696,"11":-0.033551623206850546,"12":-0.12595298818699052,"13":0.14175388063481262,"14":0.19132787702654905,"15":-0.08614883245263946,"16":0.1907861541425882,"17":-0.1592122519343291,"18":0.055957085808241304,"19":-0.05879615560636384,"20":-0.03703485148554313,"21":-0.08241134007696777,"22":-0.14327059964609062,"23":0.031628678261579536,"24":0.10453158000761689,"25":0.02161280295162451,"26":0.18883864980128018,"27":-0.03553664464746558,"28":-0.14142552176131942,"29":0.10304829868804297,"30":-0.1024633322892729,"31":0.13920409993505609,"32":-0.09205723430610974,"33":-0.10821559019997627,"34":-0.04052934492376761,"35":-0.21587237136326373,"36":0.1241242934149302,"37":-0.006495364805658553,"38":-0.0429151994776204,"39":0.0034677642493784297,"40":0.0413496869175141,"41":0.18791034379256924,"42":-0.08482987122528977,"43":-0.095724870655085,"44":-0.13367907427612563,"45":0.08532965176089648,"46":-0.2033752656594941,"47":0.21307284258591733,"48":0.0419566403535032,"49":-0.07386888335244202}},{"sx":1,"sy":1,"depth":50,"w":{"0":0.040068280776708626,"1":-0.21037450045761813,"2":0.21157199928177012,"3":0.28426574352140893,"4":0.033122299741525564,"5":0.18477174815186245,"6":-0.22780969725030045,"7":-0.03562081387890616,"8":0.14036953322706786,"9":0.07887482485607682,"10":0.1812565367192112,"11":0.10210095892748107,"12":-0.12401876115722046,"13":-0.26078504196366015,"14":-0.038437583006320844,"15":0.0414290396658341,"16":0.016173016454498694,"17":-0.08013247865843505,"18":-0.09709276733722443,"19":-0.06172171402704826,"20":0.1546225371880181,"21":0.010904537661971792,"22":-0.32294729533746497,"23":0.09801787413769118,"24":0.2336974898429842,"25":0.11218816792039603,"26":-0.193497086013009,"27":0.09430432449620324,"28":0.16074251832056924,"29":0.09049991597394935,"30":-0.046766765867328405,"31":0.10047431259861116,"32":-0.036923157312796065,"33":-0.2708801240693683,"34":-0.008567998158307326,"35":-0.1103214749549262,"36":-0.23444854236120635,"37":0.05494721255210131,"38":0.09737130798489042,"39":-0.0631320781747753,"40":-0.19649705702475317,"41":0.20547952041913958,"42":0.11059198723248166,"43":0.013243987295202785,"44":0.05888069449078191,"45":-0.15090298373642083,"46":-0.2344633231415228,"47":0.18350495268591882,"48":0.022849181594638182,"49":0.031606586421456806}},{"sx":1,"sy":1,"depth":50,"w":{"0":0.02036421493875039,"1":-0.04724773277477228,"2":-0.1885770478951004,"3":0.0663836780326738,"4":-0.1136274346342559,"5":-0.0488803018102062,"6":0.06152327095479041,"7":-0.16317390403044232,"8":-0.1519735685585839,"9":-0.06380520725872706,"10":0.06161359963243473,"11":-0.15646273699229923,"12":-0.05013436019482821,"13":0.14023661754996633,"14":0.014232201036776795,"15":-0.010632948538963832,"16":0.05543405868055702,"17":0.042644371047746404,"18":-0.05117116848058002,"19":-0.004669195997468681,"20":-0.03349799834647502,"21":-0.12566030282426457,"22":0.1706652516287275,"23":-0.1937877133862698,"24":0.004119307684240704,"25":0.028041212926054236,"26":-0.015180509378184458,"27":0.1315793832878384,"28":0.09789307306998153,"29":0.14058299077058486,"30":-0.32247090778753795,"31":-0.04737824438888577,"32":0.09531008156934981,"33":-0.10674797165831434,"34":-0.24992059166356867,"35":-0.0697280072936649,"36":0.058759349293671645,"37":-0.09756440828639337,"38":0.18571390309648333,"39":-0.1075642142547349,"40":0.029117094812255447,"41":0.057683552569694166,"42":-0.1267439311819192,"43":0.005876405172423298,"44":0.020258599955471107,"45":0.07608587531284874,"46":-0.12564194485731836,"47":-0.22150759170142484,"48":-0.06873621359150188,"49":-0.22021079321119394}},{"sx":1,"sy":1,"depth":50,"w":{"0":-0.30599851275980555,"1":-0.08123527436155113,"2":0.05357064427940303,"3":-0.05040941300935091,"4":0.062396949208955665,"5":0.20593229318980455,"6":-0.24406568063713308,"7":0.14466622937462448,"8":0.04703707460286376,"9":-0.12866920975095544,"10":-0.06457746073635401,"11":0.02985930088512796,"12":-0.07327001256646302,"13":-0.18706702963547214,"14":0.11155026999676834,"15":0.2117054799703304,"16":0.016654004763072477,"17":-0.13345604965111668,"18":0.09396721207954381,"19":-0.25532258208177516,"20":-0.07012954164201672,"21":-0.19840041258700167,"22":0.3122266705199999,"23":0.1133887437086368,"24":-0.13940042978571912,"25":-0.07499689976564193,"26":0.045808728550582344,"27":-0.12463509389200315,"28":-0.014517880910972504,"29":0.13806944751388725,"30":-0.13250410125002304,"31":0.11513748109354185,"32":-0.05596888015702907,"33":-0.010997753529844828,"34":0.05613890267706214,"35":-0.17685149516571974,"36":-0.05199255390848399,"37":-0.0399813223203472,"38":0.2547980014703143,"39":0.038342290390946845,"40":0.13573667295241096,"41":0.1747346691226509,"42":0.27231010398259886,"43":-0.12726924051609956,"44":-0.10012531366336717,"45":0.139439186769554,"46":0.04164247301653594,"47":-0.001877504180927103,"48":0.12558244802872628,"49":0.0656506849826464}},{"sx":1,"sy":1,"depth":50,"w":{"0":-0.08041384500842676,"1":0.2766973313457967,"2":-0.026804030660118515,"3":-0.030066397243620393,"4":0.10481675214541844,"5":0.13834663300352698,"6":0.15982043933730547,"7":-0.07733492613557946,"8":0.2009569674822326,"9":0.1687742839033802,"10":0.2326538190675992,"11":0.16444600796959083,"12":-0.027320592538492134,"13":-0.03979456840661369,"14":0.0020722793144800134,"15":-0.2999817025066213,"16":0.018771555886109393,"17":-0.09233576165993979,"18":-0.37665170869557546,"19":-0.11480680589695115,"20":0.0183325749992164,"21":-0.189761479886513,"22":-0.1805102776588633,"23":-0.029547551920864636,"24":-0.09790106156681304,"25":0.22476909929950628,"26":0.043367166758338765,"27":0.10271324999257547,"28":0.017078724606536037,"29":0.09326390022563938,"30":0.40459382921151904,"31":-0.021422768568167185,"32":-0.16808114261316923,"33":0.09482580269478585,"34":0.057740319565875345,"35":-0.05036789973385848,"36":-0.08456970925424537,"37":-0.08583881766659841,"38":0.14421418980029685,"39":0.04811408268042811,"40":-0.15521428115217434,"41":-0.05636189842995424,"42":0.10250242549820324,"43":0.08099172129423923,"44":-0.19347882999800003,"45":0.07225232605896442,"46":-0.1435558567303504,"47":-0.22627399450416777,"48":-0.07828950514165076,"49":0.025500015221210114}},{"sx":1,"sy":1,"depth":50,"w":{"0":-0.013493957378466878,"1":0.04212534629301772,"2":0.07087572568912757,"3":-0.004838736560061874,"4":0.019640023217142786,"5":0.07866981837862001,"6":0.050514184970966554,"7":-0.27663382590134333,"8":0.03174183269258413,"9":-0.043585230729297215,"10":0.12777147756199259,"11":0.056334691804494665,"12":0.1462730904739487,"13":-0.12506096176143747,"14":0.14701140596542017,"15":-0.4376957385781343,"16":0.02873532209892983,"17":-0.08332550088645459,"18":-0.040270583170742946,"19":0.14107472848965977,"20":0.04053066022642196,"21":-0.008937315263458192,"22":-0.1688001986060126,"23":0.2004975460797361,"24":-0.09304688742488787,"25":-0.04855007274844405,"26":-0.08868723351555698,"27":-0.2431821821278499,"28":-0.03771397002507185,"29":0.03312772815735016,"30":-0.04835624083918637,"31":-0.05055336100746969,"32":-0.06743156581920622,"33":0.08500489769241906,"34":0.008647824113748578,"35":0.02126541176338283,"36":0.2527212338176549,"37":0.052983924753077304,"38":0.019077767258242593,"39":-0.07941024095144752,"40":0.08194649461311726,"41":0.022311358495264798,"42":0.10549199802182817,"43":-0.15552013686236413,"44":0.18270916667052728,"45":-0.16658029119667553,"46":-0.008664260062411454,"47":0.0954390829575608,"48":0.0982682129904192,"49":0.008612938180744158}},{"sx":1,"sy":1,"depth":50,"w":{"0":-0.3043134811945113,"1":0.16691487323859586,"2":-0.02548095606251147,"3":0.06261092055020519,"4":0.1057799666085274,"5":0.15051327458381916,"6":0.2638557984856572,"7":0.2766915061303869,"8":0.11224593576521288,"9":0.05515669368118432,"10":0.03999934418374286,"11":-0.012888440049594068,"12":-0.020577934895920098,"13":0.2618462745288944,"14":-0.07737297421290924,"15":0.027271544544284418,"16":-0.11252891330740875,"17":0.1639278429252815,"18":-0.048645879861212715,"19":0.17139190921495162,"20":0.07889316875579627,"21":-0.02676559460505333,"22":-0.09530263572122978,"23":0.04244846421135842,"24":-0.0024107942289212842,"25":-0.03279463461141883,"26":-0.05799241553151268,"27":-0.11200571011538134,"28":-0.07501855536773713,"29":0.09592552711183276,"30":0.019579099745869032,"31":0.09452783644375318,"32":0.19611093471019203,"33":0.14467673673945325,"34":0.056106672191567036,"35":-0.17086106151591432,"36":-0.1992712783068236,"37":0.012212313158377808,"38":0.03351260193422561,"39":-0.150208833495168,"40":-0.07192214250768807,"41":0.015746151803543648,"42":0.24794350063575032,"43":-0.13551625379162213,"44":0.24836342252255528,"45":-0.021130627064580097,"46":-0.10486658979600162,"47":-0.18289568450634078,"48":0.05222456799733022,"49":-0.24790618263749914}},{"sx":1,"sy":1,"depth":50,"w":{"0":-0.0700968763081075,"1":0.029433856617953412,"2":0.01588820171100526,"3":0.08255547295004612,"4":-0.10170842298426946,"5":0.15393274230458628,"6":-0.02277120113941439,"7":0.016816406160692583,"8":0.04382543548929111,"9":0.05186536540542162,"10":-0.09167619759009678,"11":-0.017133295099836587,"12":-0.13732959162740624,"13":0.04193115074989689,"14":-0.04342398079110173,"15":-0.1846247607221894,"16":-0.3560457187180436,"17":0.13577719530976065,"18":0.09934043018898053,"19":-0.06287000577175993,"20":-0.21164875026250718,"21":-0.0782920103395797,"22":0.07154823325791232,"23":-0.12517531261948805,"24":-0.015622406140392167,"25":0.1992340774655055,"26":0.34295071618153156,"27":0.05467487888076497,"28":-0.09828345963113566,"29":0.13661883643620848,"30":0.12459775472293866,"31":-0.046863838867507834,"32":0.09542726807853091,"33":0.06185814581086787,"34":-0.22850560699431507,"35":0.0741580691733244,"36":0.1733226474047963,"37":-0.13943926989684585,"38":-0.09786291823792861,"39":0.00530683328991877,"40":0.04536033712992586,"41":0.1528747030688482,"42":0.27644287683093777,"43":-0.31119897311490413,"44":0.10883366510128699,"45":-0.13567556021621707,"46":-0.32561280338770276,"47":0.007519136497630754,"48":0.0984618679297567,"49":-0.19887057680612447}},{"sx":1,"sy":1,"depth":50,"w":{"0":-0.07397339589491574,"1":0.03849773788295032,"2":-0.03564653342354659,"3":-0.12142813670139417,"4":-0.05785706369723649,"5":0.03657090164930332,"6":-0.2455543334873538,"7":0.009527651146265474,"8":-0.14767179273050862,"9":-0.09638817152320242,"10":-0.17254838126672295,"11":0.0007391441554565338,"12":-0.03899303015300423,"13":-0.2214998060695208,"14":-0.12869651934598517,"15":0.04187194193693376,"16":0.03110346016295188,"17":0.10890727893758698,"18":-0.07009422645046172,"19":-0.10723831253434905,"20":0.05384160042842033,"21":0.10904734803891834,"22":0.16180068690468205,"23":-0.08497638238406137,"24":0.027362879145207675,"25":0.10551531527755983,"26":0.1062476424613563,"27":-0.0005595977785724669,"28":-0.05341751595851776,"29":-0.12145365385246149,"30":0.049432956250992525,"31":-0.004877320257406564,"32":-0.1903829319432735,"33":-0.003346031150104342,"34":0.028003107002582905,"35":-0.08977555968234216,"36":-0.025330473183404974,"37":0.13782730247484903,"38":-0.11405592251993628,"39":0.09576453525710765,"40":0.061486835562617415,"41":-0.01444092981268934,"42":-0.07196655405237819,"43":-0.0261833355268575,"44":-0.04635851014154817,"45":0.20346297941509997,"46":-0.07909505981900192,"47":-0.040897885870009615,"48":-0.1393641542656151,"49":-0.10176833712231051}},{"sx":1,"sy":1,"depth":50,"w":{"0":-0.18450186002269175,"1":-0.008956202058661468,"2":0.12566807076592196,"3":0.050363080051258856,"4":0.01363191073427564,"5":-0.016251308808175036,"6":-0.051966518701092944,"7":-0.04161432275950987,"8":0.08752642000444981,"9":0.23053396256928876,"10":0.08897135795723755,"11":0.03889479465287492,"12":0.0022043911571579065,"13":0.001235459087125106,"14":-0.09371852709942925,"15":-0.0636856601015195,"16":0.1757010424711729,"17":0.120348263136649,"18":-0.13158559879157905,"19":0.04333347562145729,"20":0.015238780463273411,"21":-0.0782956406974745,"22":0.14963384895419374,"23":-0.07591715571485222,"24":0.05174182901203071,"25":0.026036034095311765,"26":0.05236608388463551,"27":-0.024069284913114036,"28":0.330144004803189,"29":0.02081527400190563,"30":-0.1887586967961887,"31":0.05459425941124094,"32":0.12629416087203046,"33":-0.09041758091292781,"34":-0.12824352749634876,"35":0.21998382756891716,"36":-0.007845972337762004,"37":-0.13916216110354085,"38":0.2714117963422473,"39":-0.180729833109415,"40":-0.32311519380328657,"41":0.08732188201865658,"42":-0.009463328781662003,"43":0.021423238978974617,"44":0.0159271316455741,